//
// #include <Arduino.h>
//
// #define INPUT_SIZE 128
// #define NUM_CLASSES 6
// #define CLASS_INDEX 128
//
// /* Instance array must be global
//  * Attributes MUST be sorted in instance array in the following order:
//  * V1
//  * V2
//  * V3
//  * V4
//  * V5
//  * V6
//  * V7
//  * V8
//  * V9
//  * V10
//  * V11
//  * V12
//  * V13
//  * V14
//  * V15
//  * V16
//  * V17
//  * V18
//  * V19
//  * V20
//  * V21
//  * V22
//  * V23
//  * V24
//  * V25
//  * V26
//  * V27
//  * V28
//  * V29
//  * V30
//  * V31
//  * V32
//  * V33
//  * V34
//  * V35
//  * V36
//  * V37
//  * V38
//  * V39
//  * V40
//  * V41
//  * V42
//  * V43
//  * V44
//  * V45
//  * V46
//  * V47
//  * V48
//  * V49
//  * V50
//  * V51
//  * V52
//  * V53
//  * V54
//  * V55
//  * V56
//  * V57
//  * V58
//  * V59
//  * V60
//  * V61
//  * V62
//  * V63
//  * V64
//  * V65
//  * V66
//  * V67
//  * V68
//  * V69
//  * V70
//  * V71
//  * V72
//  * V73
//  * V74
//  * V75
//  * V76
//  * V77
//  * V78
//  * V79
//  * V80
//  * V81
//  * V82
//  * V83
//  * V84
//  * V85
//  * V86
//  * V87
//  * V88
//  * V89
//  * V90
//  * V91
//  * V92
//  * V93
//  * V94
//  * V95
//  * V96
//  * V97
//  * V98
//  * V99
//  * V100
//  * V101
//  * V102
//  * V103
//  * V104
//  * V105
//  * V106
//  * V107
//  * V108
//  * V109
//  * V110
//  * V111
//  * V112
//  * V113
//  * V114
//  * V115
//  * V116
//  * V117
//  * V118
//  * V119
//  * V120
//  * V121
//  * V122
//  * V123
//  * V124
//  * V125
//  * V126
//  * V127
//  * V128
//  */
// float instance[INPUT_SIZE+1];
// const float minArray[129] = {-16757.5986, 0.176524, 0.000169, 0.0001, 0.0001, -131.332873, -227.627758, -1664.735576, -16119.4609, 0.185164, 0.005158, 0.031118, 0.0001, -88.523778, -220.311118, -1835.077173, -22110.7265, 0.226896, 0.001738, 0.007875, 0.103424, -18.618364, -79.277054, -355.47493, -23660.6348, 0.459517, 0.0001, 0.0001, 0.0001, -42.152371, -406.576259, -2946.481557, -1323.8902, 0.696367, 0.003074, 0.040027, 0.27325, -12.562238, -131.697907, -880.09864, -1793.2075, 0.645011, 0.004516, 0.034301, 0.28492, -3.878568, -31.199813, -173.689847, -17594.2305, 0.538273, 0.001495, 0.01717, 0.119308, -26.608183, -60.688838, -337.133234, -18973.4063, 0.53948, 0.004709, 0.0001, 0.0001, -28.302727, -67.191467, -426.862076, -4441.2929, 0.535074, 0.001964, 0.003968, 0.034808, -80.369064, -149.376589, -1285.634138, -3487.9385, 0.594011, 0.002721, 0.0001, 0.0001, -85.431436, -141.89135, -1013.390761, -9959.8164, 0.687178, 0.0001, 0.0001, 0.0001, -23.3506, -49.02293, -239.816042, -8441.7246, 0.683912, 0.003372, 0.03339, 0.0001, -18.0507, -38.455448, -153.702736, -1045.3384, 0.828698, 0.007792, 0.059133, 0.312217, -4.240221, -11.391879, -93.856521, -1171.5616, 0.82061, 0.001948, 0.054492, 0.380956, -3.786205, -11.202342, -79.162267, -9231.1191, 0.717645, 0.001705, 0.022642, 0.383364, -36.1636, -76.0692, -482.278033, -8297.5488, 0.712112, 0.003414, 0.011488, 0.118849, -30.205911, -58.844076, -410.152297, NAN};
// const float maxArray[129] = {670687.3477, 1339.879283, 167.079751, 226.619457, 993.605306, -0.006941, 22.201589, 115.273147, 502202.8125, 1672.363221, 131.449632, 321.251421, 1981.078803, -0.016584, 11.180829, 116.505547, 70140.4849, 36.286268, 50.141517, 360.706975, 3231.238562, -0.012046, 4.311456, 5.332037, 67132.3876, 144.514127, 169.247942, 730.923855, 12005.618886, 0.0, 3.536564, 4.569332, 14114.3314, 344.27041, 19.809417, 104.346904, 481.390687, -0.003572, 1.551069, 2.097217, 13800.2196, 31165.169585, 22.108175, 118.083433, 437.181007, -0.005127, 1.632964, 2.146039, 82147.8037, 8228.716063, 38.088659, 179.872874, 394.522187, -0.015233, 6.848604, 8.90712, 85574.2055, 16242.347449, 43.544534, 207.064807, 336.690841, -0.017303, 7.809315, 10.071541, 463858.121, 109.895877, 120.125099, 169.149415, 395.5199, -0.01284, 7.892782, 66.842414, 490020.0234, 98.196782, 123.566965, 170.766147, 315.151728, -0.002295, 8.891478, 73.717223, 86182.6578, 42.025396, 26.696398, 55.203631, 165.668927, -0.014084, 4.075645, 5.200001, 67228.2983, 37.335815, 18.493429, 42.93433, 185.809632, -0.015766, 3.1038, 4.151305, 15299.2439, 12.923714, 6.545456, 50.067809, 196.544219, -0.002425, 1.692998, 2.382587, 14524.749, 13.498807, 5.491464, 52.501461, 209.207944, -0.007898, 1.787054, 3.055745, 107439.6799, 43.840442, 39.335041, 98.687203, 339.985656, -0.009767, 9.270956, 11.516418, 90328.6377, 42.32615, 32.203601, 297.22588, 195.242555, -0.003817, 6.851792, 8.357968, 0.0};
//
//
// const float **m_sparseWeights[6];
//
// const float *tmp0_sparseWeights1[1];
// const float tmp1_sparseWeights1_0[129] = {128, -1.03195910218402, -0.05542793707823743, -0.9357826642431984, -1.0867134509367837, -0.17169063605924018, 1.0043366239447624, 0.5010499227381671, -0.4214057705554296, -0.34799796085473095, -0.019750211524742496, -0.22836793457353638, -0.2870614906176842, -0.15499803487550826, 0.8024536578400309, 0.5519674784566776, -0.5690972033086084, 1.5681175341684068, 2.0163891582431357, 0.5152109837885206, 0.317103105974083, 0.18687913274816662, -1.9945712791768582, -0.8882017818784688, -0.9131007291544617, 1.5817995945695817, 0.1509244539246025, 0.2713509857377166, -0.4539939701932774, 0.003761801765187165, -0.2708389240506302, 0.6008830020833882, 0.7092308386866712, 0.33155750437027326, 0.00020875244847562142, -0.7191869079633689, -0.5585968754326293, 0.11648016086102597, 0.6221659478036657, 0.6715485135850634, 0.6221447339991406, -0.46680911653116075, -5.5174453535219814e-05, -0.6531657663885289, -0.43671391165669976, 0.1521678842101917, 0.7820956414364815, 0.5853847415281591, 0.1983183874285533, 1.0111186176907367, 0.0015331414887111735, 0.46667108639326643, -0.3605240685515727, 0.12567357185320024, -0.8690199916803117, -0.7362559948052535, -0.8290518843932586, 1.2359852209876352, 0.0009649293776763124, 0.5422456140344418, -0.3264631178684683, 0.19937530447102142, -0.9870633229671608, -0.9994008128432269, -1.119945639964256, -1.4683481868794588, -0.7054786759053717, -1.4361421337447917, -1.7245623334330478, -1.3940383948309174, 1.5156745402964453, 0.6347837895822896, -0.6700740413375276, -1.7215628459842724, -0.789935901246531, -1.418934456659629, -1.5708719759752279, -1.4329172789420908, 1.7110738107096417, 0.9839414864584289, -0.4341812846505454, 1.2547515411330379, 1.1627489572722114, 1.378961670926336, -0.3275478910805561, 0.4939468513733737, -0.9985756548813232, -0.8395334299686394, -1.041510079352467, 1.3484307527332098, 0.7763456675654533, 1.3735781382176275, -0.44878439019976785, 0.35398249385554176, -0.983385369969556, -0.8200700488949112, -0.9975802865069722, -0.41152139014008715, 0.2636207981571017, -3.669654237304091, -2.1941865166841543, -0.365307513814017, 0.8899578391396047, 1.2876644074925783, 0.2800198072903606, -0.3524050618716106, 0.6082254426057269, -3.070297633098409, -1.449169127848082, -0.09433776048615317, 0.8456883409486627, 0.7787090212823418, 0.1721523502320254, 0.7060589098994124, -0.04834201308946691, 0.11825273333991995, -1.492204380618608, -0.2258320328261232, -0.3711085371485845, -0.15547232533665417, -0.1826655163368821, 0.5212259890035611, -0.1705036737948325, -0.3387577709121575, -0.5806680020885422, -0.6203911608111768, -0.3136784202865666, -0.10215878753764683, -0.04057801718986766};
//
// const float *tmp0_sparseWeights2[2];
// const float tmp1_sparseWeights2_0[129] = {128, -1.4251270751569283, -0.10792916309606995, -0.9630150239604784, -0.7525005196823361, -0.17646863144843158, 1.1180907804002278, 0.7495503090903194, -0.15316608049277636, -0.3689408036935502, -0.04252474577335192, 0.045543670519153284, 0.18168763428360693, 0.008845090220096935, 0.022482674236092445, 0.017808621825546773, -0.42543666508460787, 1.6061192025537916, 0.7017274947165569, 0.12583383568931847, -0.13867887806320173, -0.03389520102819445, -0.6897922526540465, -0.4391914139250649, -0.7506414921586019, 1.9091156105723328, 0.0281780715923378, 0.0203531457267795, -0.4259334731065262, -0.1325680710094025, -0.08462675295584135, 0.2415225589211794, 0.2745423641661097, 1.3433474694498655, 0.01534912188377852, -0.5903335350016456, -0.6666699976918936, 0.0671705515140724, 0.31505414083202804, 0.2888166753907108, 0.23060213230203586, 0.9237923686147561, 0.00018741893851109193, -0.5114569456657219, -0.5385136678212381, 0.08003743833171117, 0.22823153343628752, 0.21602594513331466, -0.04302872093603254, 1.23984377690815, -0.003315625030915974, -0.412228345440949, -0.9538884378949085, -0.11898981787088872, 0.02796482861729981, -0.16818133663133183, -0.6119288819904503, 1.4456850225819264, -0.0013944071990875315, -0.21461343587804657, -0.8091884127040092, -0.0820728004425739, -0.10494660411453037, -0.2122671252391661, -0.5045732469019746, -1.8685128208001935, -1.0372827113770569, -1.5317471636515656, -1.5706700765685486, -1.042739983644832, 1.5025977462443805, 0.8987052895976194, -0.0038391124479361365, -2.1713776785061953, -1.1561592522828432, -1.6524866848210966, -1.6379428796312359, -1.1660711944584508, 1.8713884024664107, 1.262805679330267, 0.1648708593233813, 1.0386222395852411, -0.20511515304489872, 0.21852120219927573, -1.3326022332877256, 0.44125813717790663, -0.31270714177358117, -0.4340852775897843, -0.7205610513800074, 1.3570724100262999, -0.42769177543959225, 0.19646218389719197, -1.607393380736782, 0.3548363700413371, -0.23257919166582966, -0.39288578499319693, -0.991196033390743, 1.8060218210220764, 0.8908602330648875, -2.132976407365377, -1.680081621829602, 0.039018297784953734, -0.016832232469650914, 0.2158976157116119, -0.3648236145043654, 2.212700789218462, 1.239969322320669, -1.4046169151435508, -1.2062308075518584, 0.22824444152782516, -0.24186597757784212, 0.019772432447843276, -0.39424645000119235, 0.8359428800173083, -1.2022980112803576, -0.9299186099896383, -2.558147775755783, -0.4070103423947827, 0.03405223018489428, -0.017618977644238164, -0.22430817264147315, 0.7221771523857123, -1.344998199034816, -1.4071978146689827, -0.8966396102250243, -0.9454786285575163, 0.21777648903980798, 0.10759991003890018, -0.2477031500254588};
// const float tmp1_sparseWeights2_1[129] = {128, 0.2264511948070273, -0.03891222411778386, 0.5587968529379254, 0.8124714613807166, 0.16607707618763484, -0.3027029187205591, -0.19193845189065104, 0.09737602450381788, 0.5821912606147701, -0.049855122507762466, 1.0802984912893958, 0.8229722117484295, 0.1739709066202209, -0.7653530707140743, -0.0822421394809378, 0.010376480640860088, 0.1281562780060244, -1.8342899510590716, -0.6635812063202886, -0.21530618938351948, -0.0009560605910514448, 1.7039650532716744, 0.41426865044098904, -0.1944416814122255, 0.7188544369405951, -0.3166649404105028, -0.13722396615149166, -0.0881900041862109, 0.0013695795826660622, 0.6711202171158025, 0.08194872097698291, -0.027466531052299396, 1.2899638754132263, 0.05343662229668086, 0.013497659158652045, -0.1017149257150849, -0.07532143156893387, 0.23617227680850178, 0.06393452776361327, 0.052097946772229745, 1.9236209808113, 0.0006690484240427205, 0.11177868823234584, -0.062026913438598064, -0.04882205537217583, 0.02009130231877413, 0.06474913999050803, 0.12669862326275289, 0.5282427846613565, -0.00664195464314475, -0.9250714395232754, -0.533724614251357, -0.09164881189650449, 1.000338986827404, 0.49757104411080944, -0.20236222130613335, 0.7394683991175778, -0.0028562828821678717, -0.7357916226470828, -0.4467021459217261, -0.04977148062799954, 0.9267860972533267, 0.4450548252845878, -0.2217477086430357, 0.24743098698548316, -0.35443510683149465, 0.5152687556324564, 0.6179056021760483, 0.3268882823044265, -0.5392232955685945, -0.22281219816481204, 0.14325065344844054, 0.2219580899492849, -0.31839338079162116, 0.34985866710774555, 0.4208496350391785, 0.3653856395001914, -0.36047320350421913, -0.19925697949356774, 0.15267488842390523, -1.3075595237325102, -2.9981243922969, -2.6959191562354468, -2.344817772870069, -0.5253987730832195, 1.6983776776539854, 0.8908323740747705, -0.018332013252177794, 0.011351174359094749, -1.935570316745564, -2.113945954422517, -2.0224407066629273, -0.16249988206533328, 1.3214885326731203, 0.6250170492047986, -0.29307624319319336, 4.160528687773907, 2.3928123825520946, 2.2749013234198356, 0.4498065513009812, 0.14174298073599179, -1.4615311789232046, -0.7063975221141245, -0.27763918864533094, 4.560978393581442, 2.4246038939269337, 2.750760106558868, 0.3147091743253932, 0.13469517595174665, -1.737288220423562, -0.638799500824412, -0.16410215132790204, -0.410267450673112, -2.0854102431093096, -1.7795848090105515, -1.5446248017220623, -0.33831807251063906, 0.8299488301190535, 0.4643869720554032, -0.10532845900093551, -0.13687101472591146, -1.9019810511940993, -1.637696748820694, -0.42152513202552994, -0.43296708543014334, 0.7450860140420312, 0.4491414672675489, -0.10594638965514759};
//
// const float *tmp0_sparseWeights3[3];
// const float tmp1_sparseWeights3_0[129] = {128, -0.7481801899933541, 0.4151802101862502, -0.6549435611710227, -0.9292032205635725, -1.1466354546688322, 0.3632729040112777, 0.31817046791399045, 0.3291847027756236, 3.960246678243506, 0.5222022343117896, 5.256655019478583, 3.68034731841133, 0.04277075695565691, -3.0080682004532657, -1.0669525331648053, -0.12397473268937442, 0.20110475511707376, -1.5044253972074864, 1.631116828128696, -0.17688182611396513, -0.032994355891830154, -1.735009435765602, -0.7905683810225489, -1.0812231734954847, 0.23167722330775856, -0.4918637259266937, 0.37983334328917084, -0.24801490640718504, -0.06100852853502548, -0.5192173394954416, 0.13242816627828868, 0.16652874262674167, 3.0034955250738893, -0.04917617238421434, -0.24134327595339816, -0.49420137031972833, 0.138287315730382, -0.09707596004185094, 0.1607455569835613, 0.07256601701076373, 1.0163487729557519, -0.0003534994681438252, -0.3615655415023429, -0.4684362552118377, 0.15100836345138247, 1.1356868466730097, 0.2916597545814362, -0.4974272483353439, 0.2621908961051921, -0.01384351216338031, -0.2763246526534102, -1.7789862637746676, -0.6324516953756077, 0.07950014904738496, 0.2607636245315719, -0.521724086910954, 0.49206000636410463, -0.006728109375647886, 0.083510213286676, -1.380321612098834, -0.5926395623449149, -0.3455625154785686, -0.14687612191039412, -0.537564141462744, 0.5377150200340587, 3.6151523700765207, 0.937447836195821, 0.27072532932755067, -3.171403800714695, 0.8517030251340441, 1.2988792245352963, 0.7088239764305327, -1.8219648309794958, 2.3755050416212606, -1.2316656558061325, -1.66942020549662, -4.052092390423235, 3.16238726465848, 2.860848542001526, 0.8666011163333898, 1.3702000345771206, -0.34415342268350063, 3.7213217052922, -1.3020739362893157, 0.7486862118389681, -2.0248996441345435, -1.4607088623904452, -1.7023871912668687, 0.8909445290255447, -2.8372532301507243, 2.2016568157052396, -3.5462475825132183, 0.08254461940302661, -1.4612116984157357, -0.988842371517905, -1.6844734300222008, 0.9799670246432605, 1.0408841523005274, -4.346638870772564, -3.1365567263147267, -0.16777792172906492, 1.650762816443255, 0.7418729528778932, -0.986151217564113, 1.1951778720239612, 0.6243098049691234, -0.5318714558757665, -1.2903339239326386, 0.28124629004516294, 1.7742840432579785, 0.9220080568107397, -1.0025218946549128, 0.4904320892966334, -2.983343145129281, -0.5278830045191265, -6.998476735078578, -2.0742019751566696, -0.5002419282267492, 0.09189079428945979, -0.2824477984467761, 0.9210980784162147, -2.686910554425023, -1.5070362170349043, -2.3855451569235986, -3.7707820320868843, -0.2821606382653009, 0.3059825113132879, -0.32272931844599667};
// const float tmp1_sparseWeights3_1[129] = {128, 0.29880166068090797, 0.021503982375795556, 0.1190041778658478, 0.44924565783715176, 0.045608599752279926, -0.1324526700181362, 0.1452874844537974, 0.8022596472634517, 1.3331397122276174, 0.010088168306774142, 2.121255270368825, 1.6311887640941067, 0.3212895673737238, -1.6629281967264413, -0.0975483242201844, 0.7047801948273887, -2.1897680130947728, -3.675748136351554, -1.2183741828244883, -0.15435184917848555, -0.06142336555908554, 1.8128200281961697, 1.0140506040691688, 0.923109124064449, -2.406163228063069, -0.9220084431376683, -0.3804576797755442, -0.13561561123463584, -0.04040296267953025, 0.8509020004039768, 0.21707459658765346, 0.13296293306145027, 0.16075901943958992, -0.05420629357353395, 1.54503588492857, 1.166602224947587, 0.025181006285276145, -0.531316966818914, -0.021014492778806737, 0.09536606175318336, -0.24053364908836944, -0.0009229235531836581, 1.064059439627827, 0.8078991868390196, -0.03964812365003804, -1.0529413308377578, 0.0852609127092309, 0.47722312103877657, -0.9525794060881038, -0.013441609989692757, -0.12668741093440705, 0.2897433236099075, -0.10333262191458718, 0.30256164805565683, 0.5030380514112289, 0.4915676898771588, -1.2579620603506623, -0.007161393764654452, -0.1392337923374908, 0.3908615448992251, -0.13939195075851765, 0.43961130365973344, 1.0256330207387603, 1.3819966731079412, 2.6851355880238956, 0.8539724605292102, 2.499480991710293, 2.834592896967977, 2.1607827224771747, -2.272194401012767, -1.2079625330957802, 0.44687732527516305, 1.7140085088593124, 0.6603748701308824, 1.2926279162569436, 1.49478964928035, 1.5521071464086333, -1.1717493113051403, -0.6433575455573105, 0.522912461526625, -1.5882514382507331, -2.154666457446361, -2.088749010610084, -1.4715028726152017, -1.0311715346798147, 0.9791554404061211, 1.1080745967173957, 1.0032875160475312, -1.7016333365027825, -2.5352564485655726, -2.046793220090781, -1.29418430730775, -0.681913659587256, 0.8814636698591728, 0.9093397145508515, 0.8760252033438294, 1.330626227967034, -1.8221823703049327, 6.738436490755028, 3.6848773227262304, 0.7488405418532735, -2.6128086798146875, -1.2187697061837564, 0.05569414564727707, 0.44639212338323453, -2.531525045442057, 6.330285379150538, 2.721846763159842, 0.5101792084506369, -2.029009045608073, -0.4926276520460361, 0.34653548650224003, -0.35377196314403764, -1.426441659398704, -0.5818647869397742, -0.20835969706656327, -0.2623291441583988, -0.08558422236826166, 0.1415933121792254, 0.32495997633158585, 0.21037102872293806, -1.321797463165316, 0.3913026241323155, 0.15406153509717496, -0.055172037812662715, -0.44694003216271344, -0.14724590175681262, -0.17077802038765064};
// const float tmp1_sparseWeights3_2[129] = {128, 0.5364478707126914, 0.06732316643628121, -0.07747406509415286, -0.1891322208507465, 0.0712408914009108, 0.2954817119249043, 0.06929583325833318, 0.31177625802392495, 0.9998717405857976, 0.0535224214154285, 0.7591232020088021, 0.5078402924214331, 0.23813721274620733, -0.42249677120923324, -0.10861148956480837, 0.43466807259678103, -2.2263130165521754, -0.8573866866992202, -0.4167686520148914, 0.14119626099559376, -0.04139382596051859, 0.5470346741241137, 0.3305211530474735, 0.6248864592188694, -2.9285769528127887, -0.3161487574300074, -0.20070563373293043, 0.05344827277987807, -0.011823665913789127, 0.35503326998373963, 0.08627015128455637, 0.08138774468314779, -0.5326968741541063, -0.04308847357482298, 1.02119668182565, 0.998481246398125, 0.10194352697914269, -0.7483183247780983, -0.11146610567597642, 0.006106075818180768, -1.57732847394933, -0.0008363304074379153, 0.5753604053698436, 0.680680000610785, 0.06721400619812837, -1.0274071161036988, -0.09010969703694516, 0.11060258026725747, -0.9379075632079561, -0.0010672778406369651, 1.1613257244161073, 1.2267091509295287, 0.25752959492469807, -0.46143967542215125, -0.16798721485047277, 0.2697880157909413, -1.381479090878142, -0.0009889243560777658, 0.9347711693309595, 1.1988041239253024, 0.30017047202175984, -0.31068202816007795, -0.04698034582964003, 0.41097411116908444, 2.8607716608754203, 1.078403967056071, 2.1265312829391387, 2.134663253438135, 1.8533492920491959, -1.2878412293306543, -0.8563422211893232, -0.03843147439821881, 1.7907129203059766, 0.8527636986939785, 1.1748999921156846, 1.2106659700707068, 1.3528152665373896, -0.260290461108201, -0.14946555858238153, 0.1408733587405643, 0.13399085099519348, 0.48279628309712325, 0.7524969449690116, 1.3962816633196409, -0.26676986345953296, -0.04773056887238862, 0.15632340831233554, 0.3044201584890832, -0.8334958047121606, 0.10438705926373316, 0.6899201658335828, 1.6107688181822724, -0.33233000988762, -0.11531475728522102, 0.1294753605120349, 0.6831333268898249, -2.667948289385806, -2.3066719601870322, 2.20634571970563, 2.14372183777607, 0.270988341567339, -0.5985701535191111, -0.2667862955422195, 0.307592658769152, -4.591128840401786, -3.3479091436799204, 0.6313730823209746, 1.4013507811396129, 0.020031813868213545, 0.6537844423266717, 0.33508989915620124, 0.4368908515182424, 0.7662299940775487, 0.8087782639956541, 1.9387702067793746, 2.3507445761648516, 0.39300245093254277, -0.4597920729024408, -0.25414906881002935, -0.09345328978456455, 1.1025139001346, 0.81728848969909, 2.701678101564653, 0.8139315320535319, 0.8948542590097455, -0.8405391404550676, -0.5419078887416974, -0.16906086878465168};
//
// const float *tmp0_sparseWeights4[4];
// const float tmp1_sparseWeights4_0[129] = {128, -0.2431067711608157, 0.001526248069888549, -0.5748229141929009, -0.6994849222012159, -0.19543230174367887, 1.2560307532127488, 0.15051255358745333, -0.6283905377278075, 5.183055145781803, 0.07238100655468616, 4.97855361242803, 3.1996596611061165, 0.5601827533062458, -1.3505298195114142, -1.6883620918385576, -1.7722919808721929, 1.0923813234981694, 0.08411862880109636, 0.4356713040330664, -0.11537444323236798, 0.02801908849933881, -0.3578630449125866, -0.3797948528774659, -0.970658571496655, 1.2091793936765522, -0.033412913599596784, 0.12702938706826672, -0.07538402498236717, 0.005875998460468543, -0.24511139700035442, -0.08453697739534599, -0.11863525553565708, 0.9401854315200985, -0.042652170454418645, -0.39128752288634877, -0.5915643719478215, 0.028553334809692136, 0.7122715213030131, 0.01455587692424511, -0.18133428673155214, 0.1948384058465315, -0.0005792867523997389, -0.46165794794479625, -0.5084172591947635, 0.05855399493089931, 3.0509364924424425, 0.16235712743977418, -0.8484246823650028, 1.2879145125325142, -0.005537956419925187, 0.08657263848294106, -0.7279974145578125, -0.05078563537585736, 0.17282792055779653, -0.14407729807122613, -1.1264339055822759, 1.4157032427195129, -0.0028105637183502377, 0.1954065925814484, -0.6300579061715422, 0.07319112799907199, 0.031101928446396372, -0.24163851044514173, -0.9220428750776498, 1.307626508398039, 0.20542902373420882, 0.626847712236851, 0.2430047143192108, -0.3724471264360166, 0.952988047237897, 0.08084482051830437, -1.1387517639125073, -0.8952928819084981, -0.16135553931932475, -1.0738883807800221, -1.2796627785488481, -1.4175745541257718, 2.249366107301486, 1.1574886876453268, -0.5285124149779957, 1.3855065694937385, 0.24386375397097776, 0.8075705339557357, -0.9858814747825342, 0.005712999602042776, -0.19623482360648623, -0.22981938768334298, -0.6915263234571895, 1.4202979209941071, -0.4566022265421095, 0.229980287552766, -2.033836897757801, -0.13704989999993186, -0.018407523213337718, -0.15498826866567603, -0.9284227099693428, 1.803551013649604, -0.8444176070459778, -1.6322582311660117, -1.8658830968320208, -0.3316300802844376, 1.9248574675086576, 0.9398066622060974, -0.4597894074695834, 1.437283957895927, -1.0174843034374985, -1.5595535764459132, -1.4880172911779155, -0.22568184909482705, 1.8785886633919622, 0.6694563467202647, -0.7148204041173754, 1.0832882229292176, -1.2827130694876938, -0.3577254205473099, -2.766085492045014, -0.7849363655132803, 0.2915094902909213, 0.24711646174480226, -0.24693432475582847, 1.1946223235319844, -1.4166338529919407, -0.8877699027457461, -1.0237004815139854, -1.720978889140028, 0.4650676425737455, 0.46512188853187403, -0.30970198483304484};
// const float tmp1_sparseWeights4_1[129] = {128, 0.701916314506153, 0.010871901659007642, 0.22564975879457558, 0.364471284841662, 0.2109715663586315, 0.2988247131997946, 0.19562979411457748, 0.45480067652198247, 4.3427441981043255, 0.04484298252563871, 2.965142345570723, 1.7173381695720438, 0.6076781672729684, -2.3731542360051527, -1.2209362166720807, -0.32279537773919686, -0.4243242626844828, -2.2991981967064823, -1.076029328084806, -0.1982985991018196, -0.02389426493320647, 1.4751788589777108, 0.4131541695099177, -0.1585084581165154, -0.6164909446367127, -0.5821377870074963, -0.3406496702632014, -0.1049369728827978, -0.006934212704576133, 0.7405790482103518, 0.10085991274025435, -0.008101808430241933, 1.403874890569742, -0.02592132162448105, -0.07631783969032371, -0.0010941870738908487, -0.04510605527653277, 0.23133387673870892, 0.002987058049726019, -0.06301405240168283, 1.7226918318742395, -0.00038407993280551535, 0.03999113071546144, 0.02961820531573631, -0.02763822768879686, 0.2917417334223019, -0.0654488802847085, -0.37085762806332306, 0.7417006673754825, -0.006316515629846396, -1.3165738097186126, -0.48779515103237575, -0.2238877615979063, 0.7329951859929313, 0.25542641934302557, -0.6433710167005603, 0.569777656882601, -0.0034313756118938715, -1.2438744540050728, -0.41208603763390494, -0.2658088780095767, 0.8202711577738073, 0.2559029570968371, -0.576229799623343, 3.0531035333887373, 0.5544176890526991, 1.8968338206970352, 1.6750622494155263, 1.5777176595906075, -1.3467488351250472, -0.9431575769145615, 0.14836984883710477, 1.63602567978688, 0.283054365995728, 0.9877787855632065, 0.9163272600518179, 1.1288901294832716, -0.27323426872161716, -0.183349367667946, 0.2963593400104147, -0.01615177599126412, -1.763422641277333, -2.2162241912584975, -1.7122243364262204, -1.0274710615567515, 0.9874495284095833, 0.7321054729399337, 0.36089572288427874, -0.0729892219482052, -1.7286607250690198, -2.5739406902640725, -1.871165551668246, -0.7544421372252982, 1.088562674779396, 0.7435015187151294, 0.3523845039764904, 4.195872085232249, -0.678543187122687, 1.6611014430300806, 0.4334717504593094, -0.21033403969529776, -0.6921541376431264, -0.2798955516590533, -0.12001029907276485, 4.025560897781496, -1.177224338372041, 1.606433233886494, 0.30507367965355847, -0.19431116395438774, -0.5939134931771262, -0.15561478021207745, -0.05320538703651805, 1.0514743292130602, -0.9180789067727295, -1.4142786589342724, -1.0499616998891503, -0.4721306194296144, 0.3413886272764566, 0.18652673076275933, -0.23586619013757545, 1.3388407046749844, -0.9005946032691285, -1.232748335897341, -0.2832912993784148, -0.7739424763378487, 0.25612911466454036, 0.18569685730504457, -0.2582245443231442};
// const float tmp1_sparseWeights4_2[129] = {128, 1.3692537232422408, 0.09533327363469032, 0.20720776893005022, -0.0008431730042085671, 0.26816606395074316, 0.12855451154048222, -0.21472764013154963, 0.09401347818775962, 5.890188862573084, 0.1251520528896115, 3.041911453921659, 0.7322541472646099, 0.36722759252668286, -2.767272933372186, -1.4378932199239824, -0.44588273241111476, -0.5240243071937165, -0.8135842182907895, -0.7832370536511972, -0.047723533499845545, -0.014481019974678567, 0.19199813029371507, -0.008553827344593657, -0.27374995997383295, -1.0889444738028322, -0.2930530505940445, -0.29939669779403616, -0.04309810126964735, -0.004340360017298277, 0.15982423059861353, 0.008649905910523528, -0.036477288784802726, -0.35894265246170604, -0.05921373049963835, -0.546280756755575, -0.10982121155336745, 0.012707515874688005, 0.16740991956317808, -0.0642467863311825, -0.15292352636974632, -0.44616435319146336, -0.0008202933028430207, -0.4067654554812957, -0.06191442579909935, 0.04769650114137519, 0.5472326387374289, -0.2354769805776245, -0.7672488498344856, 0.6041217903779865, -0.0007874960186091653, -0.6735262054559225, 0.05878642421228817, 0.024413077505140934, -0.09114130839623484, -0.27896990048983605, -0.8916047553745153, 0.2684445923583074, -0.0008103349928320147, -0.7674451413773867, 0.019456279801282277, 0.01487885740902036, -0.008857009348556169, -0.28735906617202156, -0.7618245656836955, 4.303855177913005, 1.2825485907761045, 2.264733620290914, 1.756698152428648, 1.87640253733176, -1.779242138671127, -1.3065741551805508, -0.23363819758269722, 2.2918869538483446, 0.913497216770678, 1.0056426514833756, 0.7325820742718913, 0.9922417642904214, -0.3586456879653861, -0.3078769665228414, 0.07764967386039226, 1.1038857002509082, 0.10344781654041316, -0.3067365648493123, 0.13738415556673855, -0.6880615262708543, -0.13505311788600552, 0.11207655641433115, 0.13179976137321273, 0.49553859406717443, -0.12978477932914698, -0.8448879080227268, -0.06518249764956016, -0.6737367136324631, -0.0672957030772119, 0.20169812241799273, 0.4516242009762108, 0.791702100973944, -2.1395707701176128, -0.9805351448590689, -0.2949838107817179, -0.5104050793421546, 0.568814765930197, 0.3025425224895174, 0.12498755211181702, -0.3334663782857989, -2.782840142757715, -1.8487574644580493, -0.3029378403385526, -0.5321460701633173, 1.1257033119943418, 0.4589262145431198, 0.13316027610880735, 1.6405634443649455, 0.41302526513601684, -0.12724404270472808, 0.24335965632588732, -0.22263802749885772, -0.08909934182285921, -0.02922795382157109, -0.21072069566374685, 1.929310758790069, 0.4190619132675215, 0.05455238687213683, 0.0911718847928543, -0.2666525305338256, -0.20466012765875669, -0.05908425583830856, -0.2271187787302622};
// const float tmp1_sparseWeights4_3[129] = {128, 0.15461873288774222, -0.09632065578198483, 0.11552704480460169, 0.33180086235009965, 1.046739878130355, 1.98676024186981, 0.30821612306602403, -1.4724899592793472, 6.6610641377569735, 0.019562125932860712, 4.350047286938634, 2.2636781037448443, 1.042256682883832, -0.9941994075570005, -1.4835814038821653, -3.4916048515870317, 2.14555230839009, -0.3871702099912188, -0.327639052671679, -0.1530556881088919, 0.03586353231530037, 0.5490252989457847, -0.0006671466490665098, -0.8028959379553664, 2.270015963053117, -0.10784230703687993, -0.08402218706531056, -0.08252161552683868, 0.01053171982629821, 0.21445310445033403, 0.0010423710949019381, -0.09746809889203917, 0.9250367141813264, -0.09485751993667808, -1.1871088357072834, -1.0755293781116382, -0.009647119830797891, 1.606478855851254, 0.151894653905645, -0.16366733657143023, 1.058516188864249, -0.0008448600706389205, -0.9245937256201663, -0.8299213445473991, 0.05353847382303621, 4.914949291529955, 0.5135158616368224, -0.8402076854146875, 2.5866299418855108, -0.0061308236214236405, -0.67883457231467, -0.7347620630124182, 0.0181592579660588, 0.7093458576427909, 0.2770323779229242, -0.8032272102534667, 2.704630881163587, -0.0031545777461093783, -0.6780354963036213, -0.8591032572264203, -0.008024529089980591, 0.7958557677728273, 0.17978046383160154, -0.9564318319607619, 1.2231857072813326, -0.8066938942646158, 0.21211761259857462, 0.1527255732602652, 2.830896831891454, 1.8551756592547057, -0.4574453156083155, -3.0261355487782753, -1.3827082384899014, -1.1230375030602728, -1.6819660683996216, -1.6768165006899842, 1.5355968118668097, 3.0256238432865565, 0.9269905113159128, -2.059162896411946, 1.8215093482973417, -0.16826696986882614, -0.7580022676800846, -0.9046187360226506, 0.20573454262316174, 0.2432255585778548, 0.17575548072595842, -0.49075902533214216, 2.3705949387708283, -0.3045349267292555, -0.9508640309253393, -1.137230209270451, 0.28401934333237666, 0.4225073544988426, 0.26280186254459625, -0.679362012299082, 4.171748092677793, -1.8049130442749162, -1.890903852771308, -2.344593394842765, -0.3311298932678278, 3.500737938087445, 1.8456906378093139, -0.7111097167387402, 3.7530359747532587, -1.6761961008879576, -3.277923750743967, -2.1183531704570226, -0.3548087834980635, 4.162278789437895, 1.6279809651167796, -1.026761590037368, 2.1545411284868723, -1.122066333035559, -0.2647347208404483, -0.3954980939577478, 0.18986612643968276, 0.11961034097388573, 0.16183678724454384, -0.13388848512659773, 1.9362344757308614, -1.2374514967162675, -0.9934913491580809, -0.2516042192966431, 0.004524074760245496, 0.4756764260714626, 0.46090349866528263, 0.1176923073231856};
//
// const float *tmp0_sparseWeights5[5];
// const float tmp1_sparseWeights5_0[129] = {128, 0.10515774795456628, 0.15902067067675502, 0.42683309576160194, 0.6399810563581524, -0.28987544319309144, 0.9652351086125184, 0.5632549098491556, -0.1740856027948014, 3.860830397900609, 0.2486477580675267, 5.326827556291369, 3.6983455954927775, 0.2959624301346028, -1.8759430441675742, -1.099360667171001, -0.49919059306435076, -1.2595617878979761, -3.5414011974003334, -0.021536447691153746, -0.3961569274477688, 0.03366833213388032, -1.0232073202829743, -0.6974664047137111, -1.4369211899453385, -1.41534841552133, -0.8969721584306349, -0.06482335174608857, -0.25476656628175665, 0.006274989321647914, -0.3998899576061607, -0.12164670385983083, -0.1650075806060245, 1.6990102784443426, -0.026548016180289548, 0.18739974232723722, -0.47773328109206387, 0.13237183719726778, -0.39616637694363105, -0.12627994219990155, -0.26080463621823136, 0.9553357038203755, -0.0003303385800580952, 0.07946036594837944, -0.3698665502588081, 0.16246468549919357, -0.16792903628226052, -0.37052558402712177, -1.0978240757631859, -0.5473008648685556, -0.011598912884133287, -0.9736844618408991, -1.3529224468131111, -0.18824503977762252, 0.06134760117833965, -0.19679296002781269, -1.33080595060569, -0.4312918136234749, -0.007349906092132774, -0.6735601607194227, -1.1194899315642566, -0.0407459019027048, -0.12208316790365456, -0.2734008058007765, -1.147349140623457, 0.8484522991779943, 1.3284654181275863, 0.3075610673849949, -0.0068898227946883155, -2.417333639026596, 1.1229971208673064, 1.0986181703542626, 0.430651242022936, -1.5646027314097088, 0.2681808010074878, -1.5160388073835027, -1.6003337203225172, -3.373691212185987, 3.1817906741229205, 2.5792279989301705, 0.7724102476214779, 0.45420709495805217, -2.1717200665411784, -0.06869383066483059, -3.2826730951357677, -0.4913551175979023, -0.6253146502520402, -0.4874970991625827, -0.8472800356237016, 1.978469330310314, -2.067582980754621, 0.9199778685627017, -2.7550765882237087, -0.049892591977720155, -1.8184604868938112, -1.2258299450345151, -1.4240129126055636, 1.3904173412403225, 0.5329926204942182, -1.314502825947185, -2.3292547288155294, -0.5460529664031091, 0.17591355309113454, 0.998395233791546, 0.1788702148894325, 1.520718843208235, 0.044913908890638704, 1.5964323057224028, -0.9459745548841646, -0.17158841882322803, -0.1678287485623874, 0.6909161406811413, 0.1906660151079358, 0.3986437893520261, -2.621650827664815, -1.6393497240671164, -4.377912705151033, -1.2826338757349438, 0.14032986572749293, 0.22814098053997045, -0.2514791906209364, 0.5231126158941982, -2.285749140649717, -2.6053415266842928, -1.6146997362596383, -2.6338060861209245, 0.286203246426371, 0.38782647954076815, -0.23925770396734966};
// const float tmp1_sparseWeights5_1[129] = {128, 0.3552955197537782, 0.0901786656147284, 0.6645883039788372, 0.7455549053133655, -0.08381186057460804, -0.23087228706471832, 0.13487190058578102, 0.5546542289427949, 1.963968116651611, 0.08779490762476115, 3.5029278765144216, 2.3941762790193795, 0.4467763067800645, -2.0872056681657516, -0.47127575607351574, 0.1634132490284111, -2.6440392326672124, -3.3242765749393284, -1.1189021594835418, -0.1603218690894742, -0.03383839685765308, 1.7818597318866818, 0.7532884035900055, 0.6987839138206178, -2.719053883220371, -0.8021973146102882, -0.3382820230621425, -0.10621478885229357, -0.019521528125186, 0.7858695047228849, 0.15252400318286527, 0.08855518629793697, -0.12016926581922581, -0.03549370033185642, 1.5679286340272078, 0.9508882137656, 0.07668535666401845, -0.5339370108026636, -0.04561308548437883, 0.030374755347961486, -0.015432345277141915, -0.0004273704830340178, 1.1780093143418593, 0.6602114788715154, 0.021950400761579125, -1.5074191787645703, -0.15861701650718074, 0.1904884378029423, -1.495310242151272, -0.010263957766801368, -0.35025871004138776, 0.1669109295841716, -0.03663587428203542, 0.6619404804250127, 0.5176148434210683, 0.5428620467362573, -1.6249317178980214, -0.005291044458775385, -0.3377156091549745, 0.2165009838518709, -0.0317430726847052, 0.7030949993423375, 0.6379333338038766, 0.6837138592527714, 1.6905882919258783, 0.9252348531315581, 2.2483707602644687, 2.4899758556933054, 1.1599340433783807, -1.4705866888795673, -0.7965281360880244, 0.19570622740426752, 0.7100401896412318, 0.6527875424277868, 0.9185287691948034, 1.0765410081693423, 0.4922675769332716, -0.5540293501034135, -0.25725394146361047, 0.2917698847233968, -2.543196903833305, -2.929516179651151, -2.14291037054999, -1.307661870533742, -0.5242477036213845, 1.1495708873698705, 0.8276334549829131, 0.8585900488016542, -1.3002128886115132, -2.4438609012708294, -0.9868539015748882, -0.24960032953296246, -0.05881793721306772, 0.27282668269730864, 0.2213375718997911, 0.4418091602944062, 0.6479145241585565, -0.7569311022385786, 5.431984663130903, 2.326415885747801, 0.5330080510844216, -2.0327323464686264, -1.0183266405813542, -0.029920971120385186, -0.13632348665877242, -1.3461585369243976, 5.329991096650719, 1.7499909018759359, 0.3918522347929444, -1.6091741997837123, -0.6668292001453441, -0.036093434356851355, -1.2918537692278536, -2.038249814501553, -0.5753979490763789, 0.008660201552149804, -0.0472098663135276, 0.3883365537313594, 0.34592972288982626, 0.3334582176506992, -0.6104250310255643, -1.796851797178305, 0.009462672867039626, 0.13637948067558553, 0.15957554182778186, 0.008650753190881362, 0.10081596186412228, 0.1700349090442787};
// const float tmp1_sparseWeights5_2[129] = {128, 0.9477775439665931, 0.2615543366018762, 0.5326002899140925, 0.3758328969804705, 0.017388265598931373, 0.09232550773331791, 0.2044027487112666, 0.39276474790447685, 3.059448948174527, 0.2560502085398073, 3.049169234737383, 1.2381000529581885, 0.27072348001233326, -1.7458397621184158, -0.16126757792810306, 0.3279541762620445, -3.861901496666875, -2.0693898356014806, -1.1290894367520816, -0.058747632021051564, -0.03913939156658935, 1.1558053518134024, 0.6162685844350874, 0.7886830828502354, -4.536774764136856, -0.6108089939515641, -0.4319738389980704, -0.06093826972748699, -0.01292648643546512, 0.6008075874827826, 0.14012143079872938, 0.09858293687569926, 0.10231386620567186, -0.025924568427678638, 1.209248131177991, 0.9934774833529696, 0.1874399578902095, -0.7664970964590537, -0.08419328438287614, 0.002186294200939245, -0.9108557701163856, -0.00037983983179457574, 0.6908236987045014, 0.6310319617818895, 0.12482193007561251, -0.7387179413355959, 0.05706333775851283, 0.1377056122683372, -1.7195027157354743, -0.0023974228340679312, 0.3229878458334857, 0.8163700473947902, 0.17713941694819157, -0.20394250181181908, 0.1645256146820235, 0.4590241415017499, -2.0537933969857423, -0.0015855412746883226, 0.14382142966666261, 0.7670851191027396, 0.278439021516671, -0.11684329340558522, 0.194530809473065, 0.4384703787425492, 2.799717409543318, 2.391735832332901, 2.300285807907447, 2.2926774535700116, 1.0917557578607244, -1.3077387967624245, -0.7414865007503176, 0.039330786869726866, 1.0065832291044388, 1.687294313581892, 0.5973693975373289, 0.6514751509916823, 0.11808658990217477, 0.07517757617613587, 0.2118704005935247, 0.298021860522147, -2.120638039105435, -1.1112282557791766, -0.9065833892391445, -0.03580835258947272, -0.426719058500902, 0.5542499052467029, 0.5903634264639043, 0.587367983131939, -0.9697629021685977, -0.6241380726740524, 0.3549525708583559, 1.307964049221954, -0.026436465197313238, -0.6814843420274982, -0.09654394205698413, 0.45520946438727933, -1.3348929406608052, -0.29743236677712115, 3.0389778866308856, 1.9418479589584796, 0.2765388152974194, -0.9045820032360442, 0.061410752363560396, 0.38518616331862765, -3.3139346120021282, -1.5220885626855265, 1.979442738474516, 1.430875832229227, 0.14377915623545032, 0.3414092038129091, 0.5480669707569278, 0.31333849633601596, -0.5609636599271802, -0.1873976517224558, 0.9781457475891502, 1.6268862480082509, 0.32692148904285534, -0.1613534343228946, 0.08255175439883222, 0.16349958417609886, 0.3684885138572224, 0.23629873558626038, 1.6730371776515156, 0.6159260226449262, 0.8203643634569121, -0.7554505470475291, -0.3249748833476584, 0.04026562211309224};
// const float tmp1_sparseWeights5_3[129] = {128, 0.11107214900498837, 0.23020880513292194, 0.8899691654640092, 0.8264905764596253, 0.1964003584209877, 1.0807281803460556, 0.7127692114065332, 0.09814039848263749, 6.1765386493172505, 0.36345812170742, 9.370991390725862, 6.3413745818947875, 1.2558703830289126, -3.4221918030297727, -1.9513677141077648, -1.071042057395011, -5.5459365589591085, -6.2113872567801645, -2.379090586314326, -0.8357611545708417, 0.013169297769847781, 1.229661680778387, 0.38363478843308535, -0.15202216783068545, -5.543651732363245, -1.439880278780285, -0.7158418186593158, -0.4763699759844355, 0.0003337231910875359, 0.5068453551802398, 0.07587560024292227, -0.024900992450435696, -0.7791902935304126, 0.008412976246015351, -0.24382521901938856, -1.2112908091674486, -0.02195326292863982, 0.13507907350785078, 0.03504975861274464, -0.1890618227430952, 0.21457968929335422, 0.00023907307026185218, -0.037550901722955596, -0.8694095282675791, 0.03105771284126266, 0.06747077090558991, -0.16749762347144515, -1.1728836653586963, -1.5046034505918469, -0.010433303753295676, -2.013373179005842, -1.4553955312170412, 0.011529047201441663, -0.19158013570317664, 0.26217356987951973, -0.6376379376322094, -1.2985041319451982, -0.006776809221526665, -1.9629630304954544, -1.553161025035131, -0.03628813547061393, -0.440234909297845, -0.029483459063811064, -1.1145337690024566, 0.015520413149758543, 0.9237603789609621, -0.14356870708027386, 0.16881303104317344, -1.0152957735341768, 0.9714482557763666, 0.7634527967104586, 0.08999769687245959, -3.9646188346301923, -1.4640181901275586, -3.746914497236681, -3.346008570907086, -3.4778588830759127, 3.29394672111892, 2.523249724300383, 1.0920486711785249, -3.6917887507951703, -3.8483635310354236, -4.141094480726435, -5.685397534613054, -1.079128438673721, 1.1917752933204864, 1.3394911259112345, 1.7196297566482144, 3.9654215367378005, -0.7845482585551665, 1.0223773303140675, -1.4058430936775694, 0.6129727677093939, -4.034204303686966, -2.011454713970142, -0.24383206359692647, 3.4599919956262855, 2.0374437792933975, 2.759024200325898, -1.9766623255613724, -0.4030941547965866, -2.322032175707859, 1.0179928830790868, 0.21534855231154743, 2.370411515580773, 1.3069655341834392, 4.105064886499892, -0.8206295624990777, -0.10743058829737817, -1.7856089047334613, 0.7964533198744936, -0.08906634175405401, -0.8857692247751237, -2.077073381801601, -2.223143919329037, -2.5486627708083374, -0.39238800822525444, 0.5795273930042961, 1.3232177222428876, 0.8738745593258002, 1.0598129884072893, -0.831208106082892, -2.779699109587141, -0.9441646114189771, -1.093970822245791, -0.434423399241424, 0.8711965678037148, 0.8649229031420722};
// const float tmp1_sparseWeights5_4[129] = {128, -1.029887224790506, 0.32080120279567653, 0.7367825544686837, 1.1143402049921525, -0.6706823930583599, -0.8313122404030789, -0.23408803085709937, 1.72217966527848, -3.5772107862382434, 0.17427008887728862, 1.6153654644717124, 1.905129583871331, -0.14843805526021264, -0.6848759180525187, 1.1160760665663536, 2.4248577120410864, -5.375148360654412, -1.6811110668993794, -1.6777397866799677, -0.5043198280896067, -0.05213902661310067, 2.5755566496732794, 0.7701645301648438, 0.6967495278139113, -5.026389024520757, -0.3424828198744149, -0.46102173477811603, -0.24585693117952828, -0.015056892146333071, 1.025279438591604, 0.14555611872354826, 0.07911372691916543, -3.9620895842197794, 0.04359709418651462, 0.0059479914060789636, 0.15556135381606115, -0.0667588816057758, -0.6131308229345437, -0.021525550546201845, 0.08646038217222422, -2.534124933404363, 0.0005885139843166161, 0.42542737104646206, 0.3269809622691341, -0.048464861698588976, -2.9642225131735054, -0.24887967274993, 0.4257955821377133, -2.5498936082797963, 0.005243876089850957, -0.36668692321383684, -0.21248857377564775, -0.10640333433194851, -0.15950821044857139, -0.31342533841516523, 0.3211830161798491, -2.3908242612667605, 0.0028646458971945637, -0.24090639311401188, -0.10319672346652668, -0.10758696500914025, -0.460727569622367, -0.42085166834849597, 0.2577021287873449, -1.127244686218223, 1.5919521262724576, 1.12955453991127, 1.8818265494005275, -1.891798269960872, -0.9168548740297395, 0.6888035214024876, 2.1382143299336778, -1.278125427019951, 1.1657909264157955, 0.11736566233650186, 0.5901742245634002, -2.4942453101887536, 0.15206364330587405, 1.1434452702702402, 2.0990656207037377, -4.676351330614053, -1.9320451226737734, -2.239555566854929, -2.451732890963637, -0.7638185561202939, 1.6052434495609242, 0.9199967649112084, 0.856186411015272, 1.8374338806014237, 0.9581392749953678, 3.037833098371998, 1.0542677674158238, 0.27288647443680303, -3.2876666397225955, -2.280237480080272, -0.5372295538229259, -1.639574080359991, 3.1963824496290667, 3.3825411348490566, 1.3478857030978832, 0.09636085184140811, -4.271907746575924, -1.2811174153341165, 0.9186520212437455, -2.930643495168019, 2.414782341254286, 3.919852882420599, 0.9683505931088184, 0.03516839351214674, -3.774281409813912, -0.8609280084484009, 1.3724056919953291, -2.1844804017468773, -0.19382776925106948, -0.15056532470831338, -0.7597599383902076, -0.301041424066408, 0.10614236030217077, -0.09897279892911444, 0.26955880127052123, 0.2757765848751153, 0.9298042944980243, 1.0070892067779353, -0.05922832898327152, 0.046269461519132735, -1.32867972671296, -1.1597141496001182, -0.08808063461455817};
//
// const int **m_sparseIndices[6];
//
// const int *tmp0_sparseIndices1[1];
// const int tmp1_sparseIndices1_0[128] = {0, 1, 2, 3, 4, 5, 6, 7, 8, 9, 10, 11, 12, 13, 14, 15, 16, 17, 18, 19, 20, 21, 22, 23, 24, 25, 26, 27, 28, 29, 30, 31, 32, 33, 34, 35, 36, 37, 38, 39, 40, 41, 42, 43, 44, 45, 46, 47, 48, 49, 50, 51, 52, 53, 54, 55, 56, 57, 58, 59, 60, 61, 62, 63, 64, 65, 66, 67, 68, 69, 70, 71, 72, 73, 74, 75, 76, 77, 78, 79, 80, 81, 82, 83, 84, 85, 86, 87, 88, 89, 90, 91, 92, 93, 94, 95, 96, 97, 98, 99, 100, 101, 102, 103, 104, 105, 106, 107, 108, 109, 110, 111, 112, 113, 114, 115, 116, 117, 118, 119, 120, 121, 122, 123, 124, 125, 126, 127};
//
// const int *tmp0_sparseIndices2[2];
// const int tmp1_sparseIndices2_0[128] = {0, 1, 2, 3, 4, 5, 6, 7, 8, 9, 10, 11, 12, 13, 14, 15, 16, 17, 18, 19, 20, 21, 22, 23, 24, 25, 26, 27, 28, 29, 30, 31, 32, 33, 34, 35, 36, 37, 38, 39, 40, 41, 42, 43, 44, 45, 46, 47, 48, 49, 50, 51, 52, 53, 54, 55, 56, 57, 58, 59, 60, 61, 62, 63, 64, 65, 66, 67, 68, 69, 70, 71, 72, 73, 74, 75, 76, 77, 78, 79, 80, 81, 82, 83, 84, 85, 86, 87, 88, 89, 90, 91, 92, 93, 94, 95, 96, 97, 98, 99, 100, 101, 102, 103, 104, 105, 106, 107, 108, 109, 110, 111, 112, 113, 114, 115, 116, 117, 118, 119, 120, 121, 122, 123, 124, 125, 126, 127};
// const int tmp1_sparseIndices2_1[128] = {0, 1, 2, 3, 4, 5, 6, 7, 8, 9, 10, 11, 12, 13, 14, 15, 16, 17, 18, 19, 20, 21, 22, 23, 24, 25, 26, 27, 28, 29, 30, 31, 32, 33, 34, 35, 36, 37, 38, 39, 40, 41, 42, 43, 44, 45, 46, 47, 48, 49, 50, 51, 52, 53, 54, 55, 56, 57, 58, 59, 60, 61, 62, 63, 64, 65, 66, 67, 68, 69, 70, 71, 72, 73, 74, 75, 76, 77, 78, 79, 80, 81, 82, 83, 84, 85, 86, 87, 88, 89, 90, 91, 92, 93, 94, 95, 96, 97, 98, 99, 100, 101, 102, 103, 104, 105, 106, 107, 108, 109, 110, 111, 112, 113, 114, 115, 116, 117, 118, 119, 120, 121, 122, 123, 124, 125, 126, 127};
//
// const int *tmp0_sparseIndices3[3];
// const int tmp1_sparseIndices3_0[128] = {0, 1, 2, 3, 4, 5, 6, 7, 8, 9, 10, 11, 12, 13, 14, 15, 16, 17, 18, 19, 20, 21, 22, 23, 24, 25, 26, 27, 28, 29, 30, 31, 32, 33, 34, 35, 36, 37, 38, 39, 40, 41, 42, 43, 44, 45, 46, 47, 48, 49, 50, 51, 52, 53, 54, 55, 56, 57, 58, 59, 60, 61, 62, 63, 64, 65, 66, 67, 68, 69, 70, 71, 72, 73, 74, 75, 76, 77, 78, 79, 80, 81, 82, 83, 84, 85, 86, 87, 88, 89, 90, 91, 92, 93, 94, 95, 96, 97, 98, 99, 100, 101, 102, 103, 104, 105, 106, 107, 108, 109, 110, 111, 112, 113, 114, 115, 116, 117, 118, 119, 120, 121, 122, 123, 124, 125, 126, 127};
// const int tmp1_sparseIndices3_1[128] = {0, 1, 2, 3, 4, 5, 6, 7, 8, 9, 10, 11, 12, 13, 14, 15, 16, 17, 18, 19, 20, 21, 22, 23, 24, 25, 26, 27, 28, 29, 30, 31, 32, 33, 34, 35, 36, 37, 38, 39, 40, 41, 42, 43, 44, 45, 46, 47, 48, 49, 50, 51, 52, 53, 54, 55, 56, 57, 58, 59, 60, 61, 62, 63, 64, 65, 66, 67, 68, 69, 70, 71, 72, 73, 74, 75, 76, 77, 78, 79, 80, 81, 82, 83, 84, 85, 86, 87, 88, 89, 90, 91, 92, 93, 94, 95, 96, 97, 98, 99, 100, 101, 102, 103, 104, 105, 106, 107, 108, 109, 110, 111, 112, 113, 114, 115, 116, 117, 118, 119, 120, 121, 122, 123, 124, 125, 126, 127};
// const int tmp1_sparseIndices3_2[128] = {0, 1, 2, 3, 4, 5, 6, 7, 8, 9, 10, 11, 12, 13, 14, 15, 16, 17, 18, 19, 20, 21, 22, 23, 24, 25, 26, 27, 28, 29, 30, 31, 32, 33, 34, 35, 36, 37, 38, 39, 40, 41, 42, 43, 44, 45, 46, 47, 48, 49, 50, 51, 52, 53, 54, 55, 56, 57, 58, 59, 60, 61, 62, 63, 64, 65, 66, 67, 68, 69, 70, 71, 72, 73, 74, 75, 76, 77, 78, 79, 80, 81, 82, 83, 84, 85, 86, 87, 88, 89, 90, 91, 92, 93, 94, 95, 96, 97, 98, 99, 100, 101, 102, 103, 104, 105, 106, 107, 108, 109, 110, 111, 112, 113, 114, 115, 116, 117, 118, 119, 120, 121, 122, 123, 124, 125, 126, 127};
//
// const int *tmp0_sparseIndices4[4];
// const int tmp1_sparseIndices4_0[128] = {0, 1, 2, 3, 4, 5, 6, 7, 8, 9, 10, 11, 12, 13, 14, 15, 16, 17, 18, 19, 20, 21, 22, 23, 24, 25, 26, 27, 28, 29, 30, 31, 32, 33, 34, 35, 36, 37, 38, 39, 40, 41, 42, 43, 44, 45, 46, 47, 48, 49, 50, 51, 52, 53, 54, 55, 56, 57, 58, 59, 60, 61, 62, 63, 64, 65, 66, 67, 68, 69, 70, 71, 72, 73, 74, 75, 76, 77, 78, 79, 80, 81, 82, 83, 84, 85, 86, 87, 88, 89, 90, 91, 92, 93, 94, 95, 96, 97, 98, 99, 100, 101, 102, 103, 104, 105, 106, 107, 108, 109, 110, 111, 112, 113, 114, 115, 116, 117, 118, 119, 120, 121, 122, 123, 124, 125, 126, 127};
// const int tmp1_sparseIndices4_1[128] = {0, 1, 2, 3, 4, 5, 6, 7, 8, 9, 10, 11, 12, 13, 14, 15, 16, 17, 18, 19, 20, 21, 22, 23, 24, 25, 26, 27, 28, 29, 30, 31, 32, 33, 34, 35, 36, 37, 38, 39, 40, 41, 42, 43, 44, 45, 46, 47, 48, 49, 50, 51, 52, 53, 54, 55, 56, 57, 58, 59, 60, 61, 62, 63, 64, 65, 66, 67, 68, 69, 70, 71, 72, 73, 74, 75, 76, 77, 78, 79, 80, 81, 82, 83, 84, 85, 86, 87, 88, 89, 90, 91, 92, 93, 94, 95, 96, 97, 98, 99, 100, 101, 102, 103, 104, 105, 106, 107, 108, 109, 110, 111, 112, 113, 114, 115, 116, 117, 118, 119, 120, 121, 122, 123, 124, 125, 126, 127};
// const int tmp1_sparseIndices4_2[128] = {0, 1, 2, 3, 4, 5, 6, 7, 8, 9, 10, 11, 12, 13, 14, 15, 16, 17, 18, 19, 20, 21, 22, 23, 24, 25, 26, 27, 28, 29, 30, 31, 32, 33, 34, 35, 36, 37, 38, 39, 40, 41, 42, 43, 44, 45, 46, 47, 48, 49, 50, 51, 52, 53, 54, 55, 56, 57, 58, 59, 60, 61, 62, 63, 64, 65, 66, 67, 68, 69, 70, 71, 72, 73, 74, 75, 76, 77, 78, 79, 80, 81, 82, 83, 84, 85, 86, 87, 88, 89, 90, 91, 92, 93, 94, 95, 96, 97, 98, 99, 100, 101, 102, 103, 104, 105, 106, 107, 108, 109, 110, 111, 112, 113, 114, 115, 116, 117, 118, 119, 120, 121, 122, 123, 124, 125, 126, 127};
// const int tmp1_sparseIndices4_3[128] = {0, 1, 2, 3, 4, 5, 6, 7, 8, 9, 10, 11, 12, 13, 14, 15, 16, 17, 18, 19, 20, 21, 22, 23, 24, 25, 26, 27, 28, 29, 30, 31, 32, 33, 34, 35, 36, 37, 38, 39, 40, 41, 42, 43, 44, 45, 46, 47, 48, 49, 50, 51, 52, 53, 54, 55, 56, 57, 58, 59, 60, 61, 62, 63, 64, 65, 66, 67, 68, 69, 70, 71, 72, 73, 74, 75, 76, 77, 78, 79, 80, 81, 82, 83, 84, 85, 86, 87, 88, 89, 90, 91, 92, 93, 94, 95, 96, 97, 98, 99, 100, 101, 102, 103, 104, 105, 106, 107, 108, 109, 110, 111, 112, 113, 114, 115, 116, 117, 118, 119, 120, 121, 122, 123, 124, 125, 126, 127};
//
// const int *tmp0_sparseIndices5[5];
// const int tmp1_sparseIndices5_0[128] = {0, 1, 2, 3, 4, 5, 6, 7, 8, 9, 10, 11, 12, 13, 14, 15, 16, 17, 18, 19, 20, 21, 22, 23, 24, 25, 26, 27, 28, 29, 30, 31, 32, 33, 34, 35, 36, 37, 38, 39, 40, 41, 42, 43, 44, 45, 46, 47, 48, 49, 50, 51, 52, 53, 54, 55, 56, 57, 58, 59, 60, 61, 62, 63, 64, 65, 66, 67, 68, 69, 70, 71, 72, 73, 74, 75, 76, 77, 78, 79, 80, 81, 82, 83, 84, 85, 86, 87, 88, 89, 90, 91, 92, 93, 94, 95, 96, 97, 98, 99, 100, 101, 102, 103, 104, 105, 106, 107, 108, 109, 110, 111, 112, 113, 114, 115, 116, 117, 118, 119, 120, 121, 122, 123, 124, 125, 126, 127};
// const int tmp1_sparseIndices5_1[128] = {0, 1, 2, 3, 4, 5, 6, 7, 8, 9, 10, 11, 12, 13, 14, 15, 16, 17, 18, 19, 20, 21, 22, 23, 24, 25, 26, 27, 28, 29, 30, 31, 32, 33, 34, 35, 36, 37, 38, 39, 40, 41, 42, 43, 44, 45, 46, 47, 48, 49, 50, 51, 52, 53, 54, 55, 56, 57, 58, 59, 60, 61, 62, 63, 64, 65, 66, 67, 68, 69, 70, 71, 72, 73, 74, 75, 76, 77, 78, 79, 80, 81, 82, 83, 84, 85, 86, 87, 88, 89, 90, 91, 92, 93, 94, 95, 96, 97, 98, 99, 100, 101, 102, 103, 104, 105, 106, 107, 108, 109, 110, 111, 112, 113, 114, 115, 116, 117, 118, 119, 120, 121, 122, 123, 124, 125, 126, 127};
// const int tmp1_sparseIndices5_2[128] = {0, 1, 2, 3, 4, 5, 6, 7, 8, 9, 10, 11, 12, 13, 14, 15, 16, 17, 18, 19, 20, 21, 22, 23, 24, 25, 26, 27, 28, 29, 30, 31, 32, 33, 34, 35, 36, 37, 38, 39, 40, 41, 42, 43, 44, 45, 46, 47, 48, 49, 50, 51, 52, 53, 54, 55, 56, 57, 58, 59, 60, 61, 62, 63, 64, 65, 66, 67, 68, 69, 70, 71, 72, 73, 74, 75, 76, 77, 78, 79, 80, 81, 82, 83, 84, 85, 86, 87, 88, 89, 90, 91, 92, 93, 94, 95, 96, 97, 98, 99, 100, 101, 102, 103, 104, 105, 106, 107, 108, 109, 110, 111, 112, 113, 114, 115, 116, 117, 118, 119, 120, 121, 122, 123, 124, 125, 126, 127};
// const int tmp1_sparseIndices5_3[128] = {0, 1, 2, 3, 4, 5, 6, 7, 8, 9, 10, 11, 12, 13, 14, 15, 16, 17, 18, 19, 20, 21, 22, 23, 24, 25, 26, 27, 28, 29, 30, 31, 32, 33, 34, 35, 36, 37, 38, 39, 40, 41, 42, 43, 44, 45, 46, 47, 48, 49, 50, 51, 52, 53, 54, 55, 56, 57, 58, 59, 60, 61, 62, 63, 64, 65, 66, 67, 68, 69, 70, 71, 72, 73, 74, 75, 76, 77, 78, 79, 80, 81, 82, 83, 84, 85, 86, 87, 88, 89, 90, 91, 92, 93, 94, 95, 96, 97, 98, 99, 100, 101, 102, 103, 104, 105, 106, 107, 108, 109, 110, 111, 112, 113, 114, 115, 116, 117, 118, 119, 120, 121, 122, 123, 124, 125, 126, 127};
// const int tmp1_sparseIndices5_4[128] = {0, 1, 2, 3, 4, 5, 6, 7, 8, 9, 10, 11, 12, 13, 14, 15, 16, 17, 18, 19, 20, 21, 22, 23, 24, 25, 26, 27, 28, 29, 30, 31, 32, 33, 34, 35, 36, 37, 38, 39, 40, 41, 42, 43, 44, 45, 46, 47, 48, 49, 50, 51, 52, 53, 54, 55, 56, 57, 58, 59, 60, 61, 62, 63, 64, 65, 66, 67, 68, 69, 70, 71, 72, 73, 74, 75, 76, 77, 78, 79, 80, 81, 82, 83, 84, 85, 86, 87, 88, 89, 90, 91, 92, 93, 94, 95, 96, 97, 98, 99, 100, 101, 102, 103, 104, 105, 106, 107, 108, 109, 110, 111, 112, 113, 114, 115, 116, 117, 118, 119, 120, 121, 122, 123, 124, 125, 126, 127};
//
// const float *m_b[6];
// const float tmp_m_b1[1] = {-1.10689855648353};
// const float tmp_m_b2[2] = {2.959064952363704, 7.146325699765056};
// const float tmp_m_b3[3] = {-5.5731406441824545, 1.316208055996631, -5.116663112518983};
// const float tmp_m_b4[4] = {1.9912974278186444, 3.038486888659186, -7.931215875848812, 15.989576803584404};
// const float tmp_m_b5[5] = {-7.5857623805546, -1.0540834753590014, -2.2328263888856057, -0.8235025603018736, -8.35047170950778};
//
// float SVMOutput(int i, int j){
// 	float result = 0.0;
// 	for (int p1 = 0; p1 < m_sparseWeights[i][j][0]; p1++){
// 		int p2 = m_sparseIndices[i][j][p1];
// 		if (p2 != CLASS_INDEX){
// 			result += instance[p2] * m_sparseWeights[i][j][p1+1];
// 		}
// 	}
// 	result -= m_b[i][j];
// 	return result;
// }
//
// /* Function classify description:
//  * Instance array must be initializated, with appropriated attributes, before calling this function
//  * Output number 0 means that the instance was classified as 1
//  * Output number 1 means that the instance was classified as 2
//  * Output number 2 means that the instance was classified as 3
//  * Output number 3 means that the instance was classified as 4
//  * Output number 4 means that the instance was classified as 5
//  * Output number 5 means that the instance was classified as 6
//  */
// int classify(){
// 	for (int i = 0; i <= INPUT_SIZE; i++){
// 		if (maxArray[i] == minArray[i] || minArray[i] == NAN){
// 			instance[i] = 0;
// 		}
// 		else{
// 			instance[i] = (instance[i] - minArray[i]) / (maxArray[i] - minArray[i]);
// 		}
// 	}
// 	int result[NUM_CLASSES] = {0};
// 	for (int i = 1; i < NUM_CLASSES; i++){
// 		for (int j = 0; j < i; j++){
// 			float output = SVMOutput(i, j);
// 			if (output > 0){
// 				result[i]++;
// 			}
// 			else{
// 				result[j]++;
// 			}
// 		}
// 	}
// 	int indMax = 0;
// 	for (int i = 1; i < NUM_CLASSES; i++){
// 		if (result[i] > result[indMax]){
// 			indMax = i;
// 		}
// 	}
// 	return indMax+1;
// }
//
// void initConnections(){
//
// 	m_sparseWeights[0] = NULL;
//
// 	tmp0_sparseWeights1[0] = tmp1_sparseWeights1_0;
// 	m_sparseWeights[1] = tmp0_sparseWeights1;
//
// 	tmp0_sparseWeights2[0] = tmp1_sparseWeights2_0;
// 	tmp0_sparseWeights2[1] = tmp1_sparseWeights2_1;
// 	m_sparseWeights[2] = tmp0_sparseWeights2;
//
// 	tmp0_sparseWeights3[0] = tmp1_sparseWeights3_0;
// 	tmp0_sparseWeights3[1] = tmp1_sparseWeights3_1;
// 	tmp0_sparseWeights3[2] = tmp1_sparseWeights3_2;
// 	m_sparseWeights[3] = tmp0_sparseWeights3;
//
// 	tmp0_sparseWeights4[0] = tmp1_sparseWeights4_0;
// 	tmp0_sparseWeights4[1] = tmp1_sparseWeights4_1;
// 	tmp0_sparseWeights4[2] = tmp1_sparseWeights4_2;
// 	tmp0_sparseWeights4[3] = tmp1_sparseWeights4_3;
// 	m_sparseWeights[4] = tmp0_sparseWeights4;
//
// 	tmp0_sparseWeights5[0] = tmp1_sparseWeights5_0;
// 	tmp0_sparseWeights5[1] = tmp1_sparseWeights5_1;
// 	tmp0_sparseWeights5[2] = tmp1_sparseWeights5_2;
// 	tmp0_sparseWeights5[3] = tmp1_sparseWeights5_3;
// 	tmp0_sparseWeights5[4] = tmp1_sparseWeights5_4;
// 	m_sparseWeights[5] = tmp0_sparseWeights5;
//
//
// 	m_sparseIndices[0] = NULL;
//
// 	tmp0_sparseIndices1[0] = tmp1_sparseIndices1_0;
// 	m_sparseIndices[1] = tmp0_sparseIndices1;
//
// 	tmp0_sparseIndices2[0] = tmp1_sparseIndices2_0;
// 	tmp0_sparseIndices2[1] = tmp1_sparseIndices2_1;
// 	m_sparseIndices[2] = tmp0_sparseIndices2;
//
// 	tmp0_sparseIndices3[0] = tmp1_sparseIndices3_0;
// 	tmp0_sparseIndices3[1] = tmp1_sparseIndices3_1;
// 	tmp0_sparseIndices3[2] = tmp1_sparseIndices3_2;
// 	m_sparseIndices[3] = tmp0_sparseIndices3;
//
// 	tmp0_sparseIndices4[0] = tmp1_sparseIndices4_0;
// 	tmp0_sparseIndices4[1] = tmp1_sparseIndices4_1;
// 	tmp0_sparseIndices4[2] = tmp1_sparseIndices4_2;
// 	tmp0_sparseIndices4[3] = tmp1_sparseIndices4_3;
// 	m_sparseIndices[4] = tmp0_sparseIndices4;
//
// 	tmp0_sparseIndices5[0] = tmp1_sparseIndices5_0;
// 	tmp0_sparseIndices5[1] = tmp1_sparseIndices5_1;
// 	tmp0_sparseIndices5[2] = tmp1_sparseIndices5_2;
// 	tmp0_sparseIndices5[3] = tmp1_sparseIndices5_3;
// 	tmp0_sparseIndices5[4] = tmp1_sparseIndices5_4;
// 	m_sparseIndices[5] = tmp0_sparseIndices5;
//
//
// 	m_b[0] = NULL;
// 	m_b[1] = tmp_m_b1;
// 	m_b[2] = tmp_m_b2;
// 	m_b[3] = tmp_m_b3;
// 	m_b[4] = tmp_m_b4;
// 	m_b[5] = tmp_m_b5;
// }
