//
// #include <Arduino.h>
// #include <math.h>
//
//
// #define INPUT_SIZE 64
// #define CLASS_INDEX 64
// #define OUTPUT_SIZE 4
// #define NUMBER_OF_NEURONS 106
//
// /* Instance array must be global
//  * Attributes MUST be sorted in instance array in the following order:
//  * mean_vel
//  * std_vel
//  * temp_ste
//  * temp_mag
//  * temp_roms
//  * temp_mean
//  * temp_tc
//  * temp_zcr
//  * temp_itv
//  * temp_var
//  * temp_std
//  * temp_skewness
//  * temp_kurtosis
//  * temp_ce
//  * temp_ce_norm
//  * temp_crest
//  * temp_max2min
//  * temp_mag2rms
//  * temp_rms2
//  * temp_rssl
//  * temp_mnp
//  * temp_adp
//  * temp_ety
//  * temp_md
//  * temp_iqr2
//  * spec_f0
//  * spec_ste
//  * spec_mag
//  * spec_sc
//  * spec_si
//  * spec_sim
//  * spec_sfm
//  * spec_flux
//  * spec_sro
//  * spec_var
//  * spec_std
//  * spec_skw
//  * spec_kts
//  * spec_max2min
//  * spec_mag2rms
//  * spec_mnp
//  * spec_adp
//  * spec_ety
//  * spec_cov1
//  * spec_cov2
//  * spec_cov3
//  * spec_peaks1
//  * spec_peaks2
//  * spec_peaks3
//  * spec_peaks4
//  * spec_peaks5
//  * spec_peaks6
//  * spec_peaks7
//  * spec_peaks8
//  * spec_peaks9
//  * spec_peaks10
//  * spec_peaks11
//  * spec_peaks12
//  * spec_power1
//  * spec_power2
//  * spec_power3
//  * spec_power4
//  * spec_power5
//  * spec_iqr2
//  */
// float instance[INPUT_SIZE+1];
//
// const int m_outputs[OUTPUT_SIZE] = {102, 103, 104, 105};
//
// const float m_attributeBases[INPUT_SIZE] = {0.4963661211, 0.2737471748, 0.37097829675, 0.4348438112, 0.4235029112, 0.50641150725, 0.47611308235, 0.5, 0.5, 0.37097829675, 0.4235029112, 0.4376691422, 0.43879001075, 0.37829437895, 0.37829437895, 0.50028644165, 0.5, 0.5002972094, 0.4235029112, 0.4235029112, 0.5, 0.50053050815, 0.4963476322, 0.49282365455, 0.4166197111, 0.5, 0.3881367441, 0.46531231915, 0.5, 0.5, 0.5, 0.5, 0.31859876105, 0.5, 0.28921083915, 0.36877588865, 0.50230929465, 0.5005309599, 0.4893657256, 0.5, 0.5, 0.5, 0.4996027324, 0.37097829675, 0.5, 0.440261081, 0.5, 0.5, 0.487654321, 0.5, 0.5, 0.5028735632, 0.5000721979, 0.5000587958, 0.5001979464, 0.3469316937, 0.3347894192, 0.500190671, 0.5, 0.46439055465, 0.50210110205, 0.500949129, 0.4979458492, 0.3477259879};
// const float m_attributeRanges[INPUT_SIZE] = {0.4963661211, 0.2737471748, 0.37097829675, 0.4348438112, 0.4235029112, 0.49358849275, 0.47611308235, 0.5, 0.5, 0.37097829675, 0.4235029112, 0.4376691422, 0.43821415765, 0.37829437895, 0.37829437895, 0.49971355835, 0.5, 0.4997027906, 0.4235029112, 0.4235029112, 0.5, 0.49946949185, 0.4963476322, 0.49282365455, 0.4166197111, 0.5, 0.3881367441, 0.46531231915, 0.5, 0.5, 0.5, 0.5, 0.31859876105, 0.5, 0.28921083915, 0.36877588865, 0.49769070535, 0.4994690401, 0.4893657256, 0.5, 0.5, 0.5, 0.4996027324, 0.37097829675, 0.5, 0.440261081, 0.5, 0.5, 0.487654321, 0.5, 0.5, 0.4971264368, 0.4999278021, 0.4999412042, 0.4998020536, 0.3469316937, 0.3346757857, 0.499809329, 0.5, 0.46422116185, 0.49789889795, 0.499050871, 0.4971661119, 0.3448458946};
//
// const float *m_weights[NUMBER_OF_NEURONS];
// const int *m_connections[NUMBER_OF_NEURONS];
//
// const int tmp_connections0[1] = {0};
//
// const int tmp_connections1[1] = {0};
//
// const int tmp_connections2[1] = {0};
//
// const int tmp_connections3[1] = {0};
//
// const int tmp_connections4[1] = {0};
//
// const int tmp_connections5[1] = {0};
//
// const int tmp_connections6[1] = {0};
//
// const int tmp_connections7[1] = {0};
//
// const int tmp_connections8[1] = {0};
//
// const int tmp_connections9[1] = {0};
//
// const int tmp_connections10[1] = {0};
//
// const int tmp_connections11[1] = {0};
//
// const int tmp_connections12[1] = {0};
//
// const int tmp_connections13[1] = {0};
//
// const int tmp_connections14[1] = {0};
//
// const int tmp_connections15[1] = {0};
//
// const int tmp_connections16[1] = {0};
//
// const int tmp_connections17[1] = {0};
//
// const int tmp_connections18[1] = {0};
//
// const int tmp_connections19[1] = {0};
//
// const int tmp_connections20[1] = {0};
//
// const int tmp_connections21[1] = {0};
//
// const int tmp_connections22[1] = {0};
//
// const int tmp_connections23[1] = {0};
//
// const int tmp_connections24[1] = {0};
//
// const int tmp_connections25[1] = {0};
//
// const int tmp_connections26[1] = {0};
//
// const int tmp_connections27[1] = {0};
//
// const int tmp_connections28[1] = {0};
//
// const int tmp_connections29[1] = {0};
//
// const int tmp_connections30[1] = {0};
//
// const int tmp_connections31[1] = {0};
//
// const int tmp_connections32[1] = {0};
//
// const int tmp_connections33[1] = {0};
//
// const int tmp_connections34[1] = {0};
//
// const int tmp_connections35[1] = {0};
//
// const int tmp_connections36[1] = {0};
//
// const int tmp_connections37[1] = {0};
//
// const int tmp_connections38[1] = {0};
//
// const int tmp_connections39[1] = {0};
//
// const int tmp_connections40[1] = {0};
//
// const int tmp_connections41[1] = {0};
//
// const int tmp_connections42[1] = {0};
//
// const int tmp_connections43[1] = {0};
//
// const int tmp_connections44[1] = {0};
//
// const int tmp_connections45[1] = {0};
//
// const int tmp_connections46[1] = {0};
//
// const int tmp_connections47[1] = {0};
//
// const int tmp_connections48[1] = {0};
//
// const int tmp_connections49[1] = {0};
//
// const int tmp_connections50[1] = {0};
//
// const int tmp_connections51[1] = {0};
//
// const int tmp_connections52[1] = {0};
//
// const int tmp_connections53[1] = {0};
//
// const int tmp_connections54[1] = {0};
//
// const int tmp_connections55[1] = {0};
//
// const int tmp_connections56[1] = {0};
//
// const int tmp_connections57[1] = {0};
//
// const int tmp_connections58[1] = {0};
//
// const int tmp_connections59[1] = {0};
//
// const int tmp_connections60[1] = {0};
//
// const int tmp_connections61[1] = {0};
//
// const int tmp_connections62[1] = {0};
//
// const int tmp_connections63[1] = {0};
//
// const float tmp_weights64[65] = {-0.137401285363, 3.36697960331, 0.510548033035, 0.0710262518598, 1.32536603576, -0.148872239312, -2.06139302437, -0.565474632786, 0.103359008228, 0.291542762064, 0.0518605836122, -0.150920799571, -1.284311884, -0.888187803213, -1.15757848109, -1.1689288602, 0.643173235274, 0.337093401928, 0.298977219474, -0.164755282513, -0.106776858173, 1.10410570335, -0.929654380744, -0.280323026973, 0.267294833158, 2.83378026347, 1.55419097607, -0.241936196441, -0.239816155012, -2.20466169709, -0.280844792232, -0.788782352629, -3.02838228262, -0.567019730894, -1.24925776581, 0.129755060204, 0.486144243379, 0.585427555118, 0.490174315806, 1.2954231453, 1.15098814577, -3.15619210394, 2.07180259834, -1.0325159057, 0.0154697345032, -2.82798122869, -0.775626982422, -2.52551878063, -0.0229646320839, -1.03507464799, -0.862698140098, -2.156101257, -1.40518225385, 0.533884459489, 0.311478066976, 0.848705906159, 0.465383954718, 1.5304732954, -1.38800249151, -0.91802821709, 0.715828874747, 0.720298329814, 1.40547190288, 0.841594721659, 0.781059117064};
// const int tmp_connections64[65] = {64, 0, 1, 2, 3, 4, 5, 6, 7, 8, 9, 10, 11, 12, 13, 14, 15, 16, 17, 18, 19, 20, 21, 22, 23, 24, 25, 26, 27, 28, 29, 30, 31, 32, 33, 34, 35, 36, 37, 38, 39, 40, 41, 42, 43, 44, 45, 46, 47, 48, 49, 50, 51, 52, 53, 54, 55, 56, 57, 58, 59, 60, 61, 62, 63};
//
// const float tmp_weights65[65] = {-1.13410934879, -1.44217683389, 0.137327145842, -0.300611732041, -0.264933011139, -0.955580237251, 1.53094421951, -0.434489734918, 1.15200736864, -0.867529139735, -0.334279426536, -0.968789266762, -1.00875142917, 0.321563631421, -1.97453590237, -1.98804354958, -2.0551524795, -0.831565190307, -1.10582726279, -0.954377648402, -1.02296753566, 0.919569827737, -0.630566554743, 2.65142245897, 0.0799153807703, 0.705442785669, 0.242098113724, 0.24881280721, -0.542775875177, -1.29193097934, -1.05269313989, 0.274572363454, -0.886730724715, -1.90212649758, -2.63373994897, 0.0768286719981, -0.806591610386, 0.396891413322, 0.8045439606, -0.101620434946, 0.830233419234, -0.517987863532, 0.447446892889, -0.744631409956, -0.356906837085, 0.491826842674, 0.522725233616, -0.0251271909866, 1.02213979339, 0.612800938742, 1.21779544298, -0.0544483667537, -0.0645335635979, 1.12839252524, 0.502267867906, 0.547784068459, 1.15233928008, 1.07681139884, 1.41213754938, 0.603727489829, 2.57006473984, 0.546144906265, -0.210084270294, -0.590108750925, -0.54759115599};
// const int tmp_connections65[65] = {64, 0, 1, 2, 3, 4, 5, 6, 7, 8, 9, 10, 11, 12, 13, 14, 15, 16, 17, 18, 19, 20, 21, 22, 23, 24, 25, 26, 27, 28, 29, 30, 31, 32, 33, 34, 35, 36, 37, 38, 39, 40, 41, 42, 43, 44, 45, 46, 47, 48, 49, 50, 51, 52, 53, 54, 55, 56, 57, 58, 59, 60, 61, 62, 63};
//
// const float tmp_weights66[65] = {-1.72614569884, 1.66707711678, -0.88917672264, 0.268131260897, 2.49258731615, -1.47559430581, 0.318890571565, -10.5404360379, 6.07484593176, -2.7820089763, 0.258289472038, -1.43653354835, -2.02986787815, -0.826813315986, -0.822660883969, -0.784557731058, -5.00072899608, -2.83893001129, -1.68395336887, -1.38960593986, -1.42621892299, -1.4438901875, 3.21073984952, 7.79511773145, 3.13487248814, 6.49564085952, 7.54280040535, 1.72740284559, 0.62831614674, -5.39717416398, -0.377606105576, -0.590810919831, -3.00970746337, -2.11895860906, -3.64714265943, 2.39430368466, 1.1721453391, -1.01817234813, -0.467524281249, 1.06176411411, 0.22800703068, -0.655589269826, 0.208033003817, -1.5194961678, 0.219797479505, 1.82743512524, 1.44956806019, -2.36181744349, -1.11574682934, -0.849298561054, 0.551276929461, 4.58688043224, 4.6509019513, 0.00148958246099, 0.291098759148, 2.83899028371, -0.673864887625, 6.26979338757, 1.53687383037, -1.73522172548, 0.875381012946, 1.90134570567, -0.98018480936, -3.11064379293, 0.341471266535};
// const int tmp_connections66[65] = {64, 0, 1, 2, 3, 4, 5, 6, 7, 8, 9, 10, 11, 12, 13, 14, 15, 16, 17, 18, 19, 20, 21, 22, 23, 24, 25, 26, 27, 28, 29, 30, 31, 32, 33, 34, 35, 36, 37, 38, 39, 40, 41, 42, 43, 44, 45, 46, 47, 48, 49, 50, 51, 52, 53, 54, 55, 56, 57, 58, 59, 60, 61, 62, 63};
//
// const float tmp_weights67[65] = {-0.38057829024, 1.12219305213, -0.0403739536744, -0.241313523935, -0.214385737398, -0.299908249942, -0.931686246793, -0.218447457225, 0.316448892715, -0.274511804558, -0.249521902915, -0.280972840261, -0.130479132097, 0.182337874738, -0.154709072236, -0.143477611911, -0.442295531837, -0.280591154152, -0.0240639371701, -0.30649710602, -0.25130081966, 0.131832807265, 0.00484788276378, 0.550151437692, -0.0480483800295, -0.129068950093, -0.775190833152, -0.293368077257, -0.419995527182, 1.15242685382, -0.508669179041, 0.495755426043, -0.681457690029, -0.12803280177, 0.256569168672, -0.166088848818, -0.23237738635, 0.314208306663, 0.126714201799, -0.532283888943, -0.261673870699, -0.241943156568, 0.156797843442, 0.469540820328, -0.180260374574, 0.499791973087, -0.511811127793, 0.413102425748, 0.210214034301, 0.342078451229, -0.0774991271093, 0.0282918595307, 0.105214841568, 0.177454429114, 0.662632763896, 0.307330538972, 0.544089816821, 0.385902843699, -0.481060285745, 0.459687216582, 0.0758779976028, -0.624835697006, -0.111016181684, 0.104470843636, -0.218703443411};
// const int tmp_connections67[65] = {64, 0, 1, 2, 3, 4, 5, 6, 7, 8, 9, 10, 11, 12, 13, 14, 15, 16, 17, 18, 19, 20, 21, 22, 23, 24, 25, 26, 27, 28, 29, 30, 31, 32, 33, 34, 35, 36, 37, 38, 39, 40, 41, 42, 43, 44, 45, 46, 47, 48, 49, 50, 51, 52, 53, 54, 55, 56, 57, 58, 59, 60, 61, 62, 63};
//
// const float tmp_weights68[65] = {0.967419928599, -2.15564546557, -0.905020502907, 0.468959194802, -1.88101974252, 1.09748570636, -5.01125089988, 1.87145159422, -2.47739282095, 2.33102000622, 0.444155387625, 1.16533446571, 3.60486974974, 1.58206254108, 1.02175373749, 1.08605197719, 4.93810094602, 2.2583464837, -1.00982393937, 1.09525225824, 1.16614876586, 2.68864791907, -3.60735376377, -6.74679527835, -2.71276088506, -5.59460979934, -4.00458281105, 0.0401147005517, -0.557800375881, -1.94536746379, -1.72217433117, 2.29780095063, -8.36110722641, 1.90064953192, -2.36801641478, 1.04582387055, 1.54335475251, 2.37395313873, 0.919640617534, 0.344615155688, 1.10891212562, 2.11051357994, -1.0774523721, -0.0845789866284, 0.460194868824, -2.65454286224, -0.199450671712, 0.709278993135, -3.43470003838, -0.250517244819, -2.73364790568, 3.43413135934, 5.90620784511, -3.42998782567, -0.487593903781, -3.88493722951, 2.68475751111, -3.62802129461, -0.997542258907, 0.388710157071, -0.488432445745, -1.05295956094, 2.09243811124, 2.98425731199, -1.23984892357};
// const int tmp_connections68[65] = {64, 0, 1, 2, 3, 4, 5, 6, 7, 8, 9, 10, 11, 12, 13, 14, 15, 16, 17, 18, 19, 20, 21, 22, 23, 24, 25, 26, 27, 28, 29, 30, 31, 32, 33, 34, 35, 36, 37, 38, 39, 40, 41, 42, 43, 44, 45, 46, 47, 48, 49, 50, 51, 52, 53, 54, 55, 56, 57, 58, 59, 60, 61, 62, 63};
//
// const float tmp_weights69[65] = {-1.87348160454, 2.82118271407, 3.78081455985, 0.3638524939, 0.592077559348, -1.23649501092, -5.33895338124, -4.05742907274, 0.263726675631, -0.608833625796, 0.349411567586, -1.18586597073, -3.50584829998, 0.521573057676, -1.74878653441, -1.75550276798, 0.0104451987293, -0.601122335233, 1.12946322521, -1.16829328717, -1.19481961002, 9.48000673581, -6.67144608443, 2.55781418702, 5.91346682645, 2.48072998651, 0.489047240673, 0.781944292947, -0.917925611053, -5.19263165655, -2.20041809, -0.460354890661, -1.12057327771, -3.99276813118, -1.82565385235, 0.921366060939, -0.00574593077484, 3.75476883917, 3.13269570583, -2.02218063153, 1.50678341253, -1.40793156711, 1.09008137384, -0.385527153607, 0.381975683414, 11.3988570985, 4.72910907966, -3.64240340403, -2.32374267555, 1.42112020483, 4.89674608761, 4.38696891563, 1.06096094145, 4.20376033731, -1.24262411991, 1.6236922014, -1.32654638999, -3.10712772166, 0.284416621459, -1.02074028052, -3.61785497794, 6.14652727917, 2.16216140439, -1.02866865682, -2.45296449472};
// const int tmp_connections69[65] = {64, 0, 1, 2, 3, 4, 5, 6, 7, 8, 9, 10, 11, 12, 13, 14, 15, 16, 17, 18, 19, 20, 21, 22, 23, 24, 25, 26, 27, 28, 29, 30, 31, 32, 33, 34, 35, 36, 37, 38, 39, 40, 41, 42, 43, 44, 45, 46, 47, 48, 49, 50, 51, 52, 53, 54, 55, 56, 57, 58, 59, 60, 61, 62, 63};
//
// const float tmp_weights70[65] = {-1.4384117884, 0.735045796817, -1.36097653343, -0.259441800223, 1.77250350015, -2.05024243258, -12.845314571, -0.702727558764, -2.75516581443, -1.03121659553, -0.27410879292, -2.00449057237, -5.26647967162, -1.23578746093, -4.21932937455, -4.22069002502, -0.594147319398, -0.970489097222, -1.49778882464, -2.04238566326, -2.0319039036, -1.55419293976, 3.40038692217, 4.3804394677, 5.06813537433, 6.13034901214, -6.32470176741, 1.05137065699, -0.381622939641, -2.42064209819, -1.83446524268, -0.128230440625, -6.37576683943, -2.76021135848, -0.212406070325, 1.429196098, -0.18141484638, -0.365367071528, 0.136048163886, 0.319155917701, -0.825626276926, -7.16797665763, 4.41133975781, 1.03949319637, -0.276126505895, -4.88785717884, 2.27319859953, -8.03769406468, 2.64945826295, 1.46561148328, 5.08141326427, 4.86575652044, 0.640791581951, 6.64343112402, -0.895238611856, -1.09478814686, 0.440213660695, 2.64730113514, 5.2520869161, -2.27155634415, 3.15559211176, 4.8652604738, -1.59337548343, 1.08689806302, 0.221689929635};
// const int tmp_connections70[65] = {64, 0, 1, 2, 3, 4, 5, 6, 7, 8, 9, 10, 11, 12, 13, 14, 15, 16, 17, 18, 19, 20, 21, 22, 23, 24, 25, 26, 27, 28, 29, 30, 31, 32, 33, 34, 35, 36, 37, 38, 39, 40, 41, 42, 43, 44, 45, 46, 47, 48, 49, 50, 51, 52, 53, 54, 55, 56, 57, 58, 59, 60, 61, 62, 63};
//
// const float tmp_weights71[65] = {0.557459163748, -4.83040102172, -2.92366269923, 1.29475419485, 0.136652422641, 1.63576509728, 3.3327398852, 5.82976071338, -3.36201400258, 0.748794570608, 1.32479480664, 1.57514849886, 0.924966683216, 0.264234145414, 0.786544678584, 0.804063133262, 0.101281347549, 0.752582937617, -1.70282557904, 1.55414305295, 1.58591690748, -0.638403814327, 0.250209562131, -0.131013843602, -3.90535720468, -2.22740448167, 1.62014744438, -0.158953356916, -0.270045412386, -2.22383696764, -0.24763950861, -0.316803804779, -0.643528260273, -1.56945823632, -0.947650931517, -0.323529807656, -0.469732245015, -1.03813182785, -1.11289150736, -0.956143780829, -0.584706126803, 0.45664590133, 0.62784307493, 0.259491080999, 1.30037549382, -0.224283766154, -0.766322662493, -0.224089650661, -0.581688557464, -0.0427042961678, -0.193774786323, -2.69212855344, -1.85639327867, -0.836977576195, 0.343331855796, -0.695704611325, -1.37252016315, -0.799293042894, 2.31194551063, 2.04788263196, -0.490649932298, 3.8483110262, 1.05987336629, 1.52891574391, -0.217805891297};
// const int tmp_connections71[65] = {64, 0, 1, 2, 3, 4, 5, 6, 7, 8, 9, 10, 11, 12, 13, 14, 15, 16, 17, 18, 19, 20, 21, 22, 23, 24, 25, 26, 27, 28, 29, 30, 31, 32, 33, 34, 35, 36, 37, 38, 39, 40, 41, 42, 43, 44, 45, 46, 47, 48, 49, 50, 51, 52, 53, 54, 55, 56, 57, 58, 59, 60, 61, 62, 63};
//
// const float tmp_weights72[65] = {1.06733441345, 6.02784398219, -2.86675242005, -1.2801875525, -0.647820143017, -0.493447220255, 0.952708287509, -1.26886467711, 1.4555915187, 0.00965892415859, -1.2406136764, -0.484973418566, 0.264896554283, -1.1037553294, -2.02420743987, -2.00791126, 0.811681969536, -0.00984924069418, 2.44771523113, -0.449254758625, -0.517651426758, 2.3661084569, -2.13547563552, -3.00338645251, 4.29002523618, -0.861318231761, 0.388461753047, -1.61234149911, -0.499467690898, -4.15992659078, 0.598128196175, -0.611118757325, 0.652025805985, 0.882327643384, -3.7580693931, -1.15671645046, 0.180692667318, -0.182892623513, -1.19792167916, 1.52143828997, -0.564911083036, -1.11352257095, -0.262945499066, -0.0413172383744, -1.30804616001, 1.27529091186, -3.86519310099, 0.447596052043, -0.128010194655, -0.230960565282, -2.2153587291, 2.95374400551, 0.377456070474, -0.309033096855, 1.76758649591, 4.60648443261, -0.140668890279, -1.35637171054, -0.256675991157, 0.617144662337, 1.60668265435, -0.845458391156, 0.976153138141, -0.276319486793, 0.125143912737};
// const int tmp_connections72[65] = {64, 0, 1, 2, 3, 4, 5, 6, 7, 8, 9, 10, 11, 12, 13, 14, 15, 16, 17, 18, 19, 20, 21, 22, 23, 24, 25, 26, 27, 28, 29, 30, 31, 32, 33, 34, 35, 36, 37, 38, 39, 40, 41, 42, 43, 44, 45, 46, 47, 48, 49, 50, 51, 52, 53, 54, 55, 56, 57, 58, 59, 60, 61, 62, 63};
//
// const float tmp_weights73[65] = {2.67862001071, -0.815073428095, -6.22457957667, 2.02677473074, 1.88331012195, 3.86710223032, 1.74435831655, 11.2149105436, -3.01218592406, 1.78209037894, 1.97418189161, 3.86454952291, -0.680103499732, -1.44713706341, 4.13648257487, 4.16058848595, 0.438436977061, 1.81576787482, -5.69348069336, 3.77497617398, 3.83514940203, 1.71185217734, -3.93711930822, -1.70823905258, -1.58050888267, -0.787308719364, -0.975013001892, -2.30275547719, -1.5890958293, -2.01570995158, -1.06418725436, 5.08922716899, -2.14707211415, 3.89755313783, 0.498512079209, -2.52089186065, -1.4064509639, 1.99171196234, 0.403845790366, 2.04819045169, 4.44499966351, -4.90607997073, 3.79848080418, -4.9527716242, 1.99507210581, 1.44080175507, 0.623789877902, 5.0193991762, -1.18466661398, 1.0789339711, -1.09865613804, -2.60498221117, 3.53050718334, -1.05012323476, 0.638859937405, -3.83569727998, 1.09484514406, 1.32089959154, -0.539270449855, 4.19101371555, 0.0884427078299, -1.30087758931, 0.62538629263, 0.981261382159, -2.84622093233};
// const int tmp_connections73[65] = {64, 0, 1, 2, 3, 4, 5, 6, 7, 8, 9, 10, 11, 12, 13, 14, 15, 16, 17, 18, 19, 20, 21, 22, 23, 24, 25, 26, 27, 28, 29, 30, 31, 32, 33, 34, 35, 36, 37, 38, 39, 40, 41, 42, 43, 44, 45, 46, 47, 48, 49, 50, 51, 52, 53, 54, 55, 56, 57, 58, 59, 60, 61, 62, 63};
//
// const float tmp_weights74[65] = {-2.96834073324, -1.43452808744, 2.36992402148, -0.419268527922, -0.591029408347, -2.72712819059, 7.30177845708, 2.27506916516, 5.73378456976, -0.104638559101, -0.395134624757, -2.80052120883, 0.424672171398, 1.53668762219, -1.36049531433, -1.31697464006, 1.18801255193, -0.0750049923636, 3.08327092751, -2.73554220242, -2.80257414607, -1.49423172151, 2.57935939401, 1.02299965379, 2.5791212842, 1.45555014967, -0.66941401827, 0.951927910921, -0.844638510822, 1.79663575436, -2.47212468775, 3.06445415052, 1.54243709393, -2.37441942396, 2.39845817838, -0.332068695315, -3.1399513015, -0.584450755189, 1.65645207343, -3.12631844731, -0.141616450192, 3.28848438476, -2.88556742399, 1.07860248848, -0.343607653599, 4.17848443579, 1.35046853565, -2.22588200069, 1.37993734885, 1.75385336441, 2.42963611752, 1.23433135392, 4.95686424792, 2.59605822954, 0.713066165314, -4.18141887126, 0.445994059039, 2.41938418373, -0.450063024878, -1.48716225535, -1.91593539229, -0.0697885112137, 1.24443847813, 0.800492966414, -0.0805245956339};
// const int tmp_connections74[65] = {64, 0, 1, 2, 3, 4, 5, 6, 7, 8, 9, 10, 11, 12, 13, 14, 15, 16, 17, 18, 19, 20, 21, 22, 23, 24, 25, 26, 27, 28, 29, 30, 31, 32, 33, 34, 35, 36, 37, 38, 39, 40, 41, 42, 43, 44, 45, 46, 47, 48, 49, 50, 51, 52, 53, 54, 55, 56, 57, 58, 59, 60, 61, 62, 63};
//
// const float tmp_weights75[65] = {-0.407253263334, -0.402267857426, 0.425574878609, -0.161556437751, -0.0483938055455, -0.267996670114, 0.30547289507, -0.46450029641, 0.805077419052, -0.176042024892, -0.0882577117356, -0.339537779393, -0.173582018696, 0.201873469819, -0.49800227547, -0.491008309185, -0.396822838453, -0.135293518691, 0.0168515663729, -0.300296138111, -0.327355550507, 0.274832289023, 0.0206589010687, 0.626347613758, 0.417018604929, 0.349734284008, 0.227281775655, 0.114848904695, -0.0514033191751, -0.395619129287, -0.214030960964, -0.211883905696, -0.455815838396, -0.458712151168, -0.188854426858, 0.183823425323, 0.0555697954667, 0.358696437171, 0.28757242232, 0.0894448466573, 0.179218102981, -0.248169146297, 0.301233526134, -0.393243755778, -0.160616491905, -0.0796819738726, -0.00587274842186, 0.363518779787, 0.274167459659, 0.255174730453, 0.287206601929, 0.0487622790785, 0.013979007261, 0.219659072393, 0.255994540745, 0.336497248932, 0.388689192244, 0.0616426196039, 0.237112776516, 0.0813314848379, 0.622996136359, 0.226387075342, 0.111029889324, -0.122559201621, -0.136564276166};
// const int tmp_connections75[65] = {64, 0, 1, 2, 3, 4, 5, 6, 7, 8, 9, 10, 11, 12, 13, 14, 15, 16, 17, 18, 19, 20, 21, 22, 23, 24, 25, 26, 27, 28, 29, 30, 31, 32, 33, 34, 35, 36, 37, 38, 39, 40, 41, 42, 43, 44, 45, 46, 47, 48, 49, 50, 51, 52, 53, 54, 55, 56, 57, 58, 59, 60, 61, 62, 63};
//
// const float tmp_weights76[65] = {-0.807128755436, -1.67310806403, 0.392319040642, -0.496419712675, 0.979849279799, -0.548141119773, -0.108325768592, 2.61238586593, 2.39880618994, -0.171322720356, -0.458231702265, -0.538850868014, -1.96637599858, -0.710999650883, -0.0997751017719, -0.161207907711, -2.29941829593, -0.19439672791, -1.07540278709, -0.553407943817, -0.580675851889, 3.87190740435, -2.64192707235, 2.39821903633, 1.47248120847, 2.59396384539, 2.32860304825, 0.259866783921, 0.341231674133, -4.73759990057, 0.841412026532, -2.98000679113, 1.11744673974, -2.08394544224, 2.99900726315, 0.572698556925, 0.680727524622, 3.22024038216, 2.21108788575, 3.63792669474, 4.49658872956, -2.54685044124, 1.78528024376, -6.89277947831, -0.478936469114, -11.233382624, 0.189821710218, -3.4182469574, 0.560706682785, -2.42097906032, -0.482797721563, 0.250946022385, 3.32048507173, 1.75284594217, 0.0302050885498, 5.06404853347, -6.10332254057, 2.79203901416, 2.22509596203, -1.02416031801, -1.41132160872, 1.29965104457, 1.01723293336, -2.74262690287, -1.63020091654};
// const int tmp_connections76[65] = {64, 0, 1, 2, 3, 4, 5, 6, 7, 8, 9, 10, 11, 12, 13, 14, 15, 16, 17, 18, 19, 20, 21, 22, 23, 24, 25, 26, 27, 28, 29, 30, 31, 32, 33, 34, 35, 36, 37, 38, 39, 40, 41, 42, 43, 44, 45, 46, 47, 48, 49, 50, 51, 52, 53, 54, 55, 56, 57, 58, 59, 60, 61, 62, 63};
//
// const float tmp_weights77[65] = {-2.04359812446, -2.01808072346, 1.34506470177, -0.641642020973, 0.436123219495, -1.96234822596, 2.55561524615, 0.332297505492, 11.3928422874, -2.15180733613, -0.707461598487, -1.9097723728, -0.211747819463, 0.647384593283, -1.59285448813, -1.59208547344, -5.01186726577, -2.13669882826, 1.01920079276, -1.90300087123, -1.93604831678, 8.14829809994, -6.73618433197, 5.69228650273, 1.6475759605, 5.27159079872, 2.33497216328, 2.22516224873, 1.94674281797, -6.18852778679, 1.81212480635, -2.34401724304, -1.1014779708, 1.36718010628, 4.84514445063, 3.17178643452, 3.37407131087, -0.0902674510558, 0.749488829744, -0.61839034887, -1.41118328879, 2.44678620127, -0.719866698706, 3.10177634636, -0.706497486929, 0.91587285353, 6.23562688391, -2.00959663417, 1.89540748434, 1.55882322177, -0.898248092288, 2.61861484345, -8.51644684071, 5.58357021619, -0.786854311136, -0.920716517436, -0.325751856987, -0.0528247180309, 0.221615728588, -6.13008071079, -0.893337209025, 7.39075351881, 2.74134189117, 5.6144543239, 0.882249271748};
// const int tmp_connections77[65] = {64, 0, 1, 2, 3, 4, 5, 6, 7, 8, 9, 10, 11, 12, 13, 14, 15, 16, 17, 18, 19, 20, 21, 22, 23, 24, 25, 26, 27, 28, 29, 30, 31, 32, 33, 34, 35, 36, 37, 38, 39, 40, 41, 42, 43, 44, 45, 46, 47, 48, 49, 50, 51, 52, 53, 54, 55, 56, 57, 58, 59, 60, 61, 62, 63};
//
// const float tmp_weights78[65] = {0.239981456238, -3.64320959933, 2.61681058951, -0.734424515094, -1.51089297725, -0.348863009239, -0.916505463942, -0.323976848877, 2.17401524802, 0.440232891266, -0.702372888859, -0.33380308311, -0.962071288831, 0.421426611934, -1.31686845793, -1.36226605586, 1.74598713803, 0.42218316266, 0.164919199262, -0.317894755632, -0.350331303952, -2.01785851214, 1.74773450775, -3.04384240959, -0.19285215625, -3.05331248569, -1.29677167471, -0.157730005449, -0.1466537704, -0.134615222674, -0.117876413476, -1.82177724069, -2.34330270402, -1.16811751147, 2.46377532867, 0.584309570262, 1.54813206822, 1.25290971355, -0.392251106339, 0.661967916322, 0.199454511618, -0.161800112695, 0.0126865314139, -1.03022533125, -0.708834174893, 1.5591074214, 0.0799000112778, 3.94734256374, 1.92265537373, 1.25658369216, 0.139475365998, -0.196460182026, -1.33195775421, -1.36771498007, 0.680560520103, 3.25299507438, -1.54166446802, -0.961583811219, -0.950950865368, 0.280184962761, 2.04865438572, -1.61921730908, 0.024505774693, -1.02756790502, -0.808815592203};
// const int tmp_connections78[65] = {64, 0, 1, 2, 3, 4, 5, 6, 7, 8, 9, 10, 11, 12, 13, 14, 15, 16, 17, 18, 19, 20, 21, 22, 23, 24, 25, 26, 27, 28, 29, 30, 31, 32, 33, 34, 35, 36, 37, 38, 39, 40, 41, 42, 43, 44, 45, 46, 47, 48, 49, 50, 51, 52, 53, 54, 55, 56, 57, 58, 59, 60, 61, 62, 63};
//
// const float tmp_weights79[65] = {0.941990948759, -2.595677977, 8.57058693901, -0.569218777927, -1.8763718365, 0.13950127347, 2.19964674212, -4.87348169051, 2.06569098768, 0.640821288829, -0.569595172513, 0.144377326848, 1.19971718539, 0.356601697055, 2.22143850024, 2.18206902383, 2.26032290525, 0.664099023981, -0.0640979421268, 0.16238673285, 0.172584831836, -2.48085951392, 2.445806097, -4.66536952883, -1.6566662434, -3.52268183448, -5.30371000392, -0.325993161092, 0.10713925567, -0.112454892811, 0.605327387962, -1.40638364143, -0.999954574924, 1.5433518783, 0.206708039236, 0.788191546936, 2.12321136898, 2.53971287203, -0.00142031089407, 2.29340517678, 0.705813055595, -4.13644617385, 3.39923879858, -2.20314060642, -0.572572839572, -0.0121978024313, -1.91869025175, -1.14577732019, -1.34305214749, 0.0907357927125, -0.532879271951, 1.99052493962, -1.87714555218, -3.03453120754, 0.524131906939, 4.79140652941, -6.04825749801, -3.01868466201, -1.00954835206, 1.19692207849, -0.68642481991, -5.42921910934, -2.16160533879, -1.52503304995, -0.327852649284};
// const int tmp_connections79[65] = {64, 0, 1, 2, 3, 4, 5, 6, 7, 8, 9, 10, 11, 12, 13, 14, 15, 16, 17, 18, 19, 20, 21, 22, 23, 24, 25, 26, 27, 28, 29, 30, 31, 32, 33, 34, 35, 36, 37, 38, 39, 40, 41, 42, 43, 44, 45, 46, 47, 48, 49, 50, 51, 52, 53, 54, 55, 56, 57, 58, 59, 60, 61, 62, 63};
//
// const float tmp_weights80[65] = {-0.420762637293, 1.31276886242, -0.117089806194, -0.1763945621, -0.294889074782, -0.267687608072, -0.778082353459, -0.186862168509, 0.114230313736, -0.231120203158, -0.215270530691, -0.250642623909, -0.0462806476629, 0.213065592158, -0.102650357645, -0.102475895272, -0.388882263031, -0.274939381645, 0.0392115473104, -0.257738472649, -0.332467306236, 0.0371040749034, 0.0370487070375, 0.485041009943, -0.220895593913, -0.16895445468, -0.954411649009, -0.332106836304, -0.425450016222, 1.10104786277, -0.565679648191, 0.598445004413, -0.6887388278, -0.0561953477284, 0.18751983409, -0.207367050884, -0.30999466407, 0.282155873554, 0.154170381524, -0.530442796135, -0.233272741965, -0.276321214958, 0.197366828555, 0.397248869415, -0.168843112221, 0.554159052049, -0.671749399877, 0.490976209596, 0.248464281479, 0.382845698589, -0.13212884884, 0.0272636161205, 0.0179239970904, 0.296677840459, 0.686457569391, 0.391194359987, 0.548883349248, 0.347424126691, -0.468610298535, 0.442355983149, -0.0706046109595, -0.583608472013, -0.0796910523807, 0.148718850647, -0.279782839722};
// const int tmp_connections80[65] = {64, 0, 1, 2, 3, 4, 5, 6, 7, 8, 9, 10, 11, 12, 13, 14, 15, 16, 17, 18, 19, 20, 21, 22, 23, 24, 25, 26, 27, 28, 29, 30, 31, 32, 33, 34, 35, 36, 37, 38, 39, 40, 41, 42, 43, 44, 45, 46, 47, 48, 49, 50, 51, 52, 53, 54, 55, 56, 57, 58, 59, 60, 61, 62, 63};
//
// const float tmp_weights81[65] = {-0.0661904543433, 3.65674592346, 1.91790378209, 0.485131787172, 0.90445275548, 1.0745929514, 1.772329977, 3.17590060225, -2.0197435819, 0.733450719192, 0.490243591668, 1.14969235439, 0.766998471238, -0.118596072009, 1.27923389243, 1.20900361491, 0.132289088781, 0.809175621413, 1.74986339176, 1.06912517881, 1.11356451547, 0.627566654152, -0.962795224397, -0.253550001977, 0.955707396687, 0.506591289501, 6.37343636061, -1.69037309396, -0.921585476576, 1.64524165278, -0.15105362673, 0.166087021641, 2.04677082862, -1.43039291772, 1.63213671046, -2.4619998013, -2.09847485933, -0.361393170635, 0.138329624442, -0.953026567411, -0.360164156937, -0.90092742231, 1.21928077997, 0.770087437539, 0.448856774587, -3.59502785763, -1.56109283347, 2.24142593636, 1.33181501357, 0.431631109069, 0.916345365015, -1.04902929022, -0.969083090995, -0.821726870333, 1.08042635464, -0.795752170556, 0.778581354188, 1.93331326584, -0.133335873306, 1.41505125245, 1.13741467306, -2.02493255812, 0.339154872385, 1.29314397808, -1.16935253226};
// const int tmp_connections81[65] = {64, 0, 1, 2, 3, 4, 5, 6, 7, 8, 9, 10, 11, 12, 13, 14, 15, 16, 17, 18, 19, 20, 21, 22, 23, 24, 25, 26, 27, 28, 29, 30, 31, 32, 33, 34, 35, 36, 37, 38, 39, 40, 41, 42, 43, 44, 45, 46, 47, 48, 49, 50, 51, 52, 53, 54, 55, 56, 57, 58, 59, 60, 61, 62, 63};
//
// const float tmp_weights82[65] = {-1.81236353069, 1.65294680944, -0.383662397247, -0.730351412667, -0.589065758434, -2.11772380246, -2.77416508605, -2.18229377824, -2.15470033647, -0.122309947032, -0.699384731385, -2.08399505495, -2.24070639483, 0.298717900211, -3.49259631602, -3.50048316232, 0.279571063389, -0.20257790242, -0.223922817966, -2.02722624302, -2.0937170962, 2.32381642578, -1.68610634965, 0.975013236566, -0.191148113173, 0.960536136542, -2.25272294183, 0.430307554626, -0.949084336669, -1.72525013375, -2.31952318862, -0.239862382761, -7.79430109195, -3.71650325115, -2.4095638117, 0.582166287952, -0.200886873139, 0.738682436493, 0.913731308365, -1.5046329394, 0.739813153256, -5.13776263474, 3.75875023164, 0.0438614156021, -0.676860239132, -4.39964853947, -1.01698248705, -1.89805142022, 1.74104260773, 0.540724071746, 1.34971844464, -0.102056927448, -0.580310836582, 2.64001383985, 1.98975016278, -0.281925018039, 1.32877331024, 0.808753882411, 1.21954252537, 0.44050523606, 2.0867825105, 0.999164273954, 1.62733612727, -0.911083673992, -0.576201884029};
// const int tmp_connections82[65] = {64, 0, 1, 2, 3, 4, 5, 6, 7, 8, 9, 10, 11, 12, 13, 14, 15, 16, 17, 18, 19, 20, 21, 22, 23, 24, 25, 26, 27, 28, 29, 30, 31, 32, 33, 34, 35, 36, 37, 38, 39, 40, 41, 42, 43, 44, 45, 46, 47, 48, 49, 50, 51, 52, 53, 54, 55, 56, 57, 58, 59, 60, 61, 62, 63};
//
// const float tmp_weights83[65] = {1.01663203531, -2.97746453649, -2.66333874271, 0.857377206013, -0.00625410027663, 0.911413940053, 6.43426764455, 2.61611736142, -4.9357242369, 0.171745070707, 0.832333646659, 0.862226322357, -0.500388330484, -0.113406718827, 0.856595675203, 0.877538925465, 0.175594059858, 0.203656216109, -2.69651905957, 0.853269978446, 0.866923679774, -0.748720422317, -0.41202771676, 0.237595691927, 1.13867637358, -2.0008128005, 5.59006799167, 1.29884599802, 0.785743699132, -1.67311223745, 0.110147473409, -0.0555950312555, -1.47367259136, 0.775108935711, -0.744844045731, 1.16498969201, 0.992729701493, 1.9435682973, 2.0954608813, 2.29147355952, 3.94397943505, 0.0247239354166, -0.34321349687, -4.27885002099, 0.833438590268, 1.28716401009, 0.437843847073, -2.87890274903, -1.28412224459, -1.07402690828, -0.31650738242, -0.95973206329, 1.28602619082, -0.267121279372, -0.70020546511, -2.27582803731, -0.661665047991, 2.5599262338, -1.62833939348, 0.868787472301, 0.00633575194201, -0.0455557397524, -0.53159789688, 2.57690579653, 1.14677853065};
// const int tmp_connections83[65] = {64, 0, 1, 2, 3, 4, 5, 6, 7, 8, 9, 10, 11, 12, 13, 14, 15, 16, 17, 18, 19, 20, 21, 22, 23, 24, 25, 26, 27, 28, 29, 30, 31, 32, 33, 34, 35, 36, 37, 38, 39, 40, 41, 42, 43, 44, 45, 46, 47, 48, 49, 50, 51, 52, 53, 54, 55, 56, 57, 58, 59, 60, 61, 62, 63};
//
// const float tmp_weights84[65] = {-0.481859811062, 0.763165912175, 0.292629304118, -0.163562601013, 0.0617305287152, -0.417754072955, -0.0723265075121, -0.338112301897, 0.650818045203, -0.248717631912, -0.137547425604, -0.389312910069, -0.244732048893, 0.125440386954, -0.3696664394, -0.388701491608, -0.356649639786, -0.23023870431, 0.181646058482, -0.410555197472, -0.487693003407, 0.282141590581, -0.0467377218642, 0.831932751762, 0.409853638328, 0.756855968146, 0.521794686436, 0.0619316832101, -0.142956714593, -0.287461150855, -0.192234707632, 0.0310375430902, -0.0383503262754, -0.466474960663, -0.000257620726894, -0.0215708710295, -0.260095860786, 0.137854833962, 0.341970468624, -0.0772366328898, 0.271817810585, -0.59860438112, 0.630669491764, -0.212531921, -0.0996667465379, -0.437306305019, -0.314913133159, -0.454508312989, 0.129253538575, 0.16121505695, 0.267789441646, 0.0917806975126, 0.152979518488, 0.532839370591, 0.30057472791, 0.446539590392, 0.150153822842, 0.115003594715, 0.22904967241, -0.0938927905449, -0.0720755129452, 0.436096758937, 0.326697680268, 0.0542656830054, -0.0266175380553};
// const int tmp_connections84[65] = {64, 0, 1, 2, 3, 4, 5, 6, 7, 8, 9, 10, 11, 12, 13, 14, 15, 16, 17, 18, 19, 20, 21, 22, 23, 24, 25, 26, 27, 28, 29, 30, 31, 32, 33, 34, 35, 36, 37, 38, 39, 40, 41, 42, 43, 44, 45, 46, 47, 48, 49, 50, 51, 52, 53, 54, 55, 56, 57, 58, 59, 60, 61, 62, 63};
//
// const float tmp_weights85[65] = {1.10833167062, 3.43346611539, -0.616337902647, 0.365894484532, -1.69129799262, 0.86220253638, -2.09082156174, 1.48597048223, -5.40022799164, 1.8108055795, 0.364218405924, 0.814994769205, 7.40077819851, 1.77250166583, 1.50798879372, 1.56685529289, 3.15450288137, 1.81252571192, 4.29057334981, 0.870689406402, 0.854739704496, 0.65323038736, -1.92770695655, -6.11789249116, -3.46174425403, -3.52642601083, -2.45046514202, -0.189687970332, -1.06334384227, 3.62967472295, -2.26255747872, 4.70321258222, -3.53203552684, 2.73351240244, 3.33226234354, 0.60926419437, 0.336090841569, 2.81414633772, 1.7460504491, 2.87946501462, 3.44878090684, 0.306942467227, 0.64756448007, -3.82920695495, 0.331917066599, -3.55277843135, -1.48013122987, -3.387919553, -5.491551607, -3.43136566265, -4.74612186637, 1.98434007292, -0.338070440929, -0.496739651065, -2.01594443179, 3.26553296006, 2.78009076101, -3.77991476284, 1.89785412762, 4.12346735017, -1.1919864163, -5.70026033578, -1.59436715693, 0.816614538115, -0.705963611381};
// const int tmp_connections85[65] = {64, 0, 1, 2, 3, 4, 5, 6, 7, 8, 9, 10, 11, 12, 13, 14, 15, 16, 17, 18, 19, 20, 21, 22, 23, 24, 25, 26, 27, 28, 29, 30, 31, 32, 33, 34, 35, 36, 37, 38, 39, 40, 41, 42, 43, 44, 45, 46, 47, 48, 49, 50, 51, 52, 53, 54, 55, 56, 57, 58, 59, 60, 61, 62, 63};
//
// const float tmp_weights86[65] = {-2.3703104025, 12.1603211317, 0.628620546311, -0.337973620522, 1.35562521934, -2.20371095021, 7.42216051251, 3.08646851302, -2.64159659207, -0.326432344007, -0.374045116765, -2.20614992413, 1.16942567433, 1.33129615428, -4.79046541876, -4.8541067716, 1.11085548034, -0.316174124834, 6.91557834965, -2.17325328713, -2.14387773268, -7.87703300586, 8.21170520559, 3.18215081698, 5.40808301766, 4.38773540145, 4.72359305795, 0.447001473654, -0.161577692752, -4.13593301073, -0.686108043326, 0.735997344935, 6.10792111085, -3.78116538323, -2.95075598186, -1.92663811933, -4.10691312464, -1.45172285245, 1.61192975592, -1.6898148062, 0.235193074328, -3.05178049086, 0.882706300956, 1.34359600542, -0.360694011338, 3.43992401877, 0.500755633328, 1.05037943558, 3.40739088738, 2.32257124334, 3.53226402542, -6.10951449278, -1.35980009841, 0.991053325189, -1.76008902708, 2.47131443231, -0.123678091434, 3.63905872533, 3.76077221176, 0.805426360988, -2.71725085222, 0.28220282288, 4.04476418263, 0.737144929795, 0.966479477636};
// const int tmp_connections86[65] = {64, 0, 1, 2, 3, 4, 5, 6, 7, 8, 9, 10, 11, 12, 13, 14, 15, 16, 17, 18, 19, 20, 21, 22, 23, 24, 25, 26, 27, 28, 29, 30, 31, 32, 33, 34, 35, 36, 37, 38, 39, 40, 41, 42, 43, 44, 45, 46, 47, 48, 49, 50, 51, 52, 53, 54, 55, 56, 57, 58, 59, 60, 61, 62, 63};
//
// const float tmp_weights87[65] = {-2.52028435735, -3.63398305646, 1.97111725616, -0.860031745623, 0.411983959039, -3.17215734917, 6.96070192361, -3.12926629181, 3.94347093119, -2.831554279, -0.881341766724, -3.18969024388, -1.67684242034, -0.0175831741719, -3.17721100602, -3.16715793385, -4.12674949589, -2.88501765534, -0.717108723945, -3.15362073021, -3.12353140164, -1.42823329702, 2.45901174722, 7.35845481618, 4.73633678411, 3.93964692062, -1.49648747108, 1.43452762146, 0.791512842088, -2.54602825095, 0.132414179975, -0.201544848678, 2.74361588611, -2.61684438691, -1.72992756518, 0.0611317122148, -2.00884373414, -2.96889058949, -0.135860912716, -0.680808840157, 0.0399138801608, 3.66791583418, -2.0699693098, -0.716855890584, -0.883317265537, 2.07497389279, -1.71690057909, 0.266559625023, 2.60346903703, -0.817908875243, 1.19692476612, 0.51913926957, 4.89450671407, 1.73736466459, -0.279376404226, 3.98364706653, 0.645447940008, 1.93067874472, 4.88934896506, 0.662139191287, 0.0403186095435, 0.849005985694, 1.47907478786, -0.0609711908179, 1.26962584586};
// const int tmp_connections87[65] = {64, 0, 1, 2, 3, 4, 5, 6, 7, 8, 9, 10, 11, 12, 13, 14, 15, 16, 17, 18, 19, 20, 21, 22, 23, 24, 25, 26, 27, 28, 29, 30, 31, 32, 33, 34, 35, 36, 37, 38, 39, 40, 41, 42, 43, 44, 45, 46, 47, 48, 49, 50, 51, 52, 53, 54, 55, 56, 57, 58, 59, 60, 61, 62, 63};
//
// const float tmp_weights88[65] = {3.82240435458, -6.21000832156, -6.97178330538, 1.29564896834, -0.576397933578, 3.80727233881, 1.95771238256, 8.91331699723, -7.60499325124, 2.79720842993, 1.33721983257, 3.76314327146, 2.33900930702, -1.39578317344, 0.404945078492, 0.361376627134, 2.97149239452, 2.81146559122, 0.483265942368, 3.76015483518, 3.80448635833, -0.159338606381, -1.08950229514, -6.19741243229, -4.48565840038, -5.87070290138, -1.67853635075, -0.89236688229, 0.96480061545, -11.9259750128, 3.0081043658, -1.18381808861, 3.10309310438, 4.23355226234, 0.149357801748, 0.276500194825, 2.920065606, -0.970792823961, -3.52087883877, -0.533577190317, -2.68451143854, 1.90677640324, -1.63547653055, 1.56294569983, 1.3156926487, -0.434986737154, -1.33916414166, -4.0975833019, 5.51566231197, 0.531442345198, -1.03413111031, 2.06198162572, -2.03791147583, 0.327341340625, 0.293892681676, -2.71747989989, -1.53263556722, 0.688087046849, -0.780395506595, 0.506344040481, 2.33802382155, 10.6633683686, 1.35702845185, 0.464415077211, -2.61651900647};
// const int tmp_connections88[65] = {64, 0, 1, 2, 3, 4, 5, 6, 7, 8, 9, 10, 11, 12, 13, 14, 15, 16, 17, 18, 19, 20, 21, 22, 23, 24, 25, 26, 27, 28, 29, 30, 31, 32, 33, 34, 35, 36, 37, 38, 39, 40, 41, 42, 43, 44, 45, 46, 47, 48, 49, 50, 51, 52, 53, 54, 55, 56, 57, 58, 59, 60, 61, 62, 63};
//
// const float tmp_weights89[65] = {4.43701419819, -7.98586829052, -5.33445052997, 0.738703694265, -2.72580233158, 3.11287714607, 4.12016365872, 0.836382267095, -8.04645340312, 1.85054853635, 0.656949532799, 3.17172340063, 2.73218391132, -0.809061089432, 1.59770424625, 1.61239773538, 1.89791133509, 1.82582538809, 1.48540343314, 3.16117080513, 3.1838985355, -0.979909485097, -0.0282923039266, -7.81602621345, -7.49668747641, -9.0855608402, 4.31232408496, 0.177243824952, 3.51989272115, -6.07561375337, 6.06034048209, -5.69404446127, 5.70007323731, 4.82368784129, -6.32791238828, 0.700820071797, 4.2289424149, -2.24860089808, -4.2605963343, 1.15438972082, -3.68768611922, -1.46161773493, 0.089534974747, 0.314647788966, 0.693459690358, -0.172094919655, 2.7111172357, -11.5474292881, 4.5817422342, 0.628286223032, -2.39611463881, -3.87614777083, 6.21859008502, -2.24536427584, -2.62317797264, 0.298966137024, -8.08519999856, 3.5006917608, 4.20501164757, -2.1707264728, 0.58836314016, 6.20821777387, -0.112831605544, 5.71126100849, 1.36446798898};
// const int tmp_connections89[65] = {64, 0, 1, 2, 3, 4, 5, 6, 7, 8, 9, 10, 11, 12, 13, 14, 15, 16, 17, 18, 19, 20, 21, 22, 23, 24, 25, 26, 27, 28, 29, 30, 31, 32, 33, 34, 35, 36, 37, 38, 39, 40, 41, 42, 43, 44, 45, 46, 47, 48, 49, 50, 51, 52, 53, 54, 55, 56, 57, 58, 59, 60, 61, 62, 63};
//
// const float tmp_weights90[65] = {-3.60279294801, 8.8353374972, -3.3229241698, -1.53209308841, 0.311441515103, -3.40343240482, 3.30886224222, -7.45728343017, -1.12602833301, -2.49155653821, -1.57779719174, -3.41893307047, -2.61563349755, 1.32328755814, -4.38456198329, -4.3233012306, -4.49159239666, -2.48455297864, -2.1041524541, -3.34192092856, -3.41846370083, -0.231799216039, 1.05380082583, 6.96411782222, 8.82189334321, 6.328140045, 0.209750111689, 1.36357580853, -0.950766785706, 0.536002185074, -1.72812978779, 0.0130691424191, 4.24722309005, -3.9890017736, 6.28741389918, 2.8300431351, 0.763517670268, 4.09332163452, 3.27392883443, -0.0972229025478, 1.41511569565, 4.43275876892, -1.96119166385, -2.50354434438, -1.54087792821, 1.98488316498, 4.53093208023, -2.11822603278, 1.97178846127, 0.469508197327, -1.00712300976, 2.04394033597, -3.25029157341, 0.771172345459, 3.54813763866, -1.72188203896, 3.18223437638, 2.02913161704, 1.58299402111, -0.906981724747, 0.0171712556614, 7.61222866546, 0.385341959571, 3.40384675211, -1.01025163223};
// const int tmp_connections90[65] = {64, 0, 1, 2, 3, 4, 5, 6, 7, 8, 9, 10, 11, 12, 13, 14, 15, 16, 17, 18, 19, 20, 21, 22, 23, 24, 25, 26, 27, 28, 29, 30, 31, 32, 33, 34, 35, 36, 37, 38, 39, 40, 41, 42, 43, 44, 45, 46, 47, 48, 49, 50, 51, 52, 53, 54, 55, 56, 57, 58, 59, 60, 61, 62, 63};
//
// const float tmp_weights91[65] = {-2.96854148753, -0.940442295809, 0.810611650192, -0.380202548498, -0.0121882309321, -3.00805718357, 5.29691773524, -0.584779274968, 1.63262029549, -2.19425169268, -0.461906626164, -3.02997548511, -1.93783202263, 0.699141056146, -3.16045405815, -3.22835228861, -3.11652782939, -2.16138032321, -0.528290427844, -3.0445417554, -3.06703853934, -2.04070740563, 3.24847845203, 6.34324051875, -0.181142965052, 3.69881033839, 1.37951901062, 1.08218272147, -0.242603820668, 0.951130191596, -1.28229359246, 0.83573897868, 1.66230384928, -2.95641662104, 0.691281526257, -0.0956115496408, -2.29653929205, -1.25554633837, 0.640165232299, -1.3297573759, 0.0112981227333, 2.44069528146, -2.88720031316, 1.02006106775, -0.448996525486, -1.52857112647, -1.48867162064, -4.26281969203, 3.55532509753, 1.8405063745, 2.42191035186, -1.24651779216, 0.37629868355, 2.72415132534, 2.53635456843, -0.366534146502, 3.58881922894, 5.36267665386, 4.93833419711, 0.638625927358, 2.31584975039, -1.54559007533, 0.585581469451, -0.273206991182, -0.797713995112};
// const int tmp_connections91[65] = {64, 0, 1, 2, 3, 4, 5, 6, 7, 8, 9, 10, 11, 12, 13, 14, 15, 16, 17, 18, 19, 20, 21, 22, 23, 24, 25, 26, 27, 28, 29, 30, 31, 32, 33, 34, 35, 36, 37, 38, 39, 40, 41, 42, 43, 44, 45, 46, 47, 48, 49, 50, 51, 52, 53, 54, 55, 56, 57, 58, 59, 60, 61, 62, 63};
//
// const float tmp_weights92[65] = {0.160600547769, -3.45114288453, 2.82319788648, -0.450637333808, -1.55256106722, -0.0394177370315, 1.20938048527, -1.88776836592, -0.000121494719263, 0.780075098564, -0.380838019773, 0.0399508849087, 2.3822099751, 0.596186357612, 0.854386664769, 0.835988732724, 1.49802424929, 0.784158796668, 1.85352225408, -0.0105535216748, 0.0286585458985, -2.07583645633, 2.24597085331, -3.84805696609, -3.74812620626, -3.75952272492, 0.855318620459, -1.57395764823, -0.796800114971, 1.22245536357, -0.0736175369447, -0.415333422427, -0.343214317292, -0.485794625248, -1.46874452499, -1.22414559556, -0.385742069516, 0.326298907032, 0.0149532407909, 0.0768729834965, -0.24839555084, 0.487479351807, 0.54718405102, 0.075938662705, -0.365140493573, -2.62210186042, -0.457764458384, -0.248682577777, -1.14139693082, 0.153714748775, -0.987632176056, 1.76658576378, -0.64043556837, -0.903314047945, 0.88633570042, 1.18206244975, -2.05133376601, 0.125460329026, -0.831947145016, 0.687126205278, -0.6838128796, -2.28998624505, -0.736455158792, -1.08151695083, -0.481865959955};
// const int tmp_connections92[65] = {64, 0, 1, 2, 3, 4, 5, 6, 7, 8, 9, 10, 11, 12, 13, 14, 15, 16, 17, 18, 19, 20, 21, 22, 23, 24, 25, 26, 27, 28, 29, 30, 31, 32, 33, 34, 35, 36, 37, 38, 39, 40, 41, 42, 43, 44, 45, 46, 47, 48, 49, 50, 51, 52, 53, 54, 55, 56, 57, 58, 59, 60, 61, 62, 63};
//
// const float tmp_weights93[65] = {1.31994363726, 3.4585689077, 0.761465280254, 0.117468381998, -0.721617375561, 1.28342626961, -0.98901796792, 0.0339091673077, -3.70320352994, 2.52868784519, 0.0717970278199, 1.28808475777, 0.3542586935, 0.340292880819, 1.6758034034, 1.66202242572, 5.7120798822, 2.48224224496, 1.90932333365, 1.31260192091, 1.25771965374, -0.621910423243, -1.22841188792, -6.59073750282, 0.718557480683, -3.13847034916, 3.24243263264, -0.778158605814, -0.617391109325, 5.98328868919, -1.22593710537, 1.53989215828, -5.58877748033, 1.51924764444, 2.67808737903, -0.357911805243, 0.371649161943, 0.863028511746, 0.416473513569, 0.906059680843, 1.2571797287, 0.685657997345, 0.943992128478, -0.831581045913, 0.136216967047, 1.72050447712, -0.149265836638, -5.90849240271, -2.33331521226, -0.854431031861, -0.173201138285, 1.0967203843, 1.61374927937, -2.58305254459, -0.60286946656, -0.72671196053, 3.09425550468, 3.33948618741, 1.7989279564, 1.43160506515, 4.88745276845, -3.65184944915, -3.76528078787, -0.752642817314, 0.228022323893};
// const int tmp_connections93[65] = {64, 0, 1, 2, 3, 4, 5, 6, 7, 8, 9, 10, 11, 12, 13, 14, 15, 16, 17, 18, 19, 20, 21, 22, 23, 24, 25, 26, 27, 28, 29, 30, 31, 32, 33, 34, 35, 36, 37, 38, 39, 40, 41, 42, 43, 44, 45, 46, 47, 48, 49, 50, 51, 52, 53, 54, 55, 56, 57, 58, 59, 60, 61, 62, 63};
//
// const float tmp_weights94[65] = {-1.63090423011, 1.89422224834, 0.383096422469, -0.648212142212, -0.636261729508, -1.78422269506, 1.03772022822, 0.278158243379, 2.44592277658, -0.604759389323, -0.659756161925, -1.76142804705, -0.801077157624, 0.558125538348, -1.56609197807, -1.54631310629, -1.18137315156, -0.653425494027, 0.0132023994347, -1.78873172287, -1.74418264693, 3.3236950764, -2.51487069047, 2.42140144442, 0.866799552424, 0.707352226298, -1.65821743807, 0.371853566757, -0.50626463314, -1.60936389136, -1.03107200694, 0.645357805787, 1.93939187407, -2.43517383715, 0.342701413461, -0.240038005193, -1.56672149129, 0.648725691415, 1.64431394848, -0.0859909819435, 1.83219288134, -0.320932517346, 0.238537071671, -1.68832780451, -0.711705130751, -0.454981183866, 0.473920849186, 1.34134911003, 1.86888680817, 1.05406989972, 1.91532369019, 0.29588273585, 2.21587121113, 2.51182854887, 0.0151490051121, 1.26524891532, -0.822248416108, 0.46758754891, 1.79803400184, -0.238560155003, -1.31720365308, 2.31735093886, 1.01962130874, -0.0219738354879, -1.06784547243};
// const int tmp_connections94[65] = {64, 0, 1, 2, 3, 4, 5, 6, 7, 8, 9, 10, 11, 12, 13, 14, 15, 16, 17, 18, 19, 20, 21, 22, 23, 24, 25, 26, 27, 28, 29, 30, 31, 32, 33, 34, 35, 36, 37, 38, 39, 40, 41, 42, 43, 44, 45, 46, 47, 48, 49, 50, 51, 52, 53, 54, 55, 56, 57, 58, 59, 60, 61, 62, 63};
//
// const float tmp_weights95[65] = {2.26987968571, -13.6777107, -2.22782365058, 0.581469827034, -0.674907599786, 2.17135832304, -6.80151365032, 2.88822431592, -0.0298012583805, 0.278401720785, 0.556400900928, 2.142468433, 3.24992541807, -0.35598980781, 0.881018802947, 0.864339964351, -0.86907886981, 0.2397254006, -1.60507591566, 2.13056215391, 2.09902866258, 0.936361335129, -1.99427464475, -1.37946701741, -3.66633384583, -4.91150295074, -1.87163236785, 0.412600652546, 1.41854032513, -3.81944243862, 1.87987182217, -3.39802910293, -4.3066327279, 1.68216424706, -2.98776378445, 1.2926486121, 3.19866510065, 1.28951954691, -0.530641809188, 3.67282427072, 1.17038787256, -4.43358960839, 2.08360964023, -1.50408003921, 0.55127721131, -5.29208371836, 1.22373737961, -2.60654943777, -5.31782869993, 1.80654189506, 1.91663667321, 4.14121288656, 2.20187405603, -0.751214115154, -3.13689892193, -4.33642760491, -0.246522286794, -1.2333394504, -2.06657210589, -1.47953947509, -0.591639043727, 2.62474363887, 1.281814052, 1.78183857652, 1.22389777786};
// const int tmp_connections95[65] = {64, 0, 1, 2, 3, 4, 5, 6, 7, 8, 9, 10, 11, 12, 13, 14, 15, 16, 17, 18, 19, 20, 21, 22, 23, 24, 25, 26, 27, 28, 29, 30, 31, 32, 33, 34, 35, 36, 37, 38, 39, 40, 41, 42, 43, 44, 45, 46, 47, 48, 49, 50, 51, 52, 53, 54, 55, 56, 57, 58, 59, 60, 61, 62, 63};
//
// const float tmp_weights96[65] = {-0.45390014353, 7.33811724222, 3.80284308839, -1.20362260616, 1.22831993195, -2.3342669736, 2.4719288362, 3.59713667356, 0.683538912911, -2.36598298242, -1.23765456454, -2.38943047578, -2.35620629508, -1.00270363054, -4.37236174458, -4.39779325667, -2.19099771954, -2.34070621417, -0.0451645830417, -2.30230623759, -2.39208647159, -2.89161269676, 4.40747526591, 4.01934691672, 8.23182797487, 7.18039754603, -0.300659127309, -0.921640653427, -3.0199305519, -7.38042769636, -4.43946776862, 3.82715429715, -4.83051041415, -1.78472960024, 1.60623635767, 1.04852228542, 0.369539609755, 2.76333771373, 0.511986933944, 1.46588925428, 3.64535068116, 1.61346738745, -1.16446926562, -5.81639663966, -1.23625933215, -0.884073584465, 4.66470147729, 1.64694160488, 2.78054826197, 2.42979923013, 1.61368811531, 1.60902840564, -2.43964450247, 0.120008276318, -0.119810355019, 0.349458751193, 1.70686683891, -4.50404507783, 0.181511248223, -3.75637332486, 0.980499402012, 6.68693222906, -1.2374423882, 3.74174991168, -2.61160634862};
// const int tmp_connections96[65] = {64, 0, 1, 2, 3, 4, 5, 6, 7, 8, 9, 10, 11, 12, 13, 14, 15, 16, 17, 18, 19, 20, 21, 22, 23, 24, 25, 26, 27, 28, 29, 30, 31, 32, 33, 34, 35, 36, 37, 38, 39, 40, 41, 42, 43, 44, 45, 46, 47, 48, 49, 50, 51, 52, 53, 54, 55, 56, 57, 58, 59, 60, 61, 62, 63};
//
// const float tmp_weights97[65] = {-0.922087959829, -5.90037005673, 1.66404447691, -0.222903579603, -0.188439817858, -0.382471955588, 1.39351631515, 0.155985014006, 2.26978155181, -0.351188985994, -0.216300133509, -0.337631101624, -0.297900114431, 0.628100689331, -1.5075801934, -1.51749482432, -1.29887274358, -0.343588354083, -0.683351915702, -0.311512678545, -0.333423405229, 0.32697969751, -0.0851033998853, 1.38237455254, 0.574933322478, 0.294012921764, -0.0105564176366, 0.254933509915, -0.398395828835, -1.08574972138, -0.822094691141, 0.00199649166889, -0.689008389383, -1.26978732123, -0.969768129783, 0.337326652787, 0.0195607098551, 0.858625508641, 0.512607412855, -0.187362850059, 0.215112454627, -0.16018945422, 0.492857689572, -0.454455617008, -0.155692013085, 0.428421153922, 0.98000441277, 3.48524298325, 0.403970846081, 0.616953130319, 0.663398400805, -0.190843392803, -0.951178598886, 0.337229863621, 0.868629149064, 0.00776311161765, 0.88699072847, 0.400813857142, 0.209096348159, 0.636917722748, 3.82613323566, -0.0299788151135, -0.420086020865, -0.775604735377, -0.557182856125};
// const int tmp_connections97[65] = {64, 0, 1, 2, 3, 4, 5, 6, 7, 8, 9, 10, 11, 12, 13, 14, 15, 16, 17, 18, 19, 20, 21, 22, 23, 24, 25, 26, 27, 28, 29, 30, 31, 32, 33, 34, 35, 36, 37, 38, 39, 40, 41, 42, 43, 44, 45, 46, 47, 48, 49, 50, 51, 52, 53, 54, 55, 56, 57, 58, 59, 60, 61, 62, 63};
//
// const float tmp_weights98[35] = {-2.17418240333, -4.00137420885, -1.25731160383, -0.0365036290143, -1.37481164081, 0.365992969851, -0.856454190139, -0.627033176532, 3.84111317251, -9.94598706814, -2.30333065462, -0.601344277368, -1.10071595723, -0.59940307962, 0.455191754223, -0.736960892038, -0.274485043913, -1.38946116436, -0.815564578578, -1.95216258686, 6.14051890581, -1.67514632585, 3.89581939754, -0.873875334083, -0.638610212577, 4.99050765558, 1.84977453189, -2.75102228324, -1.26325014942, -7.62551221367, -0.967033876497, -1.05905988944, 2.90373916905, -1.65386985334, -0.830980675801};
// const int tmp_connections98[35] = {34, 64, 65, 66, 67, 68, 69, 70, 71, 72, 73, 74, 75, 76, 77, 78, 79, 80, 81, 82, 83, 84, 85, 86, 87, 88, 89, 90, 91, 92, 93, 94, 95, 96, 97};
//
// const float tmp_weights99[35] = {10.0310611378, -2.52628866346, -4.08568740064, -5.96690654244, 1.29991788762, 8.22350181028, -8.38214789542, -5.03148725113, 3.50549576996, 2.34033602216, 7.07612024516, -4.4826628212, -0.954208764681, -6.4507469948, -7.67456043029, 5.20396132352, 4.75661235506, 1.41447376832, 3.99944307757, -5.69872629414, 6.50782173067, -0.0957733950133, 7.84568226873, -6.75428038164, -2.27051210109, 9.27482235713, 9.36388580737, -5.59586713325, -5.20636193512, 2.78359888607, 6.0078690179, -4.81445566696, 9.65162884188, -5.90584910798, -6.88702772628};
// const int tmp_connections99[35] = {34, 64, 65, 66, 67, 68, 69, 70, 71, 72, 73, 74, 75, 76, 77, 78, 79, 80, 81, 82, 83, 84, 85, 86, 87, 88, 89, 90, 91, 92, 93, 94, 95, 96, 97};
//
// const float tmp_weights100[35] = {-9.65448664132, 2.55505695195, 1.75959073675, 5.87266725591, -1.47999752689, -8.40701715863, 8.56271859045, 5.06773955208, -3.6743829773, -2.80202073571, -7.06669646458, 4.47541310478, -0.584124871701, 6.42359865171, 7.7546059014, -6.16853209582, -4.66539140942, -1.27561053247, -3.97763771018, 5.9496393318, -5.91427677626, 0.345194682372, -7.87025477722, 6.87367056716, 2.42166291963, -9.32635478643, -9.47519701303, 5.66342647862, 5.14899826468, -2.69084358929, -6.1409776975, 5.27311360715, -10.0661174583, 5.88778476602, -5.89353016296};
// const int tmp_connections100[35] = {34, 64, 65, 66, 67, 68, 69, 70, 71, 72, 73, 74, 75, 76, 77, 78, 79, 80, 81, 82, 83, 84, 85, 86, 87, 88, 89, 90, 91, 92, 93, 94, 95, 96, 97};
//
// const float tmp_weights101[35] = {-3.52651163941, -0.894448505351, 2.45823030053, 0.0544058857919, -0.650273948287, -0.03090092681, -0.499131669716, -0.42375782767, 0.986570861655, -0.732537839319, -1.38922056118, -1.49829847346, -0.16156495143, -1.09580495914, -1.02154306533, 2.99788270172, 0.92555444228, -0.810545386609, -0.0622707154117, -0.908192417474, -0.768152438992, -1.09417396277, -1.56573747665, -2.53155812517, 1.1080937536, -1.81259385478, -1.99635330889, -2.89689985685, -0.981438758908, -0.286631641079, 0.0436896756223, -2.78335502629, 0.965184475543, 0.907341973795, 6.51296870747};
// const int tmp_connections101[35] = {34, 64, 65, 66, 67, 68, 69, 70, 71, 72, 73, 74, 75, 76, 77, 78, 79, 80, 81, 82, 83, 84, 85, 86, 87, 88, 89, 90, 91, 92, 93, 94, 95, 96, 97};
//
// const float tmp_weights102[2] = {0, 1};
// const int tmp_connections102[2] = {1, 98};
//
// const float tmp_weights103[2] = {0, 1};
// const int tmp_connections103[2] = {1, 99};
//
// const float tmp_weights104[2] = {0, 1};
// const int tmp_connections104[2] = {1, 100};
//
// const float tmp_weights105[2] = {0, 1};
// const int tmp_connections105[2] = {1, 101};
//
// const bool sigmoids[NUMBER_OF_NEURONS] = {false, false, false, false, false, false, false, false, false, false, false, false, false, false, false, false, false, false, false, false, false, false, false, false, false, false, false, false, false, false, false, false, false, false, false, false, false, false, false, false, false, false, false, false, false, false, false, false, false, false, false, false, false, false, false, false, false, false, false, false, false, false, false, false, true, true, true, true, true, true, true, true, true, true, true, true, true, true, true, true, true, true, true, true, true, true, true, true, true, true, true, true, true, true, true, true, true, true, true, true, true, true, false, false, false, false};
//
// float m_value[NUMBER_OF_NEURONS];
//
// /* Before every classification, all elements in m_calculated array need to be set to false */
// bool m_calculated[NUMBER_OF_NEURONS];
//
// /* Function calculateOutput description:
//  * Returns the output value from a neuron
//  */
// inline void calculateOutput(){
// 	for (int i = 0; i < INPUT_SIZE; i++){
// 		m_value[i] = instance[i];
// 	}
//
// 	for (int i = INPUT_SIZE; i < NUMBER_OF_NEURONS; i++){
// 		float value = m_weights[i][0];
// 		for (int j = 0; j < m_connections[i][0]; j++){
// 			value += m_weights[i][j+1] * m_value[m_connections[i][j+1]];
// 		}
// 		if (sigmoids[i]){
// 			if (value < -45.0)
// 				value = 0.0;
// 			else if (value > 45.0)
// 				value = 1.0;
// 			else{
// 				value = 1.0 / (1.0 + exp(-value));
// 			}
// 		}
// 		m_value[i] = value;
// 	}
// }
//
// /* Function classify description:
//  * Instance array must be initializated, with appropriated attributes, before calling this function
//  * Output number 0 means that the instance was classified as 'ruim'
//  * Output number 1 means that the instance was classified as 'regular'
//  * Output number 2 means that the instance was classified as 'bom'
//  * Output number 3 means that the instance was classified as 'obstaculos'
//  */
// int classify(){
// 	float theArray[OUTPUT_SIZE];
// 	for (int i = 0; i < INPUT_SIZE; i++){
// 		if (m_attributeRanges[i] != 0){
// 			instance[i] = (instance[i] - m_attributeBases[i]) / m_attributeRanges[i];
// 		}
// 		else{
// 			instance[i] = (instance[i] - m_attributeBases[i]);
// 		}
// 	}
// 	calculateOutput();
// 	for (int i = 0; i < OUTPUT_SIZE; i++){
// 		theArray[i] = m_value[m_outputs[i]];
// 	}
// 	float maxValue = -1.0;
// 	int indexMax = -1;
// 	for (int i = 0; i < OUTPUT_SIZE; i++){
// 		if (theArray[i] > maxValue){
// 			maxValue = theArray[i];
// 			indexMax = i;
// 		}
// 	}
// 	return indexMax;
// }
//
// void initConnections(){
// 	m_connections[0] = tmp_connections0;
// 	m_connections[1] = tmp_connections1;
// 	m_connections[2] = tmp_connections2;
// 	m_connections[3] = tmp_connections3;
// 	m_connections[4] = tmp_connections4;
// 	m_connections[5] = tmp_connections5;
// 	m_connections[6] = tmp_connections6;
// 	m_connections[7] = tmp_connections7;
// 	m_connections[8] = tmp_connections8;
// 	m_connections[9] = tmp_connections9;
// 	m_connections[10] = tmp_connections10;
// 	m_connections[11] = tmp_connections11;
// 	m_connections[12] = tmp_connections12;
// 	m_connections[13] = tmp_connections13;
// 	m_connections[14] = tmp_connections14;
// 	m_connections[15] = tmp_connections15;
// 	m_connections[16] = tmp_connections16;
// 	m_connections[17] = tmp_connections17;
// 	m_connections[18] = tmp_connections18;
// 	m_connections[19] = tmp_connections19;
// 	m_connections[20] = tmp_connections20;
// 	m_connections[21] = tmp_connections21;
// 	m_connections[22] = tmp_connections22;
// 	m_connections[23] = tmp_connections23;
// 	m_connections[24] = tmp_connections24;
// 	m_connections[25] = tmp_connections25;
// 	m_connections[26] = tmp_connections26;
// 	m_connections[27] = tmp_connections27;
// 	m_connections[28] = tmp_connections28;
// 	m_connections[29] = tmp_connections29;
// 	m_connections[30] = tmp_connections30;
// 	m_connections[31] = tmp_connections31;
// 	m_connections[32] = tmp_connections32;
// 	m_connections[33] = tmp_connections33;
// 	m_connections[34] = tmp_connections34;
// 	m_connections[35] = tmp_connections35;
// 	m_connections[36] = tmp_connections36;
// 	m_connections[37] = tmp_connections37;
// 	m_connections[38] = tmp_connections38;
// 	m_connections[39] = tmp_connections39;
// 	m_connections[40] = tmp_connections40;
// 	m_connections[41] = tmp_connections41;
// 	m_connections[42] = tmp_connections42;
// 	m_connections[43] = tmp_connections43;
// 	m_connections[44] = tmp_connections44;
// 	m_connections[45] = tmp_connections45;
// 	m_connections[46] = tmp_connections46;
// 	m_connections[47] = tmp_connections47;
// 	m_connections[48] = tmp_connections48;
// 	m_connections[49] = tmp_connections49;
// 	m_connections[50] = tmp_connections50;
// 	m_connections[51] = tmp_connections51;
// 	m_connections[52] = tmp_connections52;
// 	m_connections[53] = tmp_connections53;
// 	m_connections[54] = tmp_connections54;
// 	m_connections[55] = tmp_connections55;
// 	m_connections[56] = tmp_connections56;
// 	m_connections[57] = tmp_connections57;
// 	m_connections[58] = tmp_connections58;
// 	m_connections[59] = tmp_connections59;
// 	m_connections[60] = tmp_connections60;
// 	m_connections[61] = tmp_connections61;
// 	m_connections[62] = tmp_connections62;
// 	m_connections[63] = tmp_connections63;
// 	m_weights[64] = tmp_weights64;
// 	m_connections[64] = tmp_connections64;
// 	m_weights[65] = tmp_weights65;
// 	m_connections[65] = tmp_connections65;
// 	m_weights[66] = tmp_weights66;
// 	m_connections[66] = tmp_connections66;
// 	m_weights[67] = tmp_weights67;
// 	m_connections[67] = tmp_connections67;
// 	m_weights[68] = tmp_weights68;
// 	m_connections[68] = tmp_connections68;
// 	m_weights[69] = tmp_weights69;
// 	m_connections[69] = tmp_connections69;
// 	m_weights[70] = tmp_weights70;
// 	m_connections[70] = tmp_connections70;
// 	m_weights[71] = tmp_weights71;
// 	m_connections[71] = tmp_connections71;
// 	m_weights[72] = tmp_weights72;
// 	m_connections[72] = tmp_connections72;
// 	m_weights[73] = tmp_weights73;
// 	m_connections[73] = tmp_connections73;
// 	m_weights[74] = tmp_weights74;
// 	m_connections[74] = tmp_connections74;
// 	m_weights[75] = tmp_weights75;
// 	m_connections[75] = tmp_connections75;
// 	m_weights[76] = tmp_weights76;
// 	m_connections[76] = tmp_connections76;
// 	m_weights[77] = tmp_weights77;
// 	m_connections[77] = tmp_connections77;
// 	m_weights[78] = tmp_weights78;
// 	m_connections[78] = tmp_connections78;
// 	m_weights[79] = tmp_weights79;
// 	m_connections[79] = tmp_connections79;
// 	m_weights[80] = tmp_weights80;
// 	m_connections[80] = tmp_connections80;
// 	m_weights[81] = tmp_weights81;
// 	m_connections[81] = tmp_connections81;
// 	m_weights[82] = tmp_weights82;
// 	m_connections[82] = tmp_connections82;
// 	m_weights[83] = tmp_weights83;
// 	m_connections[83] = tmp_connections83;
// 	m_weights[84] = tmp_weights84;
// 	m_connections[84] = tmp_connections84;
// 	m_weights[85] = tmp_weights85;
// 	m_connections[85] = tmp_connections85;
// 	m_weights[86] = tmp_weights86;
// 	m_connections[86] = tmp_connections86;
// 	m_weights[87] = tmp_weights87;
// 	m_connections[87] = tmp_connections87;
// 	m_weights[88] = tmp_weights88;
// 	m_connections[88] = tmp_connections88;
// 	m_weights[89] = tmp_weights89;
// 	m_connections[89] = tmp_connections89;
// 	m_weights[90] = tmp_weights90;
// 	m_connections[90] = tmp_connections90;
// 	m_weights[91] = tmp_weights91;
// 	m_connections[91] = tmp_connections91;
// 	m_weights[92] = tmp_weights92;
// 	m_connections[92] = tmp_connections92;
// 	m_weights[93] = tmp_weights93;
// 	m_connections[93] = tmp_connections93;
// 	m_weights[94] = tmp_weights94;
// 	m_connections[94] = tmp_connections94;
// 	m_weights[95] = tmp_weights95;
// 	m_connections[95] = tmp_connections95;
// 	m_weights[96] = tmp_weights96;
// 	m_connections[96] = tmp_connections96;
// 	m_weights[97] = tmp_weights97;
// 	m_connections[97] = tmp_connections97;
// 	m_weights[98] = tmp_weights98;
// 	m_connections[98] = tmp_connections98;
// 	m_weights[99] = tmp_weights99;
// 	m_connections[99] = tmp_connections99;
// 	m_weights[100] = tmp_weights100;
// 	m_connections[100] = tmp_connections100;
// 	m_weights[101] = tmp_weights101;
// 	m_connections[101] = tmp_connections101;
// 	m_weights[102] = tmp_weights102;
// 	m_connections[102] = tmp_connections102;
// 	m_weights[103] = tmp_weights103;
// 	m_connections[103] = tmp_connections103;
// 	m_weights[104] = tmp_weights104;
// 	m_connections[104] = tmp_connections104;
// 	m_weights[105] = tmp_weights105;
// 	m_connections[105] = tmp_connections105;
// }
