
#include <Arduino.h>
#include <math.h>


#define INPUT_SIZE 42
#define OUTPUT_SIZE 2
#define NUMBER_OF_NEURONS 68

/* Instance array must be global
 * Attributes MUST be sorted in instance array in the following order:
 * hour
 * temperature
 * wbf
 * complexity
 * complexity_znorm
 * time_length
 * peaks_freq_1
 * peaks_freq_2
 * peaks_freq_3
 * peaks_freq_4
 * peaks_freq_5
 * peaks_freq_6
 * inharmonicity
 * rho
 * rho_wbf
 * eh_1
 * eh_2
 * eh_3
 * eh_4
 * eh_5
 * eh_6
 * eh_7
 * eh_8
 * eh_9
 * eh_10
 * eh_11
 * eh_12
 * eh_13
 * eh_14
 * eh_15
 * eh_16
 * eh_17
 * eh_18
 * eh_19
 * eh_20
 * eh_21
 * eh_22
 * eh_23
 * eh_24
 * eh_25
 * eh_26
 * temp_range
 */
float instance[INPUT_SIZE+1];

const int m_outputs[OUTPUT_SIZE] = {67, 66};

const float m_attributeBases[INPUT_SIZE] = {11.5, 28.95, 666.544117647, 0.566197215431, 4.10745492378, 0.725623582766, 2347.52305361, 2449.05001324, 3955.54228808, 3918.16066711, 3956.54029775, 3937.2028999, 1620.41360675, 1.08665358031, 741.132703823, 1.39134011217, 1.69442136497, 1.82610638372, 1.81161112941, 2.09200800336, 1.89934874177, 1.60283375502, 2.08398820156, 1.44773875406, 2.15520606225, 2.49904370538, 2.26679081573, 2.1658903255, 1.91754212922, 1.8498452099, 1.80205224845, 1.70326379506, 1.74878801619, 1.43694851409, 1.40009868323, 1.33996017035, 1.30381531226, 1.69248791328, 1.53576354081, 1.45511037202, 1.21278004635, 3.5};
const float m_attributeRanges[INPUT_SIZE] = {11.5, 5.95, 558.455882353, 0.549968779174, 3.337545879, 0.714013605442, 2305.75991595, 2412.73775041, 3920.00643957, 3884.21158388, 3923.00198095, 3902.93920294, 1422.10705917, 0.0337344222086, 620.816705322, 1.38711138253, 1.68960462944, 1.81659372243, 1.80411240427, 2.08552982986, 1.89463536724, 1.59657224114, 2.07790873269, 1.44453696762, 2.14849055066, 2.49325799169, 2.26046932655, 2.16202134475, 1.91329039268, 1.84320258841, 1.79545210335, 1.69825094724, 1.74233254212, 1.42991678699, 1.39606447022, 1.33485154969, 1.29998560177, 1.68829850359, 1.53193072779, 1.44948156163, 1.20721204388, 2.5};

const float *m_weights[NUMBER_OF_NEURONS];
const int *m_connections[NUMBER_OF_NEURONS];

const int tmp_connections0[1] = {0};

const int tmp_connections1[1] = {0};

const int tmp_connections2[1] = {0};

const int tmp_connections3[1] = {0};

const int tmp_connections4[1] = {0};

const int tmp_connections5[1] = {0};

const int tmp_connections6[1] = {0};

const int tmp_connections7[1] = {0};

const int tmp_connections8[1] = {0};

const int tmp_connections9[1] = {0};

const int tmp_connections10[1] = {0};

const int tmp_connections11[1] = {0};

const int tmp_connections12[1] = {0};

const int tmp_connections13[1] = {0};

const int tmp_connections14[1] = {0};

const int tmp_connections15[1] = {0};

const int tmp_connections16[1] = {0};

const int tmp_connections17[1] = {0};

const int tmp_connections18[1] = {0};

const int tmp_connections19[1] = {0};

const int tmp_connections20[1] = {0};

const int tmp_connections21[1] = {0};

const int tmp_connections22[1] = {0};

const int tmp_connections23[1] = {0};

const int tmp_connections24[1] = {0};

const int tmp_connections25[1] = {0};

const int tmp_connections26[1] = {0};

const int tmp_connections27[1] = {0};

const int tmp_connections28[1] = {0};

const int tmp_connections29[1] = {0};

const int tmp_connections30[1] = {0};

const int tmp_connections31[1] = {0};

const int tmp_connections32[1] = {0};

const int tmp_connections33[1] = {0};

const int tmp_connections34[1] = {0};

const int tmp_connections35[1] = {0};

const int tmp_connections36[1] = {0};

const int tmp_connections37[1] = {0};

const int tmp_connections38[1] = {0};

const int tmp_connections39[1] = {0};

const int tmp_connections40[1] = {0};

const int tmp_connections41[1] = {0};

const float tmp_weights42[43] = {-2.67800391339, 4.10468248236, 7.09230071323, 9.4112133509, -3.96730081947, 1.20967642848, 0.459558672585, 0.509076881038, -4.55820575504, 0.936005081517, 0.886398395612, 3.09732558288, -2.69069755421, 1.55818192896, -1.01239483464, 9.2131436816, 8.68684844284, 0.629889750285, 2.14649658008, -0.36444620426, 1.738376203, -5.26279596836, -4.37704754413, 1.16992826276, -3.60418455412, 1.66514057261, 2.57960111714, -1.4746926339, -4.58774989435, -7.41768547374, -10.7711809208, -2.78141872215, 5.30005146936, 5.07733831111, 4.05294890224, 3.79034616034, 2.9327058898, 3.03318723474, 1.79937466695, 1.27637516303, 1.92975365643, 0.192970382847, 2.41258087335};
const int tmp_connections42[43] = {42, 0, 1, 2, 3, 4, 5, 6, 7, 8, 9, 10, 11, 12, 13, 14, 15, 16, 17, 18, 19, 20, 21, 22, 23, 24, 25, 26, 27, 28, 29, 30, 31, 32, 33, 34, 35, 36, 37, 38, 39, 40, 41};

const float tmp_weights43[43] = {4.30896515337, 0.750210181844, 1.32251755695, -1.70526306127, 4.98406385609, 1.87498641758, -3.32885334549, -0.281993809667, -2.90265723734, -4.65797298771, -4.29937093609, 2.85263590574, -0.940612252718, -0.813496939106, -4.0229654393, -1.97050756976, 5.26141634988, 5.01876942394, 6.5312716349, 2.53598201693, 1.17337026659, 1.05985226848, 4.41037305531, 2.77301252607, 3.46909926337, 2.51307374718, -0.323945841032, 0.116343795648, -0.0547670862706, -1.25056373625, -2.07226827864, 1.9303511666, 1.32056749837, -0.0929735801365, -0.978883876832, -1.79050508906, -0.99843237266, -1.57668642709, -1.74001275155, -1.98233236378, -0.904136162306, -0.242002960032, 2.59520978274};
const int tmp_connections43[43] = {42, 0, 1, 2, 3, 4, 5, 6, 7, 8, 9, 10, 11, 12, 13, 14, 15, 16, 17, 18, 19, 20, 21, 22, 23, 24, 25, 26, 27, 28, 29, 30, 31, 32, 33, 34, 35, 36, 37, 38, 39, 40, 41};

const float tmp_weights44[43] = {-0.222426930905, -0.901039200419, 0.373129819295, 0.875075761556, 0.0852773549048, -0.515125198361, 0.322488612329, -0.147053283688, 0.224180872737, 0.0661800330935, 0.372025642157, 0.283943120455, -0.372659530028, -0.217603597138, -0.335786045653, 0.788739743586, 0.127275285747, 0.245676497204, 0.0465011060034, -0.0365318724897, 0.157693451886, 0.247636266907, -0.0469242867773, 0.106703762734, 0.193964551066, -0.0281841469268, 0.313494962482, 0.244941797297, 0.246438650382, 0.268741091582, 0.412049902207, -0.0242679561895, -0.00310716953974, 0.111649761544, 0.119980874773, 0.158160797493, 0.190192320381, 0.0856193451847, 0.267289572514, 0.204037891435, 0.204644353818, 0.22399128121, 0.888581391994};
const int tmp_connections44[43] = {42, 0, 1, 2, 3, 4, 5, 6, 7, 8, 9, 10, 11, 12, 13, 14, 15, 16, 17, 18, 19, 20, 21, 22, 23, 24, 25, 26, 27, 28, 29, 30, 31, 32, 33, 34, 35, 36, 37, 38, 39, 40, 41};

const float tmp_weights45[43] = {-0.655716635154, 8.61330884943, -6.33274351394, 2.05646708916, 0.850076948559, 2.68030144879, 0.828356065426, -0.0702575733512, 2.53984753436, 6.41747220493, 4.7255240991, -2.01410127235, -2.43746495753, -0.831072256555, -2.84580530539, 1.98086781193, -2.3732140769, -0.308429459331, -0.115897092331, -1.61494152833, -0.482611508127, 0.912838409803, 1.07795240295, -1.29904556411, 1.76709562142, -0.00537068853157, -0.674114737765, -0.474008898483, 0.224797990059, 3.05505572815, 3.48533901855, 2.56402637875, 0.146907663226, 0.57011412506, -0.426353965876, 1.23667547707, 0.107825870365, 0.23084560072, -1.37047841023, -0.696007328315, 0.497922738327, -1.79327783029, -0.586331192793};
const int tmp_connections45[43] = {42, 0, 1, 2, 3, 4, 5, 6, 7, 8, 9, 10, 11, 12, 13, 14, 15, 16, 17, 18, 19, 20, 21, 22, 23, 24, 25, 26, 27, 28, 29, 30, 31, 32, 33, 34, 35, 36, 37, 38, 39, 40, 41};

const float tmp_weights46[43] = {-1.52139332363, 2.39412668333, -21.6162706855, 15.7443403302, -2.83041071984, 6.494319918, -0.728002530237, 5.18871939195, 0.495381700457, -0.235741064367, 3.30262638388, 3.64462674563, 0.745924556249, -3.26234951047, -10.1677171111, 15.2711531366, 1.2740955482, 0.73733512038, -0.436386428883, -3.92050050005, 0.242969602748, 1.13745729603, 1.43437676236, -4.24503122533, -1.30468271847, -2.37846248715, -5.39230660044, -0.732008327175, -5.0427232482, 6.4751752624, 3.76327202022, 7.86811412929, 5.86144581933, 3.80707509988, 2.73053450254, 0.66751824279, -2.73478267399, -0.597183125593, -4.77974197832, -3.3338369854, 0.860217547661, 0.421815160096, -8.40199000197};
const int tmp_connections46[43] = {42, 0, 1, 2, 3, 4, 5, 6, 7, 8, 9, 10, 11, 12, 13, 14, 15, 16, 17, 18, 19, 20, 21, 22, 23, 24, 25, 26, 27, 28, 29, 30, 31, 32, 33, 34, 35, 36, 37, 38, 39, 40, 41};

const float tmp_weights47[43] = {1.99093048908, 2.69294181881, 2.1929943008, -4.31329374392, 0.423858630619, 0.147443727283, -1.75475518844, 1.72836780278, -1.80637260185, -1.07949406028, -1.89613607364, -5.35701702218, -1.38848892664, 2.45923240533, -1.53927023119, -4.34608973494, 2.2598579812, -0.161607128013, 0.592401721801, 3.26938125521, 0.509976161739, -1.30830343299, 3.74911024349, -0.580121595499, 1.00544182676, -0.358105844104, 0.404926642003, 0.13363453811, -2.19956824912, -3.37364411643, 3.32035476114, 1.31499988651, -0.923355397492, -1.52458269683, -1.34431215406, -2.0825177518, -0.871269544475, -2.16254992493, -0.329939100083, 0.10038796432, -0.576014283951, 0.401365818568, 1.74021146164};
const int tmp_connections47[43] = {42, 0, 1, 2, 3, 4, 5, 6, 7, 8, 9, 10, 11, 12, 13, 14, 15, 16, 17, 18, 19, 20, 21, 22, 23, 24, 25, 26, 27, 28, 29, 30, 31, 32, 33, 34, 35, 36, 37, 38, 39, 40, 41};

const float tmp_weights48[43] = {-0.454436967456, -2.17266732219, 0.330648762731, 0.0492374525268, 0.0161707396416, -1.9072698987, 0.911093399527, -0.48140226573, 1.08615177797, -0.0598430722134, 1.49883365428, -0.784253685957, -3.86057504831, -1.04532640111, -0.0924515984542, 0.0486921072735, -0.721927790503, 0.0910132330589, -0.945346699129, -0.0978188825807, 0.212425017873, 0.749564127581, -0.669501360586, 0.0742312504941, 0.661277324255, -0.446541984288, 1.24633665092, 0.891661554795, 0.7013338743, 0.810878368786, 1.74575207596, -1.13804254149, -1.22488621573, -0.383977676447, -0.138400898977, -0.00329649721947, 0.325231671562, -0.0704151899345, 0.739976910853, 0.857466114568, 0.540682688855, 0.641644185816, 1.54638915645};
const int tmp_connections48[43] = {42, 0, 1, 2, 3, 4, 5, 6, 7, 8, 9, 10, 11, 12, 13, 14, 15, 16, 17, 18, 19, 20, 21, 22, 23, 24, 25, 26, 27, 28, 29, 30, 31, 32, 33, 34, 35, 36, 37, 38, 39, 40, 41};

const float tmp_weights49[43] = {2.23497546802, 3.41869581393, 10.5153236886, -18.6001897218, 3.09204215395, 5.39475176287, 5.00557128123, 8.66648146432, -6.5149332269, -1.91415916625, 8.17905915646, 2.67556429298, 2.18009095473, -1.74574922279, 6.62211227399, -18.2892378275, -6.27952888996, -0.0179751203298, -3.32049721125, -1.72115676907, 0.830486445831, 6.5019714693, -3.31269583591, 2.83126223662, -0.103991694917, -1.46816034773, 5.70784912472, 2.35918556292, 8.98277355399, 6.47667108871, -5.22618249296, -8.93968912763, -7.24986214884, -3.87896932659, -5.23339238128, -2.3070837028, 0.133080930943, -1.64121090308, 1.64706176619, 4.30921872256, 3.07441858386, -0.550763196695, -3.14323112826};
const int tmp_connections49[43] = {42, 0, 1, 2, 3, 4, 5, 6, 7, 8, 9, 10, 11, 12, 13, 14, 15, 16, 17, 18, 19, 20, 21, 22, 23, 24, 25, 26, 27, 28, 29, 30, 31, 32, 33, 34, 35, 36, 37, 38, 39, 40, 41};

const float tmp_weights50[43] = {1.83508333746, 1.06111476563, 7.30997244594, -10.4782236734, -2.15400118477, -1.294674397, -1.98506939184, 1.4783096591, 3.70932885875, -0.511816632864, 6.79671461838, -2.90061181319, -0.654245347578, 4.23699960679, -4.97422495455, -10.4873495423, -1.6752840726, -1.51800658012, 2.39024832283, 0.161538441388, 1.34652547428, -2.95843014239, 3.66326481085, 1.18173629396, -2.30267756874, 0.261327744195, -0.0474334935945, 2.34789283679, 2.50542712844, -3.44521025484, 0.0624524939715, 1.79648380524, -0.880192596138, -1.13168263776, 0.0395676081067, -1.60836094839, -2.1811703163, -1.38888077334, 0.0234872061004, 1.38193856181, 0.558294303757, 2.44604454857, -3.78416450805};
const int tmp_connections50[43] = {42, 0, 1, 2, 3, 4, 5, 6, 7, 8, 9, 10, 11, 12, 13, 14, 15, 16, 17, 18, 19, 20, 21, 22, 23, 24, 25, 26, 27, 28, 29, 30, 31, 32, 33, 34, 35, 36, 37, 38, 39, 40, 41};

const float tmp_weights51[43] = {0.406074069609, 5.89140040807, 11.8963283297, -19.2587208903, -2.5451119222, 0.0925643349543, 6.26905696717, 15.753549495, 0.241472938621, 0.548970204658, 1.09055509609, 0.0527986125815, -4.2592258418, 4.0356689171, 3.69865202375, -18.8644600407, -8.24809408076, -2.13308800547, -4.25970927183, 0.940038488883, 2.14576451356, 6.65036050321, -1.23817702923, -1.5362450669, 0.303243426446, -0.491566986418, 6.88296457837, 3.11713585772, 6.51222008818, 6.80714780941, -0.257701479529, -6.50009869497, -8.76884296807, -3.62534494898, -5.31019353608, -3.82331269903, 0.728696346084, -0.449091665323, 3.11270456374, 5.42744393388, 4.51097369126, 0.0510228072804, -0.350294696573};
const int tmp_connections51[43] = {42, 0, 1, 2, 3, 4, 5, 6, 7, 8, 9, 10, 11, 12, 13, 14, 15, 16, 17, 18, 19, 20, 21, 22, 23, 24, 25, 26, 27, 28, 29, 30, 31, 32, 33, 34, 35, 36, 37, 38, 39, 40, 41};

const float tmp_weights52[43] = {0.994517772663, -2.76739361168, -0.303379403376, 1.62582423492, -0.674164539915, -3.08509731443, -1.05023837901, -1.24093501647, -3.53289549132, -2.2082289056, 0.114595101259, 1.45451331588, -2.48253877351, -2.45631567263, -0.309272999672, 1.5097641372, 6.15055489295, 3.61562386779, 2.15479240818, 3.45627839117, 0.620198435523, -0.134264696188, 1.09369217119, 2.84845407067, 6.21922036468, 3.1961688467, 2.27712189824, 0.448273792427, -1.65040242649, -3.23183324603, -1.80847198275, -1.84007171377, -1.00352327884, -0.391444552592, 0.529766772628, 0.222635179836, -0.0763064413189, -0.674901947439, 0.487228150374, 0.403994985854, 0.132912444336, 0.304625357392, -0.00346609070949};
const int tmp_connections52[43] = {42, 0, 1, 2, 3, 4, 5, 6, 7, 8, 9, 10, 11, 12, 13, 14, 15, 16, 17, 18, 19, 20, 21, 22, 23, 24, 25, 26, 27, 28, 29, 30, 31, 32, 33, 34, 35, 36, 37, 38, 39, 40, 41};

const float tmp_weights53[43] = {-0.170330824178, -2.46092315056, 1.32439014507, 1.16299085998, 0.634088197296, -1.07227638504, 0.449148666492, -0.5185973883, 0.814838739451, -0.233941146072, 0.950474435947, -0.0466641873491, -0.623620437037, 0.016629427708, -1.80326289181, 0.975863261722, 0.428827819472, 0.78492079698, 0.546776514246, -0.193861149113, 0.332594046767, 0.529403661802, 0.400154920698, 0.593020267973, 1.02684153557, 0.0894792995423, 0.652356593359, 0.842251224998, 0.464167399391, 0.585610814633, 0.721183492399, -0.13681056472, -0.211528143876, -0.0766602426161, -0.0340566181667, -0.292783734736, -0.37936466745, -0.319443132441, 0.194524308872, 0.302647393746, 0.390889539728, 0.804372536143, 2.36254379759};
const int tmp_connections53[43] = {42, 0, 1, 2, 3, 4, 5, 6, 7, 8, 9, 10, 11, 12, 13, 14, 15, 16, 17, 18, 19, 20, 21, 22, 23, 24, 25, 26, 27, 28, 29, 30, 31, 32, 33, 34, 35, 36, 37, 38, 39, 40, 41};

const float tmp_weights54[43] = {0.171564672786, 4.45275206631, 0.780639879425, -1.8901291551, 1.88428240801, 0.858288196727, -0.0737815286716, -0.443116957365, 2.0342107628, -0.168411636842, -2.03700422646, 0.00441198564608, -4.11927646499, -1.09444819924, -1.80917513639, -1.89937569666, -0.834334328007, -0.255639000993, -0.125834019257, -0.301411317851, 0.0947835089608, 0.412208999385, 0.569819778672, 0.491474047108, 1.02337103652, 0.322808741715, 0.63217333407, 0.828588009779, 0.400333216989, 0.899793396848, 1.24384075397, 0.738273203948, 0.0523592154334, 0.346164050754, 0.325243546601, -0.244758280942, 0.0210060396148, 0.125412504092, 0.411213823667, 0.516143845543, 0.672823512052, 0.773566761566, 1.71369948609};
const int tmp_connections54[43] = {42, 0, 1, 2, 3, 4, 5, 6, 7, 8, 9, 10, 11, 12, 13, 14, 15, 16, 17, 18, 19, 20, 21, 22, 23, 24, 25, 26, 27, 28, 29, 30, 31, 32, 33, 34, 35, 36, 37, 38, 39, 40, 41};

const float tmp_weights55[43] = {1.66313126129, 3.34938585224, 5.19511237053, -9.16470910857, -0.0157604907769, 2.01413444572, -1.56682014014, 2.18556841616, 0.0356117432678, 2.195344701, 0.618881142678, -0.924793978725, -0.241507631653, 2.71936349127, -5.27668834452, -9.13515314897, 0.0472740735509, -0.861987496615, 0.860154293283, 0.387715578672, 0.304615111528, -1.81181137675, 3.22889186933, 0.605300455881, -0.463663532652, 0.59519885526, 0.501709616633, 0.524112169605, 0.294597891757, -2.23496727733, 1.15803754136, 1.52445845505, -0.901686928656, -0.987711075644, -0.30631636094, -1.34869940301, -2.02574044752, -0.655229168832, 1.1319481861, 1.89283537398, 0.876957259873, 1.44074928334, -1.51863186792};
const int tmp_connections55[43] = {42, 0, 1, 2, 3, 4, 5, 6, 7, 8, 9, 10, 11, 12, 13, 14, 15, 16, 17, 18, 19, 20, 21, 22, 23, 24, 25, 26, 27, 28, 29, 30, 31, 32, 33, 34, 35, 36, 37, 38, 39, 40, 41};

const float tmp_weights56[43] = {-2.4891426036, -6.44262504131, -12.2065932262, 16.4058369091, -2.99274359528, 1.26809757471, -3.09763426522, 9.92849107946, -1.73321676741, 2.81359073556, 0.0630102608266, 6.63129809139, 3.42021870966, 9.33410995251, 12.8676595528, 16.7218586596, 2.81689848158, 3.30696150048, 2.40725000411, -3.77784158421, -3.02573118482, -0.0961018892232, -1.88257128655, -0.155969419211, -6.33581661797, 1.42588258007, -2.49511843633, -3.26800627479, 0.190105770807, 0.173836149436, -2.20223839772, 1.79457375156, 4.58846978553, 2.92893736338, 3.08789797371, 1.4182012724, 3.66927777875, -0.120758510647, -0.435406283867, -0.017856564037, 0.176626971865, -0.590082114849, 2.68968365142};
const int tmp_connections56[43] = {42, 0, 1, 2, 3, 4, 5, 6, 7, 8, 9, 10, 11, 12, 13, 14, 15, 16, 17, 18, 19, 20, 21, 22, 23, 24, 25, 26, 27, 28, 29, 30, 31, 32, 33, 34, 35, 36, 37, 38, 39, 40, 41};

const float tmp_weights57[43] = {-2.68019581933, 5.21713024482, 7.6888755527, 7.99701732795, -6.21241661419, 3.53315407113, 5.46628584889, -12.5286178779, -6.01800741672, 4.77481916365, 3.08226969409, -2.84033569692, 1.46628614789, -4.71457502221, -14.8063156478, 7.35749053564, 4.64826789565, 1.31672359834, 3.94681779096, -2.25214997422, 1.50886225107, -0.737229741502, -4.54057018305, 3.40473549244, -2.71862705955, -1.54237454556, -0.879707861504, -2.58444097678, -2.88567585234, -2.44715315591, -11.2558090531, -1.32392245282, 7.08109648562, 6.81815422138, 5.88346895191, 4.12538879122, 4.24611778155, 1.20321578682, -1.41857629427, -2.19097652493, 1.05147599484, -2.28147852237, -2.49751062777};
const int tmp_connections57[43] = {42, 0, 1, 2, 3, 4, 5, 6, 7, 8, 9, 10, 11, 12, 13, 14, 15, 16, 17, 18, 19, 20, 21, 22, 23, 24, 25, 26, 27, 28, 29, 30, 31, 32, 33, 34, 35, 36, 37, 38, 39, 40, 41};

const float tmp_weights58[43] = {1.38700810354, 2.88845552313, -1.22880768878, 7.7135509185, -1.05027995814, 2.16320903599, -1.97227428059, -0.51448082984, -1.62563558528, -1.36680713391, 2.76992243236, 0.490531343183, 0.620605850524, -0.692780268638, -3.89290674543, 7.29800777585, 1.48799682147, 2.40314503734, 3.7973685208, -1.47581422269, 0.976075944307, -1.76467728418, 0.525512039001, 0.792133328002, -5.02921301712, 1.46272066791, -0.985302522951, -0.166312257146, 0.108927487146, -1.39229644146, -8.70625530548, 1.5942689957, 4.63034249751, 2.0011780043, 1.09291259343, 0.483969581968, 0.00123723756853, 0.634840684011, -2.44155558275, -1.82561375971, 0.747361733406, -0.307797175847, -5.29115395744};
const int tmp_connections58[43] = {42, 0, 1, 2, 3, 4, 5, 6, 7, 8, 9, 10, 11, 12, 13, 14, 15, 16, 17, 18, 19, 20, 21, 22, 23, 24, 25, 26, 27, 28, 29, 30, 31, 32, 33, 34, 35, 36, 37, 38, 39, 40, 41};

const float tmp_weights59[43] = {2.55946779632, 1.47063691803, 5.14503332373, -14.5637339879, -3.82577341413, 2.55888829866, -3.13479469961, -3.31172871351, 1.01328286103, -0.646227333106, 1.77268285709, 5.91691623723, 3.04321449496, 3.12529791407, -10.0648011252, -14.6929634292, 1.82671290673, 2.31111520935, 4.43230272535, -0.846803812451, 1.40893475678, -2.16857280254, 2.23988519393, 1.42574166836, -0.270834757271, 0.491995134812, -1.27612780872, 1.41613932663, 3.42888922741, -2.49753997526, -0.0972704713782, 1.80297214453, -2.70952378653, -1.79891739314, 0.350626749241, -1.12590740695, -3.79702452689, -1.37986241991, 0.435384106551, 1.32286837694, 0.516290946937, 3.40522979661, -3.03054631743};
const int tmp_connections59[43] = {42, 0, 1, 2, 3, 4, 5, 6, 7, 8, 9, 10, 11, 12, 13, 14, 15, 16, 17, 18, 19, 20, 21, 22, 23, 24, 25, 26, 27, 28, 29, 30, 31, 32, 33, 34, 35, 36, 37, 38, 39, 40, 41};

const float tmp_weights60[43] = {-4.61811725599, 5.53755574942, -33.6785813893, 11.7571619069, -1.63511909814, -0.878607364903, -6.16276106213, 14.2847151377, 9.59846708478, 0.167010778066, 2.26821461057, 0.872831952556, 3.74872684632, 5.88145757616, -7.58259869856, 11.5223549606, -3.22589215199, -4.14485186288, -1.49455972828, -5.44662952264, 0.322630025612, -2.21420726482, -1.32302147611, -3.54933650856, -1.45514245942, 0.492019671104, -2.20361693643, -0.440440099034, -4.9197372923, 3.32594517104, 7.24478182632, 7.72023674056, 4.36691023261, 2.79043570749, 0.312770673441, 2.97325826302, 2.90708724105, 0.765724812197, -2.54375186452, -1.23870095942, -0.515063840285, 0.746987778638, 7.49566996385};
const int tmp_connections60[43] = {42, 0, 1, 2, 3, 4, 5, 6, 7, 8, 9, 10, 11, 12, 13, 14, 15, 16, 17, 18, 19, 20, 21, 22, 23, 24, 25, 26, 27, 28, 29, 30, 31, 32, 33, 34, 35, 36, 37, 38, 39, 40, 41};

const float tmp_weights61[43] = {-0.0944651871641, 0.459193733212, 10.152403762, -11.6594960491, -2.48212323442, 5.43329562459, 2.12590640176, -2.49175076527, -0.618700685826, 0.607868443477, 1.55879822969, 10.408593189, 4.69516568431, -0.462862923384, -0.410519048692, -11.4750423971, 3.1976152766, -2.27032927341, -1.42440060494, 1.06505733446, -2.55623447544, -0.570445749694, -0.19010741015, 1.63297195739, 4.42898513723, 1.87897105995, 1.45167966251, -3.8729294891, -2.09453206079, -1.67916170626, -4.32005427671, -2.8252549298, -0.949452130068, -0.119774706485, 0.735139622882, -0.0259126739169, -1.73407518806, 1.73061694682, 4.21376578027, 3.36304772138, 0.8158133468, -1.52555527009, -11.1173161416};
const int tmp_connections61[43] = {42, 0, 1, 2, 3, 4, 5, 6, 7, 8, 9, 10, 11, 12, 13, 14, 15, 16, 17, 18, 19, 20, 21, 22, 23, 24, 25, 26, 27, 28, 29, 30, 31, 32, 33, 34, 35, 36, 37, 38, 39, 40, 41};

const float tmp_weights62[43] = {0.310272156795, -2.98986516276, 23.6828144249, -19.3820463965, -0.469346119376, -2.78487165271, 5.26657751746, 3.18019063373, -0.978479891699, 6.32399772952, -1.85214972265, 1.55230712086, 3.44604731047, 10.1783926985, 13.0362277941, -18.5724679369, -5.22312420645, -3.52286544685, -7.16836114008, 1.67868859557, -0.935527503466, 2.79984792905, 1.8981559979, -3.8718629376, -2.49369011721, 1.33552399942, 2.25137254445, 1.84854698319, 0.624773214298, 0.540226435349, 0.952105426835, -3.00313989513, -7.37295178963, -6.96800150969, -3.58458413709, -3.73616789274, -0.362665794213, 0.934601835599, 3.85011898431, 4.89640956699, 2.03073452663, 3.30024242751, -2.18710674264};
const int tmp_connections62[43] = {42, 0, 1, 2, 3, 4, 5, 6, 7, 8, 9, 10, 11, 12, 13, 14, 15, 16, 17, 18, 19, 20, 21, 22, 23, 24, 25, 26, 27, 28, 29, 30, 31, 32, 33, 34, 35, 36, 37, 38, 39, 40, 41};

const float tmp_weights63[43] = {0.471434234564, -1.0817496245, 0.872861342513, -8.97573398823, 0.021830849237, -5.19784277988, 0.195936015004, 0.883190599155, 1.93132159791, 1.9617881314, -2.97754151408, -2.13787465011, -4.88757149251, 2.7484957978, 3.32063191062, -8.65179891333, -1.0640793471, -1.61189240419, -3.59355469286, 0.200882482895, -0.675524952135, 0.131778060821, -0.807220762249, -3.12243915986, 1.36113028698, -1.29277725285, 1.08572187948, 0.840831447635, 0.708311972308, -0.104048943623, 7.68678297458, -2.21060606555, -6.926086335, -4.78609166689, -3.51060886035, -1.96942201423, -0.965540822826, -1.63026996571, 1.8142541279, 1.98675230044, 0.137216041188, 0.21789688414, 6.90978940946};
const int tmp_connections63[43] = {42, 0, 1, 2, 3, 4, 5, 6, 7, 8, 9, 10, 11, 12, 13, 14, 15, 16, 17, 18, 19, 20, 21, 22, 23, 24, 25, 26, 27, 28, 29, 30, 31, 32, 33, 34, 35, 36, 37, 38, 39, 40, 41};

const float tmp_weights64[23] = {-0.567855157822, -8.82198911016, 6.13943657503, 0.795911524601, -3.04032897719, -4.6868962879, 2.46662397955, 1.85000806448, 6.36040205234, 2.43907880881, 4.96237911639, 8.10395890092, 2.57840443283, 4.10662083279, 3.5375257079, -6.87468783191, -5.67005537833, -6.51956393682, 6.02554964527, -5.9019203895, 3.98429750715, 4.30088055933, 3.13370396748};
const int tmp_connections64[23] = {22, 42, 43, 44, 45, 46, 47, 48, 49, 50, 51, 52, 53, 54, 55, 56, 57, 58, 59, 60, 61, 62, 63};

const float tmp_weights65[23] = {0.570711003775, 8.81817670657, -6.14428138293, -0.740301404515, 3.03905485896, 4.68736022265, -2.4679416729, -1.8558065704, -6.36093565372, -2.44080768079, -4.96306630273, -8.1074605614, -2.57319318356, -4.11330376276, -3.53249452547, 6.87582437754, 5.67107060253, 6.5157862335, -6.0256959946, 5.90264166613, -3.98509075682, -4.30241160204, -3.13063428084};
const int tmp_connections65[23] = {22, 42, 43, 44, 45, 46, 47, 48, 49, 50, 51, 52, 53, 54, 55, 56, 57, 58, 59, 60, 61, 62, 63};

const float tmp_weights66[2] = {0, 1};
const int tmp_connections66[2] = {1, 64};

const float tmp_weights67[2] = {0, 1};
const int tmp_connections67[2] = {1, 65};

const bool sigmoids[NUMBER_OF_NEURONS] = {false, false, false, false, false, false, false, false, false, false, false, false, false, false, false, false, false, false, false, false, false, false, false, false, false, false, false, false, false, false, false, false, false, false, false, false, false, false, false, false, false, false, true, true, true, true, true, true, true, true, true, true, true, true, true, true, true, true, true, true, true, true, true, true, true, true, false, false};

float m_value[NUMBER_OF_NEURONS];

/* Before every classification, all elements in m_calculated array need to be set to false */
bool m_calculated[NUMBER_OF_NEURONS];

/* Function calculateOutput description:
 * Returns the output value from a neuron
 */
inline void calculateOutput(){
	for (int i = 0; i < INPUT_SIZE; i++){
		m_value[i] = instance[i];
	}

	for (int i = INPUT_SIZE; i < NUMBER_OF_NEURONS; i++){
		float value = m_weights[i][0];
		for (int j = 0; j < m_connections[i][0]; j++){
			value += m_weights[i][j+1] * m_value[m_connections[i][j+1]];
		}
		if (sigmoids[i]){
			if (value < -45.0)
				value = 0.0;
			else if (value > 45.0)
				value = 1.0;
			else{
				value = 1.0 / (1.0 + exp(-value));
			}
		}
		m_value[i] = value;
	}
}

/* Function classify description:
 * Instance array must be initializated, with appropriated attributes, before calling this function
 * Output number 0 means that the instance was classified as 'm'
 * Output number 1 means that the instance was classified as 'f'
 */
int classify(){
	float theArray[OUTPUT_SIZE];
	for (int i = 0; i < INPUT_SIZE; i++){
		if (m_attributeRanges[i] != 0){
			instance[i] = (instance[i] - m_attributeBases[i]) / m_attributeRanges[i];
		}
		else{
			instance[i] = (instance[i] - m_attributeBases[i]);
		}
	}
	calculateOutput();
	for (int i = 0; i < OUTPUT_SIZE; i++){
		theArray[i] = m_value[m_outputs[i]];
	}
	float maxValue = -1.0;
	int indexMax = -1;
	for (int i = 0; i < OUTPUT_SIZE; i++){
		if (theArray[i] > maxValue){
			maxValue = theArray[i];
			indexMax = i;
		}
	}
	return indexMax;
}

void initConnections(){
	m_connections[0] = tmp_connections0;
	m_connections[1] = tmp_connections1;
	m_connections[2] = tmp_connections2;
	m_connections[3] = tmp_connections3;
	m_connections[4] = tmp_connections4;
	m_connections[5] = tmp_connections5;
	m_connections[6] = tmp_connections6;
	m_connections[7] = tmp_connections7;
	m_connections[8] = tmp_connections8;
	m_connections[9] = tmp_connections9;
	m_connections[10] = tmp_connections10;
	m_connections[11] = tmp_connections11;
	m_connections[12] = tmp_connections12;
	m_connections[13] = tmp_connections13;
	m_connections[14] = tmp_connections14;
	m_connections[15] = tmp_connections15;
	m_connections[16] = tmp_connections16;
	m_connections[17] = tmp_connections17;
	m_connections[18] = tmp_connections18;
	m_connections[19] = tmp_connections19;
	m_connections[20] = tmp_connections20;
	m_connections[21] = tmp_connections21;
	m_connections[22] = tmp_connections22;
	m_connections[23] = tmp_connections23;
	m_connections[24] = tmp_connections24;
	m_connections[25] = tmp_connections25;
	m_connections[26] = tmp_connections26;
	m_connections[27] = tmp_connections27;
	m_connections[28] = tmp_connections28;
	m_connections[29] = tmp_connections29;
	m_connections[30] = tmp_connections30;
	m_connections[31] = tmp_connections31;
	m_connections[32] = tmp_connections32;
	m_connections[33] = tmp_connections33;
	m_connections[34] = tmp_connections34;
	m_connections[35] = tmp_connections35;
	m_connections[36] = tmp_connections36;
	m_connections[37] = tmp_connections37;
	m_connections[38] = tmp_connections38;
	m_connections[39] = tmp_connections39;
	m_connections[40] = tmp_connections40;
	m_connections[41] = tmp_connections41;
	m_weights[42] = tmp_weights42;
	m_connections[42] = tmp_connections42;
	m_weights[43] = tmp_weights43;
	m_connections[43] = tmp_connections43;
	m_weights[44] = tmp_weights44;
	m_connections[44] = tmp_connections44;
	m_weights[45] = tmp_weights45;
	m_connections[45] = tmp_connections45;
	m_weights[46] = tmp_weights46;
	m_connections[46] = tmp_connections46;
	m_weights[47] = tmp_weights47;
	m_connections[47] = tmp_connections47;
	m_weights[48] = tmp_weights48;
	m_connections[48] = tmp_connections48;
	m_weights[49] = tmp_weights49;
	m_connections[49] = tmp_connections49;
	m_weights[50] = tmp_weights50;
	m_connections[50] = tmp_connections50;
	m_weights[51] = tmp_weights51;
	m_connections[51] = tmp_connections51;
	m_weights[52] = tmp_weights52;
	m_connections[52] = tmp_connections52;
	m_weights[53] = tmp_weights53;
	m_connections[53] = tmp_connections53;
	m_weights[54] = tmp_weights54;
	m_connections[54] = tmp_connections54;
	m_weights[55] = tmp_weights55;
	m_connections[55] = tmp_connections55;
	m_weights[56] = tmp_weights56;
	m_connections[56] = tmp_connections56;
	m_weights[57] = tmp_weights57;
	m_connections[57] = tmp_connections57;
	m_weights[58] = tmp_weights58;
	m_connections[58] = tmp_connections58;
	m_weights[59] = tmp_weights59;
	m_connections[59] = tmp_connections59;
	m_weights[60] = tmp_weights60;
	m_connections[60] = tmp_connections60;
	m_weights[61] = tmp_weights61;
	m_connections[61] = tmp_connections61;
	m_weights[62] = tmp_weights62;
	m_connections[62] = tmp_connections62;
	m_weights[63] = tmp_weights63;
	m_connections[63] = tmp_connections63;
	m_weights[64] = tmp_weights64;
	m_connections[64] = tmp_connections64;
	m_weights[65] = tmp_weights65;
	m_connections[65] = tmp_connections65;
	m_weights[66] = tmp_weights66;
	m_connections[66] = tmp_connections66;
	m_weights[67] = tmp_weights67;
	m_connections[67] = tmp_connections67;
}
