
#include <Arduino.h>
#include <math.h>


#define INPUT_SIZE 64
#define OUTPUT_SIZE 5
#define NUMBER_OF_NEURONS 108

/* Instance array must be global
 * Attributes MUST be sorted in instance array in the following order:
 * mean_vel
 * std_vel
 * temp_ste
 * temp_mag
 * temp_roms
 * temp_mean
 * temp_tc
 * temp_zcr
 * temp_itv
 * temp_var
 * temp_std
 * temp_skewness
 * temp_kurtosis
 * temp_ce
 * temp_ce_norm
 * temp_crest
 * temp_max2min
 * temp_mag2rms
 * temp_rms2
 * temp_rssl
 * temp_mnp
 * temp_adp
 * temp_ety
 * temp_md
 * temp_iqr2
 * spec_f0
 * spec_ste
 * spec_mag
 * spec_sc
 * spec_si
 * spec_sim
 * spec_sfm
 * spec_flux
 * spec_sro
 * spec_var
 * spec_std
 * spec_skw
 * spec_kts
 * spec_max2min
 * spec_mag2rms
 * spec_mnp
 * spec_adp
 * spec_ety
 * spec_cov1
 * spec_cov2
 * spec_cov3
 * spec_peaks1
 * spec_peaks2
 * spec_peaks3
 * spec_peaks4
 * spec_peaks5
 * spec_peaks6
 * spec_peaks7
 * spec_peaks8
 * spec_peaks9
 * spec_peaks10
 * spec_peaks11
 * spec_peaks12
 * spec_power1
 * spec_power2
 * spec_power3
 * spec_power4
 * spec_power5
 * spec_iqr2
 */
float instance[INPUT_SIZE+1];

const int m_outputs[OUTPUT_SIZE] = {103, 104, 105, 107, 106};

const float m_attributeBases[INPUT_SIZE] = {0.5134620539, 0.4705027162, 0.500076116, 0.5014841207, 0.50070526525, 0.5, 0.5, 0.5, 0.5000349267, 0.500076116, 0.50070526525, 0.51070132465, 0.5, 0.5, 0.5, 0.5, 0.5000349267, 0.5, 0.50070526525, 0.50070526525, 0.5, 0.5, 0.5, 0.4776559565, 0.5, 0.5, 0.5000765911, 0.5000290775, 0.5, 0.50142342565, 0.49654404495, 0.5, 0.5, 0.5, 0.5000374995, 0.50042282755, 0.5, 0.50040122375, 0.50013668755, 0.5, 0.51923076925, 0.46704578595, 0.49049936775, 0.500076116, 0.475, 0.5, 0.5, 0.5, 0.5, 0.5, 0.5, 0.503131524, 0.5000369063, 0.50003824425, 0.50000642505, 0.5002145744, 0.4606604962, 0.5, 0.5, 0.5001490922, 0.5, 0.3920580093, 0.500318205, 0.50153515175};
const float m_attributeRanges[INPUT_SIZE] = {0.4865379461, 0.4705027162, 0.499923884, 0.4985158793, 0.49929473475, 0.5, 0.5, 0.5, 0.4999650733, 0.499923884, 0.49929473475, 0.48929867535, 0.5, 0.5, 0.5, 0.5, 0.4999650733, 0.5, 0.49929473475, 0.49929473475, 0.5, 0.5, 0.5, 0.4776559565, 0.5, 0.5, 0.4999234089, 0.4999709225, 0.5, 0.49857657435, 0.49654404495, 0.5, 0.5, 0.5, 0.4999625005, 0.49957717245, 0.5, 0.49959877625, 0.49986331245, 0.5, 0.48076923075, 0.46704578595, 0.49049936775, 0.499923884, 0.475, 0.5, 0.5, 0.5, 0.5, 0.5, 0.5, 0.496868476, 0.4999630937, 0.49996175575, 0.49999357495, 0.4997854256, 0.4605868736, 0.5, 0.5, 0.4998509078, 0.5, 0.3920580093, 0.499681795, 0.49846484825};

const float *m_weights[NUMBER_OF_NEURONS];
const int *m_connections[NUMBER_OF_NEURONS];

const int tmp_connections0[1] = {0};

const int tmp_connections1[1] = {0};

const int tmp_connections2[1] = {0};

const int tmp_connections3[1] = {0};

const int tmp_connections4[1] = {0};

const int tmp_connections5[1] = {0};

const int tmp_connections6[1] = {0};

const int tmp_connections7[1] = {0};

const int tmp_connections8[1] = {0};

const int tmp_connections9[1] = {0};

const int tmp_connections10[1] = {0};

const int tmp_connections11[1] = {0};

const int tmp_connections12[1] = {0};

const int tmp_connections13[1] = {0};

const int tmp_connections14[1] = {0};

const int tmp_connections15[1] = {0};

const int tmp_connections16[1] = {0};

const int tmp_connections17[1] = {0};

const int tmp_connections18[1] = {0};

const int tmp_connections19[1] = {0};

const int tmp_connections20[1] = {0};

const int tmp_connections21[1] = {0};

const int tmp_connections22[1] = {0};

const int tmp_connections23[1] = {0};

const int tmp_connections24[1] = {0};

const int tmp_connections25[1] = {0};

const int tmp_connections26[1] = {0};

const int tmp_connections27[1] = {0};

const int tmp_connections28[1] = {0};

const int tmp_connections29[1] = {0};

const int tmp_connections30[1] = {0};

const int tmp_connections31[1] = {0};

const int tmp_connections32[1] = {0};

const int tmp_connections33[1] = {0};

const int tmp_connections34[1] = {0};

const int tmp_connections35[1] = {0};

const int tmp_connections36[1] = {0};

const int tmp_connections37[1] = {0};

const int tmp_connections38[1] = {0};

const int tmp_connections39[1] = {0};

const int tmp_connections40[1] = {0};

const int tmp_connections41[1] = {0};

const int tmp_connections42[1] = {0};

const int tmp_connections43[1] = {0};

const int tmp_connections44[1] = {0};

const int tmp_connections45[1] = {0};

const int tmp_connections46[1] = {0};

const int tmp_connections47[1] = {0};

const int tmp_connections48[1] = {0};

const int tmp_connections49[1] = {0};

const int tmp_connections50[1] = {0};

const int tmp_connections51[1] = {0};

const int tmp_connections52[1] = {0};

const int tmp_connections53[1] = {0};

const int tmp_connections54[1] = {0};

const int tmp_connections55[1] = {0};

const int tmp_connections56[1] = {0};

const int tmp_connections57[1] = {0};

const int tmp_connections58[1] = {0};

const int tmp_connections59[1] = {0};

const int tmp_connections60[1] = {0};

const int tmp_connections61[1] = {0};

const int tmp_connections62[1] = {0};

const int tmp_connections63[1] = {0};

const float tmp_weights64[65] = {-0.99863643841, 2.39940752171, 3.39123379625, 0.577044078862, -0.754537871429, 0.440799961799, -1.37161219657, 1.00823688614, 0.0632620429676, 0.588939162894, 0.525341145519, 0.427874768741, 0.520074919559, 1.16516245516, -1.61310795786, -1.55359585921, -0.398820250002, 0.553763680169, 0.666161302803, 0.440449460781, 0.436827644201, -0.242985694507, -1.2561304905, -0.766855373818, 1.13982066011, -1.80865366313, -5.42766184301, 0.573746379758, -0.351659221482, -6.53521787918, -1.37374885116, -3.87436577128, -7.05868623431, -3.19714311105, -1.57705108254, 1.37586682137, 1.925007486, 1.87574818575, 0.0210166690637, -0.746147452231, -0.297568129065, 1.52644772836, -0.118884712279, -1.17811479164, 0.59623425528, -0.951146903726, -2.48169222456, -0.217954752226, -2.71752789092, -2.79038407113, -1.64950266883, 3.44106269155, 0.768960205522, -1.46263931814, -0.825114017399, 2.22152146042, 0.409693162668, -1.60721220042, 3.15369446997, 6.60212759061, 1.88870267047, 0.689239326165, -0.727027598935, -0.177652941883, -2.69669928561};
const int tmp_connections64[65] = {64, 0, 1, 2, 3, 4, 5, 6, 7, 8, 9, 10, 11, 12, 13, 14, 15, 16, 17, 18, 19, 20, 21, 22, 23, 24, 25, 26, 27, 28, 29, 30, 31, 32, 33, 34, 35, 36, 37, 38, 39, 40, 41, 42, 43, 44, 45, 46, 47, 48, 49, 50, 51, 52, 53, 54, 55, 56, 57, 58, 59, 60, 61, 62, 63};

const float tmp_weights65[65] = {0.238974402047, -4.47508641992, -2.35835758372, 0.694475489126, 4.20796087865, 2.31565472308, 1.08657001827, 2.25360312816, -3.1589234155, -0.683056792798, 0.704850050417, 2.35664673972, -2.61126749616, -1.72841900825, 2.26288216316, 2.19103286221, -3.54317840186, -0.610350299479, -3.73405639922, 2.38573039172, 2.34601983622, 0.572813811516, -0.868859146987, 4.49904738965, 1.00880021589, 3.65359924237, 5.02421994981, 0.748008549673, 3.36760495156, -1.79441160725, 4.71730233378, -0.809574160999, 2.56862670839, 5.70206608844, 0.0754440199958, -1.02273190474, -0.167845976749, -3.06022190071, -0.451351079377, 0.399415519651, -1.21398050824, -2.15200256495, 0.819674977611, 3.28126200537, 0.75486437543, 0.155420236647, 0.893935387442, -0.841918474317, -1.48481172888, 0.989431465212, 0.0908964691387, 0.489149433762, -0.0970001305347, -1.52689108262, 2.36502448243, -1.02140686602, -1.81053134695, 0.0555436813777, -1.00139244914, -2.49585744204, -1.40776334543, 2.55119650714, 4.34919827468, 6.22483328048, 3.73601531217};
const int tmp_connections65[65] = {64, 0, 1, 2, 3, 4, 5, 6, 7, 8, 9, 10, 11, 12, 13, 14, 15, 16, 17, 18, 19, 20, 21, 22, 23, 24, 25, 26, 27, 28, 29, 30, 31, 32, 33, 34, 35, 36, 37, 38, 39, 40, 41, 42, 43, 44, 45, 46, 47, 48, 49, 50, 51, 52, 53, 54, 55, 56, 57, 58, 59, 60, 61, 62, 63};

const float tmp_weights66[65] = {0.0896279598978, 1.37998925369, 1.46474545818, -0.231251345708, -0.501666257289, 0.140433064178, 0.104253604372, -2.85700942009, 2.422836813, 0.425339494635, -0.204905496755, 0.159395486978, -2.2701434348, 0.450739309909, -2.04210626858, -2.03738863035, 0.507247013574, 0.492998628969, 1.15935903317, 0.128268122433, 0.202126647068, 3.15323608292, -3.4487267845, 1.21268701619, -0.485703858249, 0.0760254806581, -2.52355754404, -0.180464974785, -1.058222564, -2.94146437834, -1.23597379915, -3.51796283402, -4.83092658525, -4.29032346794, 2.28905387408, 1.29204580532, 2.29327070354, 2.36009052474, -0.470884593146, 0.605597309399, 0.255316422583, 0.990592745135, -0.469591496204, -1.31771946945, -0.172620553743, 5.57071884731, -3.04370418203, 5.7797442994, -0.992963715752, -1.39097631736, 1.93639039961, 3.10728088739, -4.24149077333, -4.60226150771, -3.52320637378, 2.2273408821, 4.76213103308, -1.75583622582, 1.85590045268, 5.44982811085, 2.46620297593, -1.49600695772, 0.966255798684, -0.628596245215, -3.27207909411};
const int tmp_connections66[65] = {64, 0, 1, 2, 3, 4, 5, 6, 7, 8, 9, 10, 11, 12, 13, 14, 15, 16, 17, 18, 19, 20, 21, 22, 23, 24, 25, 26, 27, 28, 29, 30, 31, 32, 33, 34, 35, 36, 37, 38, 39, 40, 41, 42, 43, 44, 45, 46, 47, 48, 49, 50, 51, 52, 53, 54, 55, 56, 57, 58, 59, 60, 61, 62, 63};

const float tmp_weights67[65] = {-4.70354485322, 2.38302146626, 2.00814055324, 1.68438602696, -3.69510242209, -3.93712354699, -4.25598898109, 1.66529126014, 4.15660853633, -0.751884458739, 1.65938159134, -4.00545127894, -0.655801140944, 2.29633709651, -3.06814744494, -3.08864467463, -3.68310602757, -0.755937582859, -0.113529847629, -4.01048266732, -4.00770325572, 3.91655812888, 0.325364065694, 5.97857878782, -1.59899571807, -2.22564441761, 5.39952769512, 1.65388360117, -3.04999507518, 1.5260090278, -8.60540616181, 6.98199045889, -4.90200745769, -5.35727926914, -6.90979418577, 2.42830759799, -3.06264524978, -3.09204372666, 1.95021693395, -2.56530582958, -0.647174776884, 0.788522689056, 2.11447961802, 4.15153785223, 1.70146177114, 3.26441435641, 0.850099411449, -0.387477356996, -0.428607041373, -8.85992438159, 1.06986318222, -3.08112134408, 4.99559818565, 3.60127841917, 3.61367064369, 3.76751208774, 1.37455637486, 2.0527644039, 4.26282382071, 2.24583391467, 3.90270416059, 3.73463320368, 2.29993597229, 2.09474522536, -1.10129346566};
const int tmp_connections67[65] = {64, 0, 1, 2, 3, 4, 5, 6, 7, 8, 9, 10, 11, 12, 13, 14, 15, 16, 17, 18, 19, 20, 21, 22, 23, 24, 25, 26, 27, 28, 29, 30, 31, 32, 33, 34, 35, 36, 37, 38, 39, 40, 41, 42, 43, 44, 45, 46, 47, 48, 49, 50, 51, 52, 53, 54, 55, 56, 57, 58, 59, 60, 61, 62, 63};

const float tmp_weights68[65] = {1.58650213524, -0.855475772141, 4.11504734947, 0.562210740605, 2.09058655983, 2.42253680052, -3.12146074841, 1.7465148951, 1.16426012325, 0.657753225761, 0.515497589025, 2.44524073732, -3.72058175521, -1.3009592182, -0.253512428757, -0.24615187192, -0.974602605707, 0.604998683086, 0.321331925906, 2.41248399313, 2.45367796959, 1.09429520882, -1.46209907824, 0.595761254575, 1.53591613313, 1.07540932812, -4.81500255022, 0.53527108508, 1.47769825855, -3.58196450025, 2.95390925049, -8.48756540641, -0.473710144996, -4.29761515135, 0.472588513292, 0.505334524667, 2.92744008826, 3.55327199854, 0.388974881914, 2.91264868934, 1.73439372713, 2.33284875831, -3.38475097093, -4.00218727306, 0.528841432731, 4.85751423076, -2.42720593894, 4.59014197451, -1.21297334137, -3.70695135853, -2.8670694735, -1.04268365205, 1.48727756018, -4.62884552152, -0.16994748937, 1.51076220779, -0.591460297722, -2.79962009613, 1.2513487299, 8.17530612558, 0.685162795232, -1.62415404213, -1.45700552852, -0.17265193956, -1.6315882614};
const int tmp_connections68[65] = {64, 0, 1, 2, 3, 4, 5, 6, 7, 8, 9, 10, 11, 12, 13, 14, 15, 16, 17, 18, 19, 20, 21, 22, 23, 24, 25, 26, 27, 28, 29, 30, 31, 32, 33, 34, 35, 36, 37, 38, 39, 40, 41, 42, 43, 44, 45, 46, 47, 48, 49, 50, 51, 52, 53, 54, 55, 56, 57, 58, 59, 60, 61, 62, 63};

const float tmp_weights69[65] = {1.38816250927, -13.2552395003, -2.0111447251, 0.696069616479, 4.87316397012, 3.11693130845, -5.22294113716, 2.38086782333, -11.8764103214, 0.180836088807, 0.760226206835, 3.14743731386, -1.79230697876, -2.31112907751, 1.75013479635, 1.84445410424, -2.36109606243, 0.152639148043, -1.56900537263, 3.15046900952, 3.14849275685, 0.986971444891, -2.06542015684, 3.5007814945, -3.63095698966, 3.931507466, -0.368869041273, 0.717769866336, 3.71864897032, -3.43110481591, 4.8109339352, 2.34101363943, -2.20231321944, 10.760746223, 3.93370776708, -0.966060708841, 0.889827432616, -4.06407164673, -1.83690320097, 0.960968794927, -1.36023641036, -0.77926527117, -1.80539594143, 2.52015109646, 0.733281072911, -2.59934020239, 2.17497127785, -3.44810394245, -5.07654184257, -7.4040804253, -9.37360386946, 8.16765028173, -1.84021446067, -0.604215099111, 1.46049018216, -0.65446524198, 5.76518338116, 0.578728726031, 2.16219499629, -4.72523829453, -1.10952592069, 4.4830391323, 2.7386741999, 9.26441225441, 2.57797994873};
const int tmp_connections69[65] = {64, 0, 1, 2, 3, 4, 5, 6, 7, 8, 9, 10, 11, 12, 13, 14, 15, 16, 17, 18, 19, 20, 21, 22, 23, 24, 25, 26, 27, 28, 29, 30, 31, 32, 33, 34, 35, 36, 37, 38, 39, 40, 41, 42, 43, 44, 45, 46, 47, 48, 49, 50, 51, 52, 53, 54, 55, 56, 57, 58, 59, 60, 61, 62, 63};

const float tmp_weights70[65] = {-3.02130122509, -12.3187359841, -0.766284287647, 1.11826745503, 2.22860008432, 0.701376050767, 1.35420088633, 2.79493677448, 1.37166489038, -0.0180710780323, 1.058055076, 0.727711858722, -0.247219898379, 1.59781047497, 2.70168320973, 2.67885045026, -1.59844813865, -0.0321460174281, -0.520905953099, 0.69987411728, 0.760352292208, -4.32663197622, 2.97145019348, 2.92235621256, 1.09549493133, 4.52047343392, -1.09503562189, 1.12559918456, 1.86450418308, 2.60949399995, 1.56174126837, 0.937905194949, 1.34830120642, 3.75648400277, -1.89682636557, 0.147352223095, -0.522010829943, 0.976017523343, 2.55822896188, -1.23010587977, -0.533147552539, 1.27140335989, -0.147411785005, 1.95857304999, 1.12100495085, 2.466381758, -0.0893645576814, 4.84801877489, 1.58703562312, -0.899236354824, -2.49578980047, 1.42262861387, -0.964421078012, -1.25869257167, 1.47863172771, 0.847452932295, -3.48786923154, -3.16328640775, -3.36966393793, 0.163579408836, -0.284486568645, 2.956593967, -2.43639982621, 3.5794523161, -0.4119459434};
const int tmp_connections70[65] = {64, 0, 1, 2, 3, 4, 5, 6, 7, 8, 9, 10, 11, 12, 13, 14, 15, 16, 17, 18, 19, 20, 21, 22, 23, 24, 25, 26, 27, 28, 29, 30, 31, 32, 33, 34, 35, 36, 37, 38, 39, 40, 41, 42, 43, 44, 45, 46, 47, 48, 49, 50, 51, 52, 53, 54, 55, 56, 57, 58, 59, 60, 61, 62, 63};

const float tmp_weights71[65] = {2.23469421428, 8.59859313794, 5.1183830251, -0.151787102637, 0.637843300287, 1.89063761689, -3.89530390189, -3.29853085483, 3.55616294144, 2.06693493643, -0.202598385409, 1.92979230217, 1.77734871952, -0.212627618746, 0.650501070149, 0.64215249698, 1.92003275727, 2.12068627794, -2.55683942073, 1.92088645739, 1.89681772376, 5.0243341348, -5.49269794908, -1.62844421055, 5.13286929721, -0.12088469899, 8.78191368149, -0.195386496858, 1.25176221307, 0.601606352482, 3.48106542944, -3.53696987348, -2.4245552437, 0.345432439392, 2.93107607339, -0.0243117675307, 1.8701945565, 0.642506835704, -0.807353707298, 2.14340792619, 0.0578394662028, 1.02562513127, -2.9732173146, 0.465487411358, -0.215597741652, -6.27953318869, 0.098529389941, -4.05005919548, 3.40511329603, 2.01889088752, 2.87033909085, 2.78191360098, 2.98507117771, -0.386476770106, -0.872503368964, -0.601303209164, -2.34174455699, -2.94249606612, -3.34543509574, 3.04752326778, -0.404491026408, -1.09461242049, -1.46558582186, -0.493578666307, 3.18031434612};
const int tmp_connections71[65] = {64, 0, 1, 2, 3, 4, 5, 6, 7, 8, 9, 10, 11, 12, 13, 14, 15, 16, 17, 18, 19, 20, 21, 22, 23, 24, 25, 26, 27, 28, 29, 30, 31, 32, 33, 34, 35, 36, 37, 38, 39, 40, 41, 42, 43, 44, 45, 46, 47, 48, 49, 50, 51, 52, 53, 54, 55, 56, 57, 58, 59, 60, 61, 62, 63};

const float tmp_weights72[65] = {3.04321546337, -6.8353672709, -7.35065540145, 0.821540953757, 6.03366532939, 4.33526356563, -0.410075177525, 2.60500582286, -4.52112304233, -0.0320511618233, 0.827189032034, 4.37758576937, -1.83639709475, -4.30834243846, 1.63627295563, 1.60454177146, -2.9278448002, 0.000260514417852, -0.298853665144, 4.36100865984, 4.35818722262, -1.8274617796, 0.702614623283, 1.62329969916, -4.83378015884, 3.94231005753, 3.345311067, 0.876329529576, 4.52792585874, -5.44550216651, 6.4931382245, -3.27943322155, 0.458995274167, 6.42108738135, 1.85477575619, -1.12224937566, 2.0532409318, -3.83193369398, -2.61705130988, 1.41874533162, -3.29179367937, -8.69657078142, 3.98917501061, 3.90653526183, 0.833801518067, -1.82347902707, 0.87299620644, -5.96736348837, -1.06998567114, -2.11587870952, -2.65051770638, 2.66328836993, -4.84233698056, -3.85073438413, 0.623183010436, -0.448284913168, 4.36365676228, 4.37184979064, -0.0173698822033, -3.29763832114, -1.37599754166, 1.86976254175, 4.62935742676, 6.0317240372, 3.07517076461};
const int tmp_connections72[65] = {64, 0, 1, 2, 3, 4, 5, 6, 7, 8, 9, 10, 11, 12, 13, 14, 15, 16, 17, 18, 19, 20, 21, 22, 23, 24, 25, 26, 27, 28, 29, 30, 31, 32, 33, 34, 35, 36, 37, 38, 39, 40, 41, 42, 43, 44, 45, 46, 47, 48, 49, 50, 51, 52, 53, 54, 55, 56, 57, 58, 59, 60, 61, 62, 63};

const float tmp_weights73[65] = {-0.144400096683, 4.82184156473, -2.34908936768, -0.262109465226, -0.595128724094, 0.596756316258, -3.76866388994, 0.135633244997, -3.27038177311, 1.656150306, -0.274329574063, 0.576569640655, 1.64419659255, 1.05258296167, 0.826137382529, 0.780103516007, 3.90646146984, 1.60266530966, 1.66665909698, 0.580722980319, 0.547528008723, -2.4871509296, 2.12351363072, -4.45757025223, -0.826389346886, -2.13337747903, 3.44714950954, -0.233814765141, 0.474774795985, 0.173816640441, 1.58205343499, -1.83019068932, 2.2579668076, 0.0958857759009, -0.0155064133322, 0.166326218526, 0.728984167759, 1.4260533939, 0.517945204122, 0.0491683836401, -0.0509710235459, -0.813954694345, 1.20439211365, -0.0617432245483, -0.213804950939, 6.25566255231, 0.331906198235, -2.40576273355, -1.7728429201, 2.91107422952, -1.53072620387, -1.60768714714, 1.69632885895, 0.743385971543, 0.433771528861, 0.080999096081, -1.21128947332, -1.14435542233, -1.19413238234, 0.565587199226, -0.0551454299025, -0.200322938844, -1.29006568076, -0.827439930002, 0.36453409961};
const int tmp_connections73[65] = {64, 0, 1, 2, 3, 4, 5, 6, 7, 8, 9, 10, 11, 12, 13, 14, 15, 16, 17, 18, 19, 20, 21, 22, 23, 24, 25, 26, 27, 28, 29, 30, 31, 32, 33, 34, 35, 36, 37, 38, 39, 40, 41, 42, 43, 44, 45, 46, 47, 48, 49, 50, 51, 52, 53, 54, 55, 56, 57, 58, 59, 60, 61, 62, 63};

const float tmp_weights74[65] = {-0.760698570229, 1.14764377897, 0.00612836112405, 0.43168527161, -0.71325666735, 0.204193851311, -3.18813856518, 2.7301307051, -0.861321305868, 0.0525422232755, 0.449842344933, 0.283106595287, 1.42516235507, 0.946197950598, -1.46479701447, -1.42217573156, -1.32553556888, 0.0342020025663, 0.622065743914, 0.231650370182, 0.262956859816, -2.61855314555, 1.12857143415, 0.831355543238, -0.402020328196, -1.96206988782, -3.16719477177, 0.428199887111, -0.235507506751, -5.76966674589, -1.09921130469, -2.38873381131, -4.87168467766, -2.31982240124, -0.90553918343, 1.02926505135, 1.12771024102, 1.56019915571, 0.232667289314, -0.886784435718, -0.0738231827305, -0.40119801622, 1.15549736422, -1.48519802109, 0.451316110604, 0.433989838285, -2.0324972521, 0.0382954868995, -1.62718928099, -1.01144208194, -0.523932217584, 4.48074731439, 1.35164188102, -1.00121984137, 0.386207504306, 1.21384823917, -0.628659856104, -0.425076771885, 3.29585969963, 4.63458962052, 1.51699604998, 1.02029454594, -0.301677891092, -0.72435630424, -3.0373234355};
const int tmp_connections74[65] = {64, 0, 1, 2, 3, 4, 5, 6, 7, 8, 9, 10, 11, 12, 13, 14, 15, 16, 17, 18, 19, 20, 21, 22, 23, 24, 25, 26, 27, 28, 29, 30, 31, 32, 33, 34, 35, 36, 37, 38, 39, 40, 41, 42, 43, 44, 45, 46, 47, 48, 49, 50, 51, 52, 53, 54, 55, 56, 57, 58, 59, 60, 61, 62, 63};

const float tmp_weights75[65] = {-0.410157549986, -0.570456931444, -3.37556102702, 0.319829744831, -0.915405079616, 0.94741822091, 0.773012220806, -2.99549974671, 1.21523376587, 0.98207312451, 0.392254644677, 0.942302337748, 2.6209321616, 1.37771722207, -1.30151025205, -1.31276223098, 0.556851670583, 0.945398958751, 1.80812318849, 0.878576755527, 0.945070022769, -1.87694300167, 1.03654958885, -3.438174808, 0.391836497456, -1.94774395554, -1.44085652029, 0.314853596152, -0.222884225891, -5.71887304612, -0.834151158237, -4.7620044477, -7.93308253066, -3.19270119083, -1.18852118053, 1.21965643704, 2.43807924917, 1.94356885713, -0.0793981513325, -0.766066793497, -0.798890151794, -0.274527940317, 0.679314757279, -1.48658882687, 0.322451654596, 1.52453317394, -0.606368125481, -2.03805525841, -2.0990223976, -1.46691956064, -1.67687318093, 4.37199207227, 0.211247504178, -2.41848869884, -1.54253483773, 1.19979331708, 2.92135256902, -1.56693119956, 3.93042887707, 3.2979456327, 1.62997169457, -0.264140388895, 0.586020085089, 0.35572126271, -3.11837002125};
const int tmp_connections75[65] = {64, 0, 1, 2, 3, 4, 5, 6, 7, 8, 9, 10, 11, 12, 13, 14, 15, 16, 17, 18, 19, 20, 21, 22, 23, 24, 25, 26, 27, 28, 29, 30, 31, 32, 33, 34, 35, 36, 37, 38, 39, 40, 41, 42, 43, 44, 45, 46, 47, 48, 49, 50, 51, 52, 53, 54, 55, 56, 57, 58, 59, 60, 61, 62, 63};

const float tmp_weights76[65] = {0.779674090602, 15.5535622345, 3.08150436697, -2.01239795606, -2.15056610504, -2.35732987108, 3.53508728721, 0.838974850013, -1.57111387093, -1.24816053534, -2.04796869183, -2.30578806522, -0.998895026843, -1.22989754964, -2.74303217719, -2.78260553486, 1.54204990605, -1.2953276035, -0.60374549553, -2.32655914899, -2.37005441949, -0.672053453155, 3.17964857855, -2.35924417918, 2.27063526642, -2.20537381082, -4.26349222985, -1.984831796, -3.36222182692, -0.709509300054, -3.55483650998, 1.14415236998, -4.74818199813, -2.76689037509, 0.979315275509, 0.248142373595, -0.1521216911, -1.59218804882, -1.56997246791, 0.269391194422, 1.08002324616, -1.47043723131, 0.831158530968, -2.18146824508, -2.04828235529, -6.05980634446, -0.846615930305, 3.26921694776, 1.62415976251, -0.592175222893, -0.822539142101, 5.09235943706, -1.88547883368, 3.00072030404, 0.337150911896, -1.33438606346, -1.30392798427, 2.42232328688, 0.416223747677, -2.20701363139, 0.175706726953, -3.59320200547, -1.16103071546, 1.90970248662, 0.575389240469};
const int tmp_connections76[65] = {64, 0, 1, 2, 3, 4, 5, 6, 7, 8, 9, 10, 11, 12, 13, 14, 15, 16, 17, 18, 19, 20, 21, 22, 23, 24, 25, 26, 27, 28, 29, 30, 31, 32, 33, 34, 35, 36, 37, 38, 39, 40, 41, 42, 43, 44, 45, 46, 47, 48, 49, 50, 51, 52, 53, 54, 55, 56, 57, 58, 59, 60, 61, 62, 63};

const float tmp_weights77[65] = {-2.22423336008, -15.8683880154, -1.69604583942, 1.02305192675, 2.14729228562, 0.837282596037, 2.26775069121, 1.27643760774, 1.53862796495, 0.799859005046, 1.00929451314, 0.894616773817, 0.662644764006, 1.46044300869, 2.2137518806, 2.21132578143, -0.675799547184, 0.821430620949, 1.07883117738, 0.866111067146, 0.817647885946, -1.31504063114, -1.22901454125, 1.65739502003, 2.38096972506, 5.41180484718, 0.61593006892, 1.05201996, 2.33291606857, 3.04008589862, 2.91961691818, 0.213853935316, 5.65546598259, 2.51832740162, -1.58027406673, -0.642982773123, -1.49122167209, 0.127524532873, 1.94710924845, -1.33444009266, -1.12898770028, 2.54598815879, -1.59120802782, 2.36809574041, 1.04768832726, 1.15458369837, -0.159152169286, 2.41549342183, 2.42276224762, 0.517558688457, 0.0300768670958, 0.283106564449, -0.256920399646, -1.45994840861, 2.76348389012, 0.132139836246, -0.956582820866, -2.20569239728, -0.651683974347, -0.897497435389, 0.689470983738, 3.33567337589, -0.437881626073, 2.4413390092, -1.1409754263};
const int tmp_connections77[65] = {64, 0, 1, 2, 3, 4, 5, 6, 7, 8, 9, 10, 11, 12, 13, 14, 15, 16, 17, 18, 19, 20, 21, 22, 23, 24, 25, 26, 27, 28, 29, 30, 31, 32, 33, 34, 35, 36, 37, 38, 39, 40, 41, 42, 43, 44, 45, 46, 47, 48, 49, 50, 51, 52, 53, 54, 55, 56, 57, 58, 59, 60, 61, 62, 63};

const float tmp_weights78[65] = {0.0892087733061, -5.15087229719, -1.90059783036, 0.74139180237, 1.75301068359, 1.97707522739, 0.0594932669965, -0.34075502657, 2.55873049548, -0.165913446081, 0.74873671935, 1.94457988728, -1.92048450968, 0.379794580345, -0.321362509198, -0.28547564311, -2.73416816056, -0.202048748214, -2.43455259284, 1.97987832086, 1.94967317571, 0.319808367995, -0.897446263026, 3.5000518397, 0.126727977649, 1.67581417311, -3.59614053007, 0.785957946799, 1.04485267161, -2.94503419008, 1.57152305937, -4.3599154415, -3.02640861234, -1.06724567428, -1.31637857225, 1.51786415079, 3.31690865866, 2.71058117674, -0.310635546016, 2.33693579124, 0.394789146498, 3.40879871481, -2.96915170008, -1.20490806822, 0.76172258571, -4.90842091195, -2.22469406409, 1.42324946202, -2.15096853724, -3.57748003505, -0.903647619422, -0.0489902581088, 2.25337908506, -4.52104316525, -0.432047278486, 3.53107009711, 1.31018193142, -1.08308191575, 1.63744406976, 6.9156687704, 1.53257991112, 1.52403685712, -0.0248696112168, 1.90827197784, -1.57338157222};
const int tmp_connections78[65] = {64, 0, 1, 2, 3, 4, 5, 6, 7, 8, 9, 10, 11, 12, 13, 14, 15, 16, 17, 18, 19, 20, 21, 22, 23, 24, 25, 26, 27, 28, 29, 30, 31, 32, 33, 34, 35, 36, 37, 38, 39, 40, 41, 42, 43, 44, 45, 46, 47, 48, 49, 50, 51, 52, 53, 54, 55, 56, 57, 58, 59, 60, 61, 62, 63};

const float tmp_weights79[65] = {-1.29613967423, -10.4001426239, -3.84053015541, 1.06352851391, 0.714652686816, 0.648992566971, 1.97707952496, 3.93434459315, 3.20220734581, 0.262829553341, 1.07425469799, 0.612860616671, 1.40937656697, 1.71485761042, 1.36224700163, 1.36964864005, -1.28389090599, 0.250465407055, -0.48710847139, 0.647111633708, 0.599882979161, -0.831844424015, -0.391168964723, 2.29818687774, -1.23043490991, 2.26279051244, 0.942432202694, 1.06385030218, 1.35759183446, 1.17978431753, 1.34940253778, -0.638941919653, 2.7873309201, 0.0266568516718, -1.15522377579, 0.226718322259, -0.385877587699, 0.912475842394, 1.11728202717, -0.199909493725, -0.60227183984, -0.888253192434, 1.3999712728, 0.867764386077, 1.13705692103, -0.140765223881, 2.3367484637, -2.09941343558, 0.232716749293, -1.88690028051, -0.270343578136, 2.71432642429, 0.250659449284, -3.92630837399, 1.0468479408, 0.211658928278, 2.94887518519, 1.00308692858, 0.553298125349, -1.12451492837, 0.503585418755, 3.26385758343, -1.24539983666, 3.68633400488, -1.61920292961};
const int tmp_connections79[65] = {64, 0, 1, 2, 3, 4, 5, 6, 7, 8, 9, 10, 11, 12, 13, 14, 15, 16, 17, 18, 19, 20, 21, 22, 23, 24, 25, 26, 27, 28, 29, 30, 31, 32, 33, 34, 35, 36, 37, 38, 39, 40, 41, 42, 43, 44, 45, 46, 47, 48, 49, 50, 51, 52, 53, 54, 55, 56, 57, 58, 59, 60, 61, 62, 63};

const float tmp_weights80[65] = {-0.942653190323, -0.694225442267, 1.18752653129, 0.418270254601, 0.16899523494, 0.113119452947, -0.561839588761, -0.507561501797, -0.818989924138, 0.454337321601, 0.411656347482, 0.125038192753, -0.734674077523, 0.46438639352, -0.327494850101, -0.383673558534, 0.686318002382, 0.459170760632, 0.544309844353, 0.119087846921, 0.112517054887, 3.90066801034, -2.98796192954, -0.498075350445, -0.712218140051, 0.159444397201, 3.98461278185, 0.502640962484, 0.280181483705, -1.84514726075, -0.0751810356929, -0.787192780971, -0.0705949576952, -0.761994927793, 1.52406146703, 0.61923207307, -0.000227738944699, -0.832878851176, -0.0271046153843, -0.510316677493, -0.439163664433, -0.316730009663, 0.707672147314, 0.931609434874, 0.449890107897, 0.27611771362, -0.4048870238, -0.356443407753, -1.79965378758, -3.4403326203, -1.30765165387, -1.77351301321, 0.29457525545, 0.277738603849, 0.480435756659, 1.07667069512, 1.34706028552, 0.788138115353, 1.90984430654, 2.27090179421, 1.10303781257, 1.12103891527, 0.368170845817, 0.741716035533, -0.382164195495};
const int tmp_connections80[65] = {64, 0, 1, 2, 3, 4, 5, 6, 7, 8, 9, 10, 11, 12, 13, 14, 15, 16, 17, 18, 19, 20, 21, 22, 23, 24, 25, 26, 27, 28, 29, 30, 31, 32, 33, 34, 35, 36, 37, 38, 39, 40, 41, 42, 43, 44, 45, 46, 47, 48, 49, 50, 51, 52, 53, 54, 55, 56, 57, 58, 59, 60, 61, 62, 63};

const float tmp_weights81[65] = {-0.486889726812, -2.43704799202, 0.67921947452, -0.178080133547, 0.251070865496, 1.31465981734, -4.47368770904, 4.92793392715, 6.15850178628, 0.358267722988, -0.190793602949, 1.36761502017, 4.62420315264, 1.31228470145, 0.396684807197, 0.399465341424, -1.08204025179, 0.321497889038, -0.983905057944, 1.37927363312, 1.31699259832, 2.94339964402, -3.13335751333, 0.311297047446, -3.8180989583, -1.35663210547, -4.79269859575, -0.204063474087, 1.15563947679, -1.5613721465, 3.10696289269, -7.17829487759, 1.76791337821, -2.47212055369, 1.9215521289, 0.164689648386, 1.41518694302, 1.06338860181, -0.767657592584, -0.881454370205, -2.1345480327, -4.55343391884, 4.70578992719, 1.01106508524, -0.259382343191, -3.7678225329, -1.39490522054, -2.56524156004, -0.675957726236, 0.718314336515, -0.54203810936, -2.71603724825, -1.75562934645, -0.261924197672, -0.386216766688, -0.505513256272, 1.34645729747, -1.18947593988, -0.623022327758, 5.30255472896, 0.190785750096, -0.812793897791, -0.962565518447, -1.31717643631, 1.61266749175};
const int tmp_connections81[65] = {64, 0, 1, 2, 3, 4, 5, 6, 7, 8, 9, 10, 11, 12, 13, 14, 15, 16, 17, 18, 19, 20, 21, 22, 23, 24, 25, 26, 27, 28, 29, 30, 31, 32, 33, 34, 35, 36, 37, 38, 39, 40, 41, 42, 43, 44, 45, 46, 47, 48, 49, 50, 51, 52, 53, 54, 55, 56, 57, 58, 59, 60, 61, 62, 63};

const float tmp_weights82[65] = {0.306127807574, 1.22965174555, 0.485436962822, -0.274339107155, -0.400446079802, 0.219799784381, -0.240760828236, 0.391045327389, -1.56334267631, 0.459711519121, -0.305962914081, 0.192043218433, 1.66099915403, 0.406512279329, -0.752115123533, -0.719875479676, 2.11934379972, 0.448368599552, 1.50635138971, 0.179748593979, 0.150169037717, -0.573316422645, -0.0881520790304, -3.06048806377, -1.41392350369, -1.28965798189, 0.135278788625, -0.317700326435, -0.114662774044, -3.4904976299, 0.0905378221556, -1.84251743469, -1.86243938431, -0.766695282766, 1.14262707631, -0.115308313603, 0.547012822958, 1.1594936831, -0.201532889631, -0.532481252089, -0.521528710334, -1.21258385694, 1.01253625823, -0.407294507354, -0.304637753616, 0.833085782156, -0.629139926978, -0.667819858386, -1.28027162564, -0.744859766697, -0.977278541262, -0.680149837912, 1.53310553748, -0.746183356907, -0.103381768401, -0.315722188566, 0.313072636566, 0.491082846677, 0.0438244137036, 1.33305667474, 0.0328973238961, -0.138742021828, -0.415840184693, -0.500966231269, -0.435726139056};
const int tmp_connections82[65] = {64, 0, 1, 2, 3, 4, 5, 6, 7, 8, 9, 10, 11, 12, 13, 14, 15, 16, 17, 18, 19, 20, 21, 22, 23, 24, 25, 26, 27, 28, 29, 30, 31, 32, 33, 34, 35, 36, 37, 38, 39, 40, 41, 42, 43, 44, 45, 46, 47, 48, 49, 50, 51, 52, 53, 54, 55, 56, 57, 58, 59, 60, 61, 62, 63};

const float tmp_weights83[65] = {-3.28929772688, 16.992049715, 9.16987596405, -0.582414503718, -5.62213220523, -5.03638978737, -3.22664984218, -1.11052735096, 0.834177398445, 0.193270854246, -0.591161338828, -5.05504766897, 0.807997194709, 1.87420018512, -1.33898322384, -1.35918197949, 5.65308632259, 0.121690965119, 5.83490745477, -5.02688746594, -5.03320042951, 0.750849420543, 2.67080120003, -4.67403056187, 0.889101072989, -6.11837115268, 5.10374764432, -0.595722472155, -6.16277453272, 6.37632796278, -9.78475337051, 8.32547462196, -6.22412608358, -1.68416104408, 0.508070002106, 2.52018646169, -0.540944184381, 4.91457620155, 2.32038528871, -3.76459189972, -1.10370299693, 2.97464085223, 0.232731803721, 2.14572848996, -0.610039839466, -3.42661023429, -0.0142339119334, 4.85362969892, 1.84066092774, -0.816643726852, -0.0446144467844, -0.867681542195, 2.41415643159, 2.4503578918, -1.21392013047, 0.388621560838, -0.777709199101, -0.346189342693, -1.41012222171, -1.68153187279, 2.03059594467, -2.47545948463, -1.62273996757, -10.7571991058, -1.95609765676};
const int tmp_connections83[65] = {64, 0, 1, 2, 3, 4, 5, 6, 7, 8, 9, 10, 11, 12, 13, 14, 15, 16, 17, 18, 19, 20, 21, 22, 23, 24, 25, 26, 27, 28, 29, 30, 31, 32, 33, 34, 35, 36, 37, 38, 39, 40, 41, 42, 43, 44, 45, 46, 47, 48, 49, 50, 51, 52, 53, 54, 55, 56, 57, 58, 59, 60, 61, 62, 63};

const float tmp_weights84[65] = {-0.280008253608, -4.10703145275, -0.461929555823, 0.567526100302, 0.605914071712, 0.647020687211, -0.778845619146, 1.89660565092, 0.955100986851, 0.307041509127, 0.611100049341, 0.67128484274, 0.429532638677, 0.668307120352, 0.773579032723, 0.694279477389, -0.37579221974, 0.296996418485, 0.0593128237294, 0.700244564238, 0.694932606985, 0.60419899243, -1.19543612124, 0.61752935562, 0.562690294094, 0.633946651343, -0.188253912349, 0.54983142343, 0.725602261502, 0.265117606073, 0.734049801366, -0.569053143603, 0.112022207769, 0.677892521313, -0.0247033245201, 0.299367275387, 0.480123354565, 0.499137940551, 0.209471959739, 0.0113153549928, -0.527962315652, -0.118503662591, 0.253417275014, 0.677825859018, 0.556866216987, -2.23201961517, -0.337186125971, 0.582748274118, -0.462659854219, -0.568254694306, -0.154470337118, -0.671233561606, -0.451881450647, -1.02509302149, 0.297892106078, 0.60486292144, 0.338216143078, 0.260728121791, -0.0809183015329, 0.421342495959, 0.422344270749, 0.883681046582, -0.856704222539, 0.779314312059, -0.40971915722};
const int tmp_connections84[65] = {64, 0, 1, 2, 3, 4, 5, 6, 7, 8, 9, 10, 11, 12, 13, 14, 15, 16, 17, 18, 19, 20, 21, 22, 23, 24, 25, 26, 27, 28, 29, 30, 31, 32, 33, 34, 35, 36, 37, 38, 39, 40, 41, 42, 43, 44, 45, 46, 47, 48, 49, 50, 51, 52, 53, 54, 55, 56, 57, 58, 59, 60, 61, 62, 63};

const float tmp_weights85[65] = {-5.4120167641, -4.56321479511, 0.628690229161, 1.40145294688, -5.25715748422, -5.95706025556, -2.37143946624, 10.0502566682, 2.97863868171, -0.883860084978, 1.45195605498, -5.95423761754, -3.84484230633, 2.05961183372, -5.50372673527, -5.53555599392, -1.69400334225, -0.900508144035, 6.08784942517, -5.95402625088, -5.93893155247, 9.96765663527, -6.9259459554, 4.75661712493, 7.0616295429, -1.8277214462, 0.90012888139, 1.47805897447, -4.64724284333, 0.0630174858019, -11.1876595982, 9.8536012788, 0.478136939424, -7.30950003014, -7.55834025172, 2.31788911951, -5.04367122654, 2.4665278397, 7.20999632238, 0.224826698809, 9.77212053364, 1.89580489252, -0.0647949262387, -5.87212492058, 1.41172609636, 5.2945250767, 0.496526052058, 5.91626905915, -8.84366677754, -5.587641303, -2.33069903311, 4.29633291198, 0.527222656047, 3.55334747362, 3.6403752707, 5.05766270057, 0.258264551852, -2.56264512063, 7.33041930991, 2.20880766202, 5.15852410177, 4.08924599079, -0.133522111656, 2.9274801654, -4.39643543595};
const int tmp_connections85[65] = {64, 0, 1, 2, 3, 4, 5, 6, 7, 8, 9, 10, 11, 12, 13, 14, 15, 16, 17, 18, 19, 20, 21, 22, 23, 24, 25, 26, 27, 28, 29, 30, 31, 32, 33, 34, 35, 36, 37, 38, 39, 40, 41, 42, 43, 44, 45, 46, 47, 48, 49, 50, 51, 52, 53, 54, 55, 56, 57, 58, 59, 60, 61, 62, 63};

const float tmp_weights86[65] = {5.7205732971, -1.6920957123, -3.9891682196, -1.89445648828, 4.55660243676, 5.02006121835, 9.93900504166, -0.291999179138, 0.430277259598, 0.667180972789, -1.95002144299, 4.95638212535, 7.02004284088, -1.81651866559, 3.52481290195, 3.52682338745, 4.8060102399, 0.68900177095, -0.142026544683, 4.97352382098, 5.03170224675, 0.04316456652, -3.03759326889, -7.10023092864, -5.69596739804, 1.81927272645, 0.149390508207, -1.89666820564, 3.61234074524, -2.58100042414, 9.49727415906, -8.7687688815, -1.56259989625, 6.25674672375, 7.98667846308, -2.71483971391, 4.50961996178, 1.15110518752, -4.60858987365, 2.01186007032, -3.52464442549, -1.50921548655, -0.887366392251, -1.11944194975, -1.9269745743, 0.0633974010631, -1.10723267338, 2.68194606443, -1.99499768961, -2.62148471126, 1.17853474501, 3.73440873767, -0.685654369321, -3.58751874547, -4.3436379678, -4.98932438061, 0.617058384455, 0.52930837594, -5.64435962646, -1.78068372591, -4.93934445625, -4.85390780912, -1.54011730683, -3.49543019914, 3.2967936413};
const int tmp_connections86[65] = {64, 0, 1, 2, 3, 4, 5, 6, 7, 8, 9, 10, 11, 12, 13, 14, 15, 16, 17, 18, 19, 20, 21, 22, 23, 24, 25, 26, 27, 28, 29, 30, 31, 32, 33, 34, 35, 36, 37, 38, 39, 40, 41, 42, 43, 44, 45, 46, 47, 48, 49, 50, 51, 52, 53, 54, 55, 56, 57, 58, 59, 60, 61, 62, 63};

const float tmp_weights87[65] = {1.75029482044, 2.77888248542, -4.58259566177, -0.64941565158, 2.44155080153, 1.89007622874, -9.95152441241, 5.54444950164, -7.39089973587, 0.639542530176, -0.726137336429, 1.85869019071, 2.8547305013, -0.399525016053, 3.07216120923, 3.0792963264, 3.80999626118, 0.66344310459, 4.30328663455, 1.89586130952, 1.87134389774, -4.39651846129, 3.54065051775, -4.59367770182, -2.57274605071, 2.54880563038, 6.56697662333, -0.685821687325, 2.12397163044, 1.1041738658, 5.21440892577, -0.255429011371, 7.23289993984, 6.42199322349, 1.87661463509, -1.50092373614, 0.515476456658, 0.301626362552, -1.09150052165, 1.24243701781, -0.345604765976, -2.23930780894, -0.636391586065, -0.558248426461, -0.712131038239, -1.15949168027, 1.02420343967, 3.01678392851, 0.259262765114, 2.39237028716, -0.546477832299, 1.43095339625, -1.86429871393, -0.515416176493, 0.75798464904, -2.58200118602, -5.20906358974, -2.38760259087, -4.24109615884, -6.58708846349, -2.66282443006, -0.806069480334, 0.307586708106, 1.38037221184, 2.53506024228};
const int tmp_connections87[65] = {64, 0, 1, 2, 3, 4, 5, 6, 7, 8, 9, 10, 11, 12, 13, 14, 15, 16, 17, 18, 19, 20, 21, 22, 23, 24, 25, 26, 27, 28, 29, 30, 31, 32, 33, 34, 35, 36, 37, 38, 39, 40, 41, 42, 43, 44, 45, 46, 47, 48, 49, 50, 51, 52, 53, 54, 55, 56, 57, 58, 59, 60, 61, 62, 63};

const float tmp_weights88[65] = {-2.72999074653, 9.86450663972, -1.84898505367, 0.801144194906, -3.11574879523, -2.67310216891, -1.49062793019, -4.62603332715, -1.21691091451, 0.201147824695, 0.848466203923, -2.62054888924, -2.41421197123, 1.56513469537, 0.406932762685, 0.40528027679, 3.50336893966, 0.213853572655, 2.07004693825, -2.63286626672, -2.6042703936, 0.54805966745, 2.95560908759, -3.83935613081, 2.6868213365, -3.57027026016, -1.48474020301, 0.839037721932, -1.85299239355, 7.86906407208, -4.77167699654, 7.0154707982, -0.955180794529, -0.218188330912, -2.5704631707, 1.19662437903, -2.44330812842, -1.78726265119, 2.1366444427, -1.73206963184, 0.58147842592, -0.38369510306, 2.32190334585, 3.02143117251, 0.823764825958, 6.04610426211, 0.514200164443, 1.06950371639, 1.51952287148, 1.56342862989, -1.04958131007, -4.85230882758, 5.67705836241, 3.11408383217, 1.55969118091, 0.921110544267, -2.90174586721, -1.01984928385, 1.47151299694, -1.74941250993, 1.09092121622, 1.24357195762, 2.84550926523, -0.538425015612, -0.287489082114};
const int tmp_connections88[65] = {64, 0, 1, 2, 3, 4, 5, 6, 7, 8, 9, 10, 11, 12, 13, 14, 15, 16, 17, 18, 19, 20, 21, 22, 23, 24, 25, 26, 27, 28, 29, 30, 31, 32, 33, 34, 35, 36, 37, 38, 39, 40, 41, 42, 43, 44, 45, 46, 47, 48, 49, 50, 51, 52, 53, 54, 55, 56, 57, 58, 59, 60, 61, 62, 63};

const float tmp_weights89[65] = {2.68848263357, -5.78195550028, 2.01815401072, 0.926656080359, 5.37490074633, 4.14257912584, -3.43084560099, 3.08275085917, -8.87937711467, 0.0862806901918, 0.934874641096, 4.14914317112, -2.53037771637, -3.33494015759, 2.51394476839, 2.523336889, -3.35342633423, 0.0948590126103, -0.817926204535, 4.19615269539, 4.22339311972, -3.23483848, 0.156226485063, 3.38519227376, -3.03099419812, 5.20702768279, -5.76553507255, 0.943877557583, 4.57656993803, -2.72846501757, 6.42312815254, -3.51510264145, 0.330155990709, 5.60656012351, 2.48441688218, -1.30348250701, 1.43335354428, -3.78223981242, -2.05510313748, 1.6193820678, -1.6853435379, 1.87413550494, -3.77154791175, 1.37328557301, 0.949569323561, 0.801485477446, 0.598951259415, -1.89425382814, -0.0296564317508, -1.37681585544, 1.82649232747, 0.830459036016, 2.00218748442, -3.42878700342, -0.165251631375, 0.184845271775, -0.742997770729, -1.31326745644, -0.106935661368, -2.40970852498, -1.90878466376, 2.02832357889, 3.38010622261, 6.66272524471, 4.06683759959};
const int tmp_connections89[65] = {64, 0, 1, 2, 3, 4, 5, 6, 7, 8, 9, 10, 11, 12, 13, 14, 15, 16, 17, 18, 19, 20, 21, 22, 23, 24, 25, 26, 27, 28, 29, 30, 31, 32, 33, 34, 35, 36, 37, 38, 39, 40, 41, 42, 43, 44, 45, 46, 47, 48, 49, 50, 51, 52, 53, 54, 55, 56, 57, 58, 59, 60, 61, 62, 63};

const float tmp_weights90[65] = {0.923673306953, -3.93575214649, 2.31843118236, -0.313180437081, 0.302038923408, 0.772400319219, -0.726150738028, 1.10852116585, -0.134953846402, 0.188270148334, -0.29297682044, 0.73431807646, 1.03261272382, -0.143204467145, -0.0185999072455, 0.0414284628943, 0.973218455996, 0.181387452884, 0.769630432835, 0.732213941124, 0.67755158681, 0.668755660391, -1.19238876942, -1.49558015507, -0.155724485547, -0.369592927807, -1.38095544085, -0.239877201457, 0.396402810389, -2.47567181045, 1.12805481906, -2.57343764155, -1.0747330427, -0.288386933007, -1.0167144012, -0.372604359354, 0.844354763143, 1.40697019816, -0.290873242095, 0.310405359248, -0.0791308779932, -1.03736196808, 0.58480287252, -1.29483830132, -0.265726921057, 0.623416051832, -1.20137230095, 0.920567357554, 0.367468396428, -1.30085571623, 0.223387509786, 2.03070361939, 2.50350806368, -1.64469971494, -0.31184240629, -0.50812075705, -0.597244440832, -0.546771245421, -0.898451472117, 1.63207078857, -0.679148550851, -0.448328379924, -1.8109302782, -0.872791335001, -0.675320146066};
const int tmp_connections90[65] = {64, 0, 1, 2, 3, 4, 5, 6, 7, 8, 9, 10, 11, 12, 13, 14, 15, 16, 17, 18, 19, 20, 21, 22, 23, 24, 25, 26, 27, 28, 29, 30, 31, 32, 33, 34, 35, 36, 37, 38, 39, 40, 41, 42, 43, 44, 45, 46, 47, 48, 49, 50, 51, 52, 53, 54, 55, 56, 57, 58, 59, 60, 61, 62, 63};

const float tmp_weights91[65] = {-0.674042369951, -3.4601508633, -0.0565699902907, 0.495855740696, 1.60497081409, 1.27234634662, -0.507741855399, 1.95145407708, -0.515684157595, 0.922788805547, 0.532219357663, 1.3558207178, -0.565598868, -0.248320658703, 2.33300592465, 2.35795497781, 0.214692642409, 0.910357966087, -0.709416170895, 1.37009955215, 1.33572319418, 1.64455732335, -2.33165088475, -0.874335378708, 1.02992271527, 1.02440807395, 2.71468800109, 0.587992765956, 1.82037910749, 0.505508242051, 2.99814823096, -0.596405198879, 3.92408814158, 2.92980400094, 1.36894565039, -0.0493173074891, 0.248409618537, -0.357171084635, 0.237539394547, -0.116813114526, -1.1512709151, 0.129994768446, 0.0409931005854, 1.41052429287, 0.495207073944, -0.754596572413, 0.439826720541, -2.81485526947, 0.260482784904, -0.525224177919, 1.51181743862, 2.21265263759, -1.97902850438, 0.237170541194, 0.780425231195, -0.402000508071, -0.0340783345587, -1.23003467569, -1.1216279689, -1.13744873609, 0.0184393716621, 0.144143516988, -0.253947981364, 0.0411966141122, 0.705900552718};
const int tmp_connections91[65] = {64, 0, 1, 2, 3, 4, 5, 6, 7, 8, 9, 10, 11, 12, 13, 14, 15, 16, 17, 18, 19, 20, 21, 22, 23, 24, 25, 26, 27, 28, 29, 30, 31, 32, 33, 34, 35, 36, 37, 38, 39, 40, 41, 42, 43, 44, 45, 46, 47, 48, 49, 50, 51, 52, 53, 54, 55, 56, 57, 58, 59, 60, 61, 62, 63};

const float tmp_weights92[65] = {0.183389914554, -7.83351090778, 4.07413482434, -0.117597050238, 0.692092849303, 0.473080829848, 1.94847427275, 3.58991027245, 3.55017012414, 0.453186153368, -0.155971137879, 0.542665002084, 0.0566320869359, -0.2121597599, 1.16275801648, 1.13146824696, 0.91375839991, 0.400195773945, -1.61252435462, 0.537720794801, 0.533392200119, 0.917493076249, -1.0625711202, -1.49079695594, 3.54545710797, 1.10776616007, -0.76417662515, -0.17424449457, 0.482660454797, 2.13516229725, 1.22977882043, 0.324675056942, 0.254948924211, 1.95742499441, 1.43984811999, -0.286334774099, 0.378141255645, 1.87980576715, 1.04231374565, 1.7695322285, 1.86197348318, -0.837060775491, -0.168456341398, -3.17314938141, -0.0911611936854, 1.3425681498, 1.78990723375, -1.74897588925, 1.71387796412, 1.90259805808, -0.583180325309, 3.04529013695, -1.6278730191, -0.153629631152, 0.250819434999, -0.416699227942, -0.878020067781, -1.51953975767, -3.42011165969, -2.92675633636, -0.566046607774, -0.13094576251, -0.360650111478, 1.2807548811, -0.0220779307294};
const int tmp_connections92[65] = {64, 0, 1, 2, 3, 4, 5, 6, 7, 8, 9, 10, 11, 12, 13, 14, 15, 16, 17, 18, 19, 20, 21, 22, 23, 24, 25, 26, 27, 28, 29, 30, 31, 32, 33, 34, 35, 36, 37, 38, 39, 40, 41, 42, 43, 44, 45, 46, 47, 48, 49, 50, 51, 52, 53, 54, 55, 56, 57, 58, 59, 60, 61, 62, 63};

const float tmp_weights93[65] = {-6.81272739099, 8.31096691095, 5.52995415129, 2.33605413338, -5.79366908363, -6.10230091966, 3.38339950674, -0.541118682349, 2.46491448436, -0.674743994228, 2.34310938009, -6.09436618296, -5.71083751349, 3.09405192121, -4.80464797555, -4.83524551874, -1.68897075755, -0.642558865662, -0.545846587939, -6.08882699725, -6.10039092879, 1.19643794955, 3.59172884447, 4.74296862092, 7.79217033496, -1.93685307587, -2.35114843812, 2.41548506716, -4.24755866351, 3.03709025551, -11.2446713582, 11.5519731814, 2.64981700833, -7.49388872634, -7.54131155053, 3.24404273953, -5.43519942975, -3.25248411769, 3.73655675236, -3.08700815946, 0.987524182658, 0.795246633113, 1.76813412442, 3.5072819618, 2.40264124629, 2.42876888589, 2.0947078608, -7.05335272086, 2.31276125646, 5.66296280397, 1.91032790814, -1.1304924874, 0.647144500646, 6.71965157663, 4.00668177645, 4.61148533997, 1.21192829141, -0.914983654403, 5.7219554994, 0.35821136151, 5.39635740514, 4.55681951833, 4.26314928867, 5.30478084057, -1.48631492705};
const int tmp_connections93[65] = {64, 0, 1, 2, 3, 4, 5, 6, 7, 8, 9, 10, 11, 12, 13, 14, 15, 16, 17, 18, 19, 20, 21, 22, 23, 24, 25, 26, 27, 28, 29, 30, 31, 32, 33, 34, 35, 36, 37, 38, 39, 40, 41, 42, 43, 44, 45, 46, 47, 48, 49, 50, 51, 52, 53, 54, 55, 56, 57, 58, 59, 60, 61, 62, 63};

const float tmp_weights94[65] = {0.894460628408, 3.1584251109, 3.94274045051, -0.495002721681, -0.787385433309, 0.549075461186, 9.1519049888, 0.745457841603, 2.25055140279, 0.0806608777372, -0.412356771922, 0.58198698572, 5.6378841026, 1.3097448319, 0.351059076581, 0.325675913912, 1.68548363183, 0.0687208825985, 0.226786635279, 0.532884653555, 0.523822965814, 0.330603456362, -0.757284356841, -3.34378773224, -0.312162009502, -2.82415984056, -3.95848201457, -0.494336394126, -0.0717197228848, -1.89845773485, 0.36191574659, -2.72021761782, -4.84450654311, 0.263051819423, 0.0179332503218, -0.264336486004, 1.14583859426, -0.230148263499, -0.831997669982, 0.508229679762, 0.489747718638, 2.23292663857, -2.76376866035, -0.450722652114, -0.450018266188, 4.05538476756, -0.238220297146, 1.1161117935, -0.729520158882, -0.120279247684, -3.91469133964, -2.52954601423, 3.12234386258, 1.0831346995, 1.15953042804, -0.321243675303, -3.47880644483, 3.67329257444, -0.133577606938, 0.886218979474, -1.17935636435, -0.575324952449, -1.91233932585, -2.85459396008, 2.02310537321};
const int tmp_connections94[65] = {64, 0, 1, 2, 3, 4, 5, 6, 7, 8, 9, 10, 11, 12, 13, 14, 15, 16, 17, 18, 19, 20, 21, 22, 23, 24, 25, 26, 27, 28, 29, 30, 31, 32, 33, 34, 35, 36, 37, 38, 39, 40, 41, 42, 43, 44, 45, 46, 47, 48, 49, 50, 51, 52, 53, 54, 55, 56, 57, 58, 59, 60, 61, 62, 63};

const float tmp_weights95[65] = {-3.64020381081, 4.87292296247, -1.70563598564, 1.40103848486, -2.3023046272, -2.40005622144, -1.2298727811, -3.66353030891, 0.0533737526581, 0.241009189832, 1.47052119203, -2.46294696355, -2.18135160114, 1.68892578025, -1.17879177592, -1.2001355297, -0.763975191389, 0.227888404334, -0.116398059673, -2.3763666523, -2.4022230405, 0.857313906654, 1.19588033516, 2.47638505055, 0.482774726652, -0.805029221204, 0.477257163109, 1.46577846467, -1.6829351743, 5.08755010695, -4.68479460468, 6.15687188074, 2.14822142751, -2.22045619647, -1.76970539873, 1.96521302487, -2.08009713741, -0.707212402546, 2.76920710439, -0.845411975762, 0.757922969863, 1.57098744783, 0.347253464519, 2.30248679091, 1.39258497812, -1.8424202742, 1.18293987478, 0.575802613258, 0.0125144386009, 2.39695985516, 1.19500370413, -2.52741301231, -2.04649993859, 3.53946025748, 1.94258032949, 2.90139567378, 0.297930975464, 0.448293840066, 3.54142449664, 0.21583641706, 2.84051779185, 2.48089237731, 1.9129482906, 2.01709819103, -1.08090051093};
const int tmp_connections95[65] = {64, 0, 1, 2, 3, 4, 5, 6, 7, 8, 9, 10, 11, 12, 13, 14, 15, 16, 17, 18, 19, 20, 21, 22, 23, 24, 25, 26, 27, 28, 29, 30, 31, 32, 33, 34, 35, 36, 37, 38, 39, 40, 41, 42, 43, 44, 45, 46, 47, 48, 49, 50, 51, 52, 53, 54, 55, 56, 57, 58, 59, 60, 61, 62, 63};

const float tmp_weights96[65] = {1.82375318771, 0.017132892156, 2.33559596023, 0.172000176643, 1.73785751851, 2.3945859805, 5.19165767859, 1.8038251161, 0.967313703535, 1.15966974786, 0.150683919521, 2.42199972389, -1.81056024565, -1.89793294564, -0.301996187441, -0.25976007114, 1.42978858146, 1.20867616636, 2.31406534779, 2.35445093008, 2.36587475631, -0.00394745136538, -1.26421379042, -2.67038140287, -0.439616177478, 0.821374257314, -5.67905074416, 0.159996470713, 1.63846223547, -4.19391000118, 2.98171687135, -6.25054304856, -1.96365177481, -0.905793285063, 0.0614659028358, -0.0226738833891, 2.40382988521, 0.615611330737, -0.830731847196, 2.05734163882, 0.138399075663, 1.33711217626, -2.07746537883, -2.4379787093, 0.121111900622, -0.897265398392, -0.579662257572, -0.202301621332, -1.1741229395, -1.90005107042, -0.297632930801, -0.12197437728, 1.03082557519, -2.33984763107, -1.96120542418, 1.08515549605, -0.609675725665, -1.7567928411, 1.39283733425, 2.65130400345, -0.0134016252926, -0.72153163281, 0.524949488009, 0.298996182913, -0.711933566376};
const int tmp_connections96[65] = {64, 0, 1, 2, 3, 4, 5, 6, 7, 8, 9, 10, 11, 12, 13, 14, 15, 16, 17, 18, 19, 20, 21, 22, 23, 24, 25, 26, 27, 28, 29, 30, 31, 32, 33, 34, 35, 36, 37, 38, 39, 40, 41, 42, 43, 44, 45, 46, 47, 48, 49, 50, 51, 52, 53, 54, 55, 56, 57, 58, 59, 60, 61, 62, 63};

const float tmp_weights97[65] = {-6.70900439064, -3.55802061793, 10.6972519681, 1.7365452173, -6.56154752713, -7.05125149215, -5.3322542802, 2.08841089178, 4.13425575379, -0.914387101982, 1.72279807943, -7.0444915325, -8.2610327636, 1.79502301449, -5.33820043514, -5.3482331492, -3.41450493279, -0.985693830131, 1.36917260083, -7.07565423646, -7.0661878211, 0.00919559628754, 1.62841895156, 5.20835225776, 0.921452247246, -2.59032002082, -2.71351034433, 1.73638126161, -5.22492896588, 11.5540451899, -12.8673186826, 12.8663229231, -3.52596211037, -7.79408997663, -4.76848195993, 2.80099260202, -6.26559355343, -3.24650602862, 5.39984607705, -2.54922054234, 4.57214468767, 5.07475269303, -2.36616767273, 2.06728814096, 1.69134980387, -10.1206771457, 0.584386506082, 11.1634052764, 0.540818450712, -2.67653209753, 1.79905087872, 4.80339700813, -0.0687037946125, 5.20740899152, 4.31338891527, 6.21558343756, -0.362492609218, 0.164909291881, 7.74605361484, 0.979078798496, 6.03634925997, 4.95561878428, 0.32499089713, 3.72744072539, -3.12972746893};
const int tmp_connections97[65] = {64, 0, 1, 2, 3, 4, 5, 6, 7, 8, 9, 10, 11, 12, 13, 14, 15, 16, 17, 18, 19, 20, 21, 22, 23, 24, 25, 26, 27, 28, 29, 30, 31, 32, 33, 34, 35, 36, 37, 38, 39, 40, 41, 42, 43, 44, 45, 46, 47, 48, 49, 50, 51, 52, 53, 54, 55, 56, 57, 58, 59, 60, 61, 62, 63};

const float tmp_weights98[35] = {-6.73450378351, -6.67783805836, 6.07824604599, -6.83323456036, -2.9951641956, -1.88033660487, 7.67738011882, -7.28411863877, 3.62398917175, 6.43492604231, -4.16112848502, -5.79878479583, -2.82913751192, 7.74931729577, -7.23869231125, -8.94948511565, -6.82345652288, 1.05685728461, -2.82843530007, -2.2970731061, -11.225471014, 0.355567962231, 1.04705889842, -7.50995764721, 2.75683919323, -8.14295653361, 5.87578619579, 0.548950577573, -3.35703217789, -1.10547971037, -1.39904931875, 4.85020296538, -1.97112633765, 2.75358104317, 3.10004534629};
const int tmp_connections98[35] = {34, 64, 65, 66, 67, 68, 69, 70, 71, 72, 73, 74, 75, 76, 77, 78, 79, 80, 81, 82, 83, 84, 85, 86, 87, 88, 89, 90, 91, 92, 93, 94, 95, 96, 97};

const float tmp_weights99[35] = {-2.48600153878, -5.66113764344, -7.57715125289, -4.05746013822, -5.05747029005, -11.8525204931, -6.58637773497, 0.514036316262, 5.56990197645, -7.44329185574, 5.93859863257, -1.01028585125, -12.4374837088, 1.99074391713, -1.89240300176, -2.73863364032, -1.00281363673, -2.87008267965, 4.48291437042, 1.44225942259, 5.89436956615, -2.20064500796, -5.98299786697, 4.6917698651, 3.5173276805, -4.87210887509, -8.0270038681, 2.150538949, -3.96144979532, 3.99426490974, -6.50020299637, 5.6903695571, -2.83512805604, -7.72953938061, -5.99985086704};
const int tmp_connections99[35] = {34, 64, 65, 66, 67, 68, 69, 70, 71, 72, 73, 74, 75, 76, 77, 78, 79, 80, 81, 82, 83, 84, 85, 86, 87, 88, 89, 90, 91, 92, 93, 94, 95, 96, 97};

const float tmp_weights100[35] = {-3.70478782033, -1.73503593207, -2.01111181757, 2.54470473132, -1.11650529289, 1.16196437582, -0.648503254011, 6.16179457167, -5.99489494908, -0.637793146341, -2.00208426174, -2.4787513995, -1.32656438001, -8.54157981633, 5.77665989608, 6.90422897369, 6.69673352039, -1.79829668602, -0.515343684178, 0.269119557965, -1.94400145414, 3.39810505869, -0.817524161506, -2.22199581104, -3.29858766138, -1.63665975022, 0.363649160362, 1.74752244488, 3.34655235423, 2.6069128903, -0.713777529876, -4.12283179147, -1.38553346079, -1.52165788179, -0.852317153449};
const int tmp_connections100[35] = {34, 64, 65, 66, 67, 68, 69, 70, 71, 72, 73, 74, 75, 76, 77, 78, 79, 80, 81, 82, 83, 84, 85, 86, 87, 88, 89, 90, 91, 92, 93, 94, 95, 96, 97};

const float tmp_weights101[35] = {-3.1541277131, -7.48667708245, -2.01435588861, 4.00321548607, 5.12523658122, -2.73990110417, -1.65766244133, -1.35097409707, -6.04697002615, -1.37427168247, -5.26244203647, -4.82817855366, -3.29386024907, -2.28610071633, -1.07233580055, -1.97906919583, -1.23626318418, 2.83919245631, -5.31268950276, -2.88589996837, 0.439613948041, -1.36648692683, 6.17131560301, -4.51948477387, -3.80511973439, 4.89104180678, -1.57306044117, -2.00252167985, -2.45913181993, -4.19797959843, 6.23710395051, -5.55449424142, 2.73854771781, -2.10718604144, 6.30357229172};
const int tmp_connections101[35] = {34, 64, 65, 66, 67, 68, 69, 70, 71, 72, 73, 74, 75, 76, 77, 78, 79, 80, 81, 82, 83, 84, 85, 86, 87, 88, 89, 90, 91, 92, 93, 94, 95, 96, 97};

const float tmp_weights102[35] = {-1.96335362533, 4.18890625597, -3.9520760604, 5.50609315337, -2.82432916007, 9.50735369985, -4.04755525052, -3.68237569231, -3.37687454705, -4.07813863642, 0.539573635918, 6.43691247414, 6.32380345496, -1.7176834014, -0.131234528782, 2.69772553898, -1.03082026266, 1.09052454079, 0.74954839985, -0.120007374972, -4.4693394628, 1.16079850303, 0.846399153709, -2.81823013062, -4.28354379965, -5.84649420735, -2.53929245091, 2.44822582081, -0.897983110358, -5.22303434384, -3.84147614782, -4.13059856444, -4.05022053064, 2.49634316144, 4.09150605009};
const int tmp_connections102[35] = {34, 64, 65, 66, 67, 68, 69, 70, 71, 72, 73, 74, 75, 76, 77, 78, 79, 80, 81, 82, 83, 84, 85, 86, 87, 88, 89, 90, 91, 92, 93, 94, 95, 96, 97};

const float tmp_weights103[2] = {0, 1};
const int tmp_connections103[2] = {1, 98};

const float tmp_weights104[2] = {0, 1};
const int tmp_connections104[2] = {1, 99};

const float tmp_weights105[2] = {0, 1};
const int tmp_connections105[2] = {1, 100};

const float tmp_weights106[2] = {0, 1};
const int tmp_connections106[2] = {1, 101};

const float tmp_weights107[2] = {0, 1};
const int tmp_connections107[2] = {1, 102};

const bool sigmoids[NUMBER_OF_NEURONS] = {false, false, false, false, false, false, false, false, false, false, false, false, false, false, false, false, false, false, false, false, false, false, false, false, false, false, false, false, false, false, false, false, false, false, false, false, false, false, false, false, false, false, false, false, false, false, false, false, false, false, false, false, false, false, false, false, false, false, false, false, false, false, false, false, true, true, true, true, true, true, true, true, true, true, true, true, true, true, true, true, true, true, true, true, true, true, true, true, true, true, true, true, true, true, true, true, true, true, true, true, true, true, true, false, false, false, false, false};

float m_value[NUMBER_OF_NEURONS];

/* Before every classification, all elements in m_calculated array need to be set to false */
bool m_calculated[NUMBER_OF_NEURONS];

/* Function calculateOutput description:
 * Returns the output value from a neuron
 */
inline void calculateOutput(){
	for (int i = 0; i < INPUT_SIZE; i++){
		m_value[i] = instance[i];
	}

	for (int i = INPUT_SIZE; i < NUMBER_OF_NEURONS; i++){
		float value = m_weights[i][0];
		for (int j = 0; j < m_connections[i][0]; j++){
			value += m_weights[i][j+1] * m_value[m_connections[i][j+1]];
		}
		if (sigmoids[i]){
			if (value < -45.0)
				value = 0.0;
			else if (value > 45.0)
				value = 1.0;
			else{
				value = 1.0 / (1.0 + exp(-value));
			}
		}
		m_value[i] = value;
	}
}

/* Function classify description:
 * Instance array must be initializated, with appropriated attributes, before calling this function
 * Output number 0 means that the instance was classified as 'ruim'
 * Output number 1 means that the instance was classified as 'regular'
 * Output number 2 means that the instance was classified as 'pessimo'
 * Output number 3 means that the instance was classified as 'obstaculos'
 * Output number 4 means that the instance was classified as 'bom'
 */
int classify(){
	float theArray[OUTPUT_SIZE];
	for (int i = 0; i < INPUT_SIZE; i++){
		if (m_attributeRanges[i] != 0){
			instance[i] = (instance[i] - m_attributeBases[i]) / m_attributeRanges[i];
		}
		else{
			instance[i] = (instance[i] - m_attributeBases[i]);
		}
	}
	calculateOutput();
	for (int i = 0; i < OUTPUT_SIZE; i++){
		theArray[i] = m_value[m_outputs[i]];
	}
	float maxValue = -1.0;
	int indexMax = -1;
	for (int i = 0; i < OUTPUT_SIZE; i++){
		if (theArray[i] > maxValue){
			maxValue = theArray[i];
			indexMax = i;
		}
	}
	return indexMax;
}

void initConnections(){
	m_connections[0] = tmp_connections0;
	m_connections[1] = tmp_connections1;
	m_connections[2] = tmp_connections2;
	m_connections[3] = tmp_connections3;
	m_connections[4] = tmp_connections4;
	m_connections[5] = tmp_connections5;
	m_connections[6] = tmp_connections6;
	m_connections[7] = tmp_connections7;
	m_connections[8] = tmp_connections8;
	m_connections[9] = tmp_connections9;
	m_connections[10] = tmp_connections10;
	m_connections[11] = tmp_connections11;
	m_connections[12] = tmp_connections12;
	m_connections[13] = tmp_connections13;
	m_connections[14] = tmp_connections14;
	m_connections[15] = tmp_connections15;
	m_connections[16] = tmp_connections16;
	m_connections[17] = tmp_connections17;
	m_connections[18] = tmp_connections18;
	m_connections[19] = tmp_connections19;
	m_connections[20] = tmp_connections20;
	m_connections[21] = tmp_connections21;
	m_connections[22] = tmp_connections22;
	m_connections[23] = tmp_connections23;
	m_connections[24] = tmp_connections24;
	m_connections[25] = tmp_connections25;
	m_connections[26] = tmp_connections26;
	m_connections[27] = tmp_connections27;
	m_connections[28] = tmp_connections28;
	m_connections[29] = tmp_connections29;
	m_connections[30] = tmp_connections30;
	m_connections[31] = tmp_connections31;
	m_connections[32] = tmp_connections32;
	m_connections[33] = tmp_connections33;
	m_connections[34] = tmp_connections34;
	m_connections[35] = tmp_connections35;
	m_connections[36] = tmp_connections36;
	m_connections[37] = tmp_connections37;
	m_connections[38] = tmp_connections38;
	m_connections[39] = tmp_connections39;
	m_connections[40] = tmp_connections40;
	m_connections[41] = tmp_connections41;
	m_connections[42] = tmp_connections42;
	m_connections[43] = tmp_connections43;
	m_connections[44] = tmp_connections44;
	m_connections[45] = tmp_connections45;
	m_connections[46] = tmp_connections46;
	m_connections[47] = tmp_connections47;
	m_connections[48] = tmp_connections48;
	m_connections[49] = tmp_connections49;
	m_connections[50] = tmp_connections50;
	m_connections[51] = tmp_connections51;
	m_connections[52] = tmp_connections52;
	m_connections[53] = tmp_connections53;
	m_connections[54] = tmp_connections54;
	m_connections[55] = tmp_connections55;
	m_connections[56] = tmp_connections56;
	m_connections[57] = tmp_connections57;
	m_connections[58] = tmp_connections58;
	m_connections[59] = tmp_connections59;
	m_connections[60] = tmp_connections60;
	m_connections[61] = tmp_connections61;
	m_connections[62] = tmp_connections62;
	m_connections[63] = tmp_connections63;
	m_weights[64] = tmp_weights64;
	m_connections[64] = tmp_connections64;
	m_weights[65] = tmp_weights65;
	m_connections[65] = tmp_connections65;
	m_weights[66] = tmp_weights66;
	m_connections[66] = tmp_connections66;
	m_weights[67] = tmp_weights67;
	m_connections[67] = tmp_connections67;
	m_weights[68] = tmp_weights68;
	m_connections[68] = tmp_connections68;
	m_weights[69] = tmp_weights69;
	m_connections[69] = tmp_connections69;
	m_weights[70] = tmp_weights70;
	m_connections[70] = tmp_connections70;
	m_weights[71] = tmp_weights71;
	m_connections[71] = tmp_connections71;
	m_weights[72] = tmp_weights72;
	m_connections[72] = tmp_connections72;
	m_weights[73] = tmp_weights73;
	m_connections[73] = tmp_connections73;
	m_weights[74] = tmp_weights74;
	m_connections[74] = tmp_connections74;
	m_weights[75] = tmp_weights75;
	m_connections[75] = tmp_connections75;
	m_weights[76] = tmp_weights76;
	m_connections[76] = tmp_connections76;
	m_weights[77] = tmp_weights77;
	m_connections[77] = tmp_connections77;
	m_weights[78] = tmp_weights78;
	m_connections[78] = tmp_connections78;
	m_weights[79] = tmp_weights79;
	m_connections[79] = tmp_connections79;
	m_weights[80] = tmp_weights80;
	m_connections[80] = tmp_connections80;
	m_weights[81] = tmp_weights81;
	m_connections[81] = tmp_connections81;
	m_weights[82] = tmp_weights82;
	m_connections[82] = tmp_connections82;
	m_weights[83] = tmp_weights83;
	m_connections[83] = tmp_connections83;
	m_weights[84] = tmp_weights84;
	m_connections[84] = tmp_connections84;
	m_weights[85] = tmp_weights85;
	m_connections[85] = tmp_connections85;
	m_weights[86] = tmp_weights86;
	m_connections[86] = tmp_connections86;
	m_weights[87] = tmp_weights87;
	m_connections[87] = tmp_connections87;
	m_weights[88] = tmp_weights88;
	m_connections[88] = tmp_connections88;
	m_weights[89] = tmp_weights89;
	m_connections[89] = tmp_connections89;
	m_weights[90] = tmp_weights90;
	m_connections[90] = tmp_connections90;
	m_weights[91] = tmp_weights91;
	m_connections[91] = tmp_connections91;
	m_weights[92] = tmp_weights92;
	m_connections[92] = tmp_connections92;
	m_weights[93] = tmp_weights93;
	m_connections[93] = tmp_connections93;
	m_weights[94] = tmp_weights94;
	m_connections[94] = tmp_connections94;
	m_weights[95] = tmp_weights95;
	m_connections[95] = tmp_connections95;
	m_weights[96] = tmp_weights96;
	m_connections[96] = tmp_connections96;
	m_weights[97] = tmp_weights97;
	m_connections[97] = tmp_connections97;
	m_weights[98] = tmp_weights98;
	m_connections[98] = tmp_connections98;
	m_weights[99] = tmp_weights99;
	m_connections[99] = tmp_connections99;
	m_weights[100] = tmp_weights100;
	m_connections[100] = tmp_connections100;
	m_weights[101] = tmp_weights101;
	m_connections[101] = tmp_connections101;
	m_weights[102] = tmp_weights102;
	m_connections[102] = tmp_connections102;
	m_weights[103] = tmp_weights103;
	m_connections[103] = tmp_connections103;
	m_weights[104] = tmp_weights104;
	m_connections[104] = tmp_connections104;
	m_weights[105] = tmp_weights105;
	m_connections[105] = tmp_connections105;
	m_weights[106] = tmp_weights106;
	m_connections[106] = tmp_connections106;
	m_weights[107] = tmp_weights107;
	m_connections[107] = tmp_connections107;
}
