//
// #include <Arduino.h>
// #include <math.h>
//
//
// #define INPUT_SIZE 128
// #define CLASS_INDEX 128
// #define OUTPUT_SIZE 6
// #define NUMBER_OF_NEURONS 207
//
// static int map_output[] = {1, 3, 2, 5, 4, 6};
//
// /* Instance array must be global
//  * Attributes MUST be sorted in instance array in the following order:
//  * V1
//  * V2
//  * V3
//  * V4
//  * V5
//  * V6
//  * V7
//  * V8
//  * V9
//  * V10
//  * V11
//  * V12
//  * V13
//  * V14
//  * V15
//  * V16
//  * V17
//  * V18
//  * V19
//  * V20
//  * V21
//  * V22
//  * V23
//  * V24
//  * V25
//  * V26
//  * V27
//  * V28
//  * V29
//  * V30
//  * V31
//  * V32
//  * V33
//  * V34
//  * V35
//  * V36
//  * V37
//  * V38
//  * V39
//  * V40
//  * V41
//  * V42
//  * V43
//  * V44
//  * V45
//  * V46
//  * V47
//  * V48
//  * V49
//  * V50
//  * V51
//  * V52
//  * V53
//  * V54
//  * V55
//  * V56
//  * V57
//  * V58
//  * V59
//  * V60
//  * V61
//  * V62
//  * V63
//  * V64
//  * V65
//  * V66
//  * V67
//  * V68
//  * V69
//  * V70
//  * V71
//  * V72
//  * V73
//  * V74
//  * V75
//  * V76
//  * V77
//  * V78
//  * V79
//  * V80
//  * V81
//  * V82
//  * V83
//  * V84
//  * V85
//  * V86
//  * V87
//  * V88
//  * V89
//  * V90
//  * V91
//  * V92
//  * V93
//  * V94
//  * V95
//  * V96
//  * V97
//  * V98
//  * V99
//  * V100
//  * V101
//  * V102
//  * V103
//  * V104
//  * V105
//  * V106
//  * V107
//  * V108
//  * V109
//  * V110
//  * V111
//  * V112
//  * V113
//  * V114
//  * V115
//  * V116
//  * V117
//  * V118
//  * V119
//  * V120
//  * V121
//  * V122
//  * V123
//  * V124
//  * V125
//  * V126
//  * V127
//  * V128
//  */
// float instance[INPUT_SIZE+1];
//
// const int m_outputs[OUTPUT_SIZE] = {201, 203, 202, 205, 204, 206};
//
// const float m_attributeBases[INPUT_SIZE] = {326964.87455, 670.0279035, 83.53996, 113.3097785, 496.802703, -65.669907, -102.7130845, -774.7312145, 243041.6758, 836.2741925, 65.727395, 160.6412695, 990.5394515, -44.270181, -104.5651445, -859.285813, 24014.8792, 18.256582, 25.0716275, 180.357425, 1615.670993, -9.315205, -37.482799, -175.0714465, 21735.8764, 72.486822, 84.624021, 365.4619775, 6002.809493, -21.0761855, -201.5198475, -1470.9561125, 6395.2206, 172.4833885, 9.9062455, 52.1934655, 240.8319685, -6.282905, -65.073419, -439.0007115, 6003.50605, 15582.907298, 11.0563455, 59.058867, 218.7329635, -1.9418475, -14.7834245, -85.771904, 32276.7866, 4114.627168, 19.045077, 89.945022, 197.3207475, -13.311708, -26.920117, -164.113057, 33300.3996, 8121.4434645, 21.7746215, 103.5324535, 168.3454705, -14.160015, -29.691076, -208.3952675, 229708.41405, 55.2154755, 60.0635315, 84.5766915, 197.777354, -40.190952, -70.7419035, -609.395862, 243266.04245, 49.3953965, 61.784843, 85.3831235, 157.575914, -42.7168655, -66.499936, -469.836769, 38111.4207, 21.356287, 13.348249, 27.6018655, 82.8345135, -11.682342, -22.4736425, -117.3080205, 29393.28685, 19.0098635, 9.2484005, 21.48386, 92.904866, -9.033233, -17.675824, -74.7757155, 7126.95275, 6.876206, 3.276624, 25.063471, 98.428218, -2.121323, -4.8494405, -45.736967, 6676.5937, 7.1597085, 2.746706, 26.2779765, 104.79445, -1.8970515, -4.707644, -38.053261, 49104.2804, 22.2790435, 19.668373, 49.3549225, 170.18451, -18.0866835, -33.399122, -235.3808075, 41015.54445, 21.519131, 16.1035075, 148.618684, 97.680702, -15.104864, -25.996142, -200.8971645};
// const float m_attributeRanges[INPUT_SIZE] = {343722.47315, 669.8513795, 83.539791, 113.3096785, 496.802603, 65.662966, 124.9146735, 890.0043615, 259161.1367, 836.0890285, 65.722237, 160.6101515, 990.5393515, 44.253597, 115.7459735, 975.79136, 46125.6057, 18.029686, 25.0698895, 180.34955, 1615.567569, 9.303159, 41.794255, 180.4034835, 45396.5112, 72.027305, 84.623921, 365.4618775, 6002.809393, 21.0761855, 205.0564115, 1475.5254445, 7719.1108, 171.7870215, 9.9031715, 52.1534385, 240.5587185, 6.279333, 66.624488, 441.0979285, 7796.71355, 15582.262287, 11.0518295, 59.024566, 218.4480435, 1.9367205, 16.4163885, 87.917943, 49871.0171, 4114.088895, 19.043582, 89.927852, 197.2014395, 13.296475, 33.768721, 173.020177, 52273.8059, 8120.9039845, 21.7699125, 103.5323535, 168.3453705, 14.142712, 37.500391, 218.4668085, 234149.70695, 54.6804015, 60.0615675, 84.5727235, 197.742546, 40.178112, 78.6346855, 676.238276, 246753.98095, 48.8013855, 61.782122, 85.3830235, 157.575814, 42.7145705, 75.391414, 543.553992, 48071.2371, 20.669109, 13.348149, 27.6017655, 82.8344135, 11.668258, 26.5492875, 122.5080215, 37835.01145, 18.3259515, 9.2450285, 21.45047, 92.904766, 9.017467, 20.779624, 78.9270205, 8172.29115, 6.047508, 3.268832, 25.004338, 98.116001, 2.118898, 6.5424385, 48.119554, 7848.1553, 6.3390985, 2.744758, 26.2234845, 104.413494, 1.8891535, 6.494698, 41.109006, 58335.3995, 21.5613985, 19.666668, 49.3322805, 169.801146, 18.0769165, 42.670078, 246.8972255, 49313.09325, 20.807019, 16.1000935, 148.607196, 97.561853, 15.101047, 32.847934, 209.2551325};
//
// const float *m_weights[NUMBER_OF_NEURONS];
// const int *m_connections[NUMBER_OF_NEURONS];
//
// const int tmp_connections0[1] = {0};
//
// const int tmp_connections1[1] = {0};
//
// const int tmp_connections2[1] = {0};
//
// const int tmp_connections3[1] = {0};
//
// const int tmp_connections4[1] = {0};
//
// const int tmp_connections5[1] = {0};
//
// const int tmp_connections6[1] = {0};
//
// const int tmp_connections7[1] = {0};
//
// const int tmp_connections8[1] = {0};
//
// const int tmp_connections9[1] = {0};
//
// const int tmp_connections10[1] = {0};
//
// const int tmp_connections11[1] = {0};
//
// const int tmp_connections12[1] = {0};
//
// const int tmp_connections13[1] = {0};
//
// const int tmp_connections14[1] = {0};
//
// const int tmp_connections15[1] = {0};
//
// const int tmp_connections16[1] = {0};
//
// const int tmp_connections17[1] = {0};
//
// const int tmp_connections18[1] = {0};
//
// const int tmp_connections19[1] = {0};
//
// const int tmp_connections20[1] = {0};
//
// const int tmp_connections21[1] = {0};
//
// const int tmp_connections22[1] = {0};
//
// const int tmp_connections23[1] = {0};
//
// const int tmp_connections24[1] = {0};
//
// const int tmp_connections25[1] = {0};
//
// const int tmp_connections26[1] = {0};
//
// const int tmp_connections27[1] = {0};
//
// const int tmp_connections28[1] = {0};
//
// const int tmp_connections29[1] = {0};
//
// const int tmp_connections30[1] = {0};
//
// const int tmp_connections31[1] = {0};
//
// const int tmp_connections32[1] = {0};
//
// const int tmp_connections33[1] = {0};
//
// const int tmp_connections34[1] = {0};
//
// const int tmp_connections35[1] = {0};
//
// const int tmp_connections36[1] = {0};
//
// const int tmp_connections37[1] = {0};
//
// const int tmp_connections38[1] = {0};
//
// const int tmp_connections39[1] = {0};
//
// const int tmp_connections40[1] = {0};
//
// const int tmp_connections41[1] = {0};
//
// const int tmp_connections42[1] = {0};
//
// const int tmp_connections43[1] = {0};
//
// const int tmp_connections44[1] = {0};
//
// const int tmp_connections45[1] = {0};
//
// const int tmp_connections46[1] = {0};
//
// const int tmp_connections47[1] = {0};
//
// const int tmp_connections48[1] = {0};
//
// const int tmp_connections49[1] = {0};
//
// const int tmp_connections50[1] = {0};
//
// const int tmp_connections51[1] = {0};
//
// const int tmp_connections52[1] = {0};
//
// const int tmp_connections53[1] = {0};
//
// const int tmp_connections54[1] = {0};
//
// const int tmp_connections55[1] = {0};
//
// const int tmp_connections56[1] = {0};
//
// const int tmp_connections57[1] = {0};
//
// const int tmp_connections58[1] = {0};
//
// const int tmp_connections59[1] = {0};
//
// const int tmp_connections60[1] = {0};
//
// const int tmp_connections61[1] = {0};
//
// const int tmp_connections62[1] = {0};
//
// const int tmp_connections63[1] = {0};
//
// const int tmp_connections64[1] = {0};
//
// const int tmp_connections65[1] = {0};
//
// const int tmp_connections66[1] = {0};
//
// const int tmp_connections67[1] = {0};
//
// const int tmp_connections68[1] = {0};
//
// const int tmp_connections69[1] = {0};
//
// const int tmp_connections70[1] = {0};
//
// const int tmp_connections71[1] = {0};
//
// const int tmp_connections72[1] = {0};
//
// const int tmp_connections73[1] = {0};
//
// const int tmp_connections74[1] = {0};
//
// const int tmp_connections75[1] = {0};
//
// const int tmp_connections76[1] = {0};
//
// const int tmp_connections77[1] = {0};
//
// const int tmp_connections78[1] = {0};
//
// const int tmp_connections79[1] = {0};
//
// const int tmp_connections80[1] = {0};
//
// const int tmp_connections81[1] = {0};
//
// const int tmp_connections82[1] = {0};
//
// const int tmp_connections83[1] = {0};
//
// const int tmp_connections84[1] = {0};
//
// const int tmp_connections85[1] = {0};
//
// const int tmp_connections86[1] = {0};
//
// const int tmp_connections87[1] = {0};
//
// const int tmp_connections88[1] = {0};
//
// const int tmp_connections89[1] = {0};
//
// const int tmp_connections90[1] = {0};
//
// const int tmp_connections91[1] = {0};
//
// const int tmp_connections92[1] = {0};
//
// const int tmp_connections93[1] = {0};
//
// const int tmp_connections94[1] = {0};
//
// const int tmp_connections95[1] = {0};
//
// const int tmp_connections96[1] = {0};
//
// const int tmp_connections97[1] = {0};
//
// const int tmp_connections98[1] = {0};
//
// const int tmp_connections99[1] = {0};
//
// const int tmp_connections100[1] = {0};
//
// const int tmp_connections101[1] = {0};
//
// const int tmp_connections102[1] = {0};
//
// const int tmp_connections103[1] = {0};
//
// const int tmp_connections104[1] = {0};
//
// const int tmp_connections105[1] = {0};
//
// const int tmp_connections106[1] = {0};
//
// const int tmp_connections107[1] = {0};
//
// const int tmp_connections108[1] = {0};
//
// const int tmp_connections109[1] = {0};
//
// const int tmp_connections110[1] = {0};
//
// const int tmp_connections111[1] = {0};
//
// const int tmp_connections112[1] = {0};
//
// const int tmp_connections113[1] = {0};
//
// const int tmp_connections114[1] = {0};
//
// const int tmp_connections115[1] = {0};
//
// const int tmp_connections116[1] = {0};
//
// const int tmp_connections117[1] = {0};
//
// const int tmp_connections118[1] = {0};
//
// const int tmp_connections119[1] = {0};
//
// const int tmp_connections120[1] = {0};
//
// const int tmp_connections121[1] = {0};
//
// const int tmp_connections122[1] = {0};
//
// const int tmp_connections123[1] = {0};
//
// const int tmp_connections124[1] = {0};
//
// const int tmp_connections125[1] = {0};
//
// const int tmp_connections126[1] = {0};
//
// const int tmp_connections127[1] = {0};
//
// const float tmp_weights128[129] = {2.48063467489, 5.2934655418, -2.33440447047, 2.97750605951, 3.66870492065, 0.985721040723, -1.3505271368, -1.16268518907, 0.728987474014, 15.2778989609, -2.14238985579, 11.2911964061, 4.79820729303, 0.0874454443314, -10.7440508443, -4.24562466608, -0.639228782988, -8.12459186699, -8.11318170531, -6.06578313283, -2.02606665926, -2.46352726073, 4.30997486365, 2.62904262742, 2.25547505128, -10.8238556183, -4.1779078861, -3.97777849722, -2.35371934687, -2.47014438064, 3.94816703297, 2.64557330422, 2.51733582586, 1.93240135876, -2.51545274335, 1.86756120532, 1.36500556656, -1.37128782272, 0.588176388325, 1.94061530397, 2.08694866469, -2.71985865724, -2.47613216436, -0.189715519369, 0.211115903641, -1.39770631527, 0.672033309588, 1.28325511915, 0.699480331925, -0.397225957206, -2.46652115038, -0.0495175360525, 1.82272659283, 0.45559093108, -1.33168159987, -0.797571280001, -0.292688244344, -2.80778661948, -2.51069175889, -1.60381441976, 1.21250504152, 0.884794829911, -0.0744230080059, 0.481585207, 0.900919311719, 17.2241245181, 2.01178594159, 13.9726170772, 14.110779598, 11.6512102952, -12.5411624041, -8.79402882109, -1.80287448701, 10.7382599697, 1.49977326076, 8.13793966369, 8.43795119977, 9.32410313485, -7.19105339274, -5.5203289108, -0.906186611587, 1.75898360266, -3.95279456926, -2.34784170256, 1.99369037346, -0.0696722771629, -0.721020388071, 0.36287110073, 1.56489504944, -4.38490003653, -5.1553263923, -5.3835756411, 1.99276749752, -0.990067232241, 2.35654644985, 2.34303338422, 2.69374878782, 1.83405618551, -5.76688508257, 14.5336147152, 9.59685211251, 1.79935926081, -2.82603131847, -2.67655169219, -0.3964091405, -7.50012098162, -10.2963808199, 7.36716625947, 6.50272992207, 0.688709180948, 3.9012940917, 0.608021296304, -0.0142182568012, 7.31390147099, -0.275641211891, 5.4036884706, 7.93952141935, 1.61583893899, -3.81860949711, -1.88834616413, 0.710676877943, 7.14258330001, -0.510715901805, 7.91294862066, 1.24408942102, 5.03608845514, -4.08480741359, -2.71227311016, 0.291585168556};
// const int tmp_connections128[129] = {128, 0, 1, 2, 3, 4, 5, 6, 7, 8, 9, 10, 11, 12, 13, 14, 15, 16, 17, 18, 19, 20, 21, 22, 23, 24, 25, 26, 27, 28, 29, 30, 31, 32, 33, 34, 35, 36, 37, 38, 39, 40, 41, 42, 43, 44, 45, 46, 47, 48, 49, 50, 51, 52, 53, 54, 55, 56, 57, 58, 59, 60, 61, 62, 63, 64, 65, 66, 67, 68, 69, 70, 71, 72, 73, 74, 75, 76, 77, 78, 79, 80, 81, 82, 83, 84, 85, 86, 87, 88, 89, 90, 91, 92, 93, 94, 95, 96, 97, 98, 99, 100, 101, 102, 103, 104, 105, 106, 107, 108, 109, 110, 111, 112, 113, 114, 115, 116, 117, 118, 119, 120, 121, 122, 123, 124, 125, 126, 127};
//
// const float tmp_weights129[129] = {1.40972442621, 0.719774412638, -1.36045374024, 1.86784773785, 1.96837923802, 0.00837791680365, -1.12443795625, -0.382377126926, 1.07941139947, -1.68198395857, -1.52196611802, -1.39785832765, -1.64095810961, -1.26785032337, 0.291812775791, 0.917529163307, 1.81230636876, -2.49696644726, -0.361355141362, -1.791298706, -0.414806056266, -0.632967938387, 3.37021318286, 1.65252822168, 2.22440512505, -2.62147059215, -1.05435115913, -1.48487592057, -0.856461776708, -1.27675106107, 2.11686174793, 1.24405661087, 1.33888419476, -4.5509413248, -1.29044729712, -1.64419152395, -0.929524318596, -1.36949560971, 1.92816754422, 1.43097233907, 1.5846410603, -3.87936544342, -1.36015587466, -1.42363763993, -0.975328161506, -1.41766875107, 2.14895278448, 1.56194524811, 2.21913593931, -3.20437397236, -1.28351322123, -2.00248447083, -0.0879327918951, -0.877686367067, 2.60011164188, 1.94789574179, 2.43705154369, -3.6908941807, -1.32092162279, -2.29492320366, -0.378819828797, -0.903072549936, 3.10533410336, 2.39649023971, 2.72260933291, 3.95358697357, -0.170921970095, 4.88581733257, 4.82116816052, 2.35430067801, -5.43975106241, -3.24021747727, 0.528345950659, 4.6193586134, 0.699865161008, 5.72689603554, 5.53381103847, 2.99637573691, -5.20913966215, -3.44421427723, -0.00934457456043, -3.36368208874, -0.580265240479, -2.8246518346, 0.791649895016, -1.3706571265, 3.27832644717, 2.58219657243, 2.46119393906, -4.83882681217, 0.271110259357, -3.59426053983, 0.884988962262, -1.46912429703, 4.12778468247, 3.08228837183, 3.02543586741, -3.94478233861, -1.10616629779, 0.470249014304, 1.23568614614, -0.809933513946, 1.9648006839, 1.3394362389, 2.10613704921, -4.78113096216, -1.66177298012, -1.59086472047, 0.333358975839, -1.07926097078, 3.02198180905, 1.74473940845, 2.48149433453, -3.34781998891, 1.1750953426, -1.48637071502, 2.64104987331, -0.158251064907, 2.50895022902, 1.76262948821, 2.06088226133, -3.67173627254, 1.40483694583, -0.767045316357, 0.0972642268004, 0.908371545723, 2.48649629377, 1.72482958276, 1.92498792058};
// const int tmp_connections129[129] = {128, 0, 1, 2, 3, 4, 5, 6, 7, 8, 9, 10, 11, 12, 13, 14, 15, 16, 17, 18, 19, 20, 21, 22, 23, 24, 25, 26, 27, 28, 29, 30, 31, 32, 33, 34, 35, 36, 37, 38, 39, 40, 41, 42, 43, 44, 45, 46, 47, 48, 49, 50, 51, 52, 53, 54, 55, 56, 57, 58, 59, 60, 61, 62, 63, 64, 65, 66, 67, 68, 69, 70, 71, 72, 73, 74, 75, 76, 77, 78, 79, 80, 81, 82, 83, 84, 85, 86, 87, 88, 89, 90, 91, 92, 93, 94, 95, 96, 97, 98, 99, 100, 101, 102, 103, 104, 105, 106, 107, 108, 109, 110, 111, 112, 113, 114, 115, 116, 117, 118, 119, 120, 121, 122, 123, 124, 125, 126, 127};
//
// const float tmp_weights130[129] = {-3.70245953484, -0.504278883857, 2.96776336782, 2.14555797234, 3.02613325738, 1.38528281172, -5.54811995357, -0.91290069242, 3.0620927011, -7.82142258811, 3.9295534911, -2.17205901909, 1.76463054914, 1.58729054639, -2.69893989602, 0.379806432252, 3.9833702422, -4.99968292533, -0.769480563045, -0.973886501368, 1.49792520353, 3.70744156139, -1.52245777735, -0.663807693551, 0.417402412466, -5.96486544559, 1.0234976928, 1.96738911045, 2.32448777498, 3.19923765335, -2.59629498089, -2.24911038836, -1.84427981749, -1.99672653614, 1.67629013737, 3.55726125206, 3.88114597721, 2.19083790433, -3.73424630055, -3.39483102517, -3.26583600163, 0.21517923358, 2.08512761425, 4.28235453559, 3.91094177714, 2.26096089973, -4.45582850563, -2.3719802795, -1.75221458301, -4.02927126512, 1.9955135615, -3.65758384756, -0.191407449049, -0.727500452529, -2.92734731994, 1.49509815762, 1.66539696748, -4.07587674177, 2.07747590728, -2.93887303228, 0.399341392328, -1.20946048503, -3.83860440094, 0.500525580868, 1.43349011547, -4.77680644841, 9.9377142844, -3.03898709387, -2.08103592665, -5.4961365092, -3.05821727313, 0.905065013925, 3.74556340102, -1.60022822698, 9.10772362077, -0.804193642374, -0.364440751225, -4.8546351215, -3.48149230674, -0.121504077178, 2.56229037149, -5.31181322103, 1.84948043112, -4.33941312866, -4.64487760884, -1.44154213715, -0.910063231636, 1.2454965046, 1.07317194069, -4.61897435336, 1.67016076038, -6.70247163282, -6.26608772536, -0.100656740486, -0.982806918499, 1.40898716839, 1.77242876634, -3.25703516279, -6.82483970069, 3.22778185133, 4.95811790521, 2.2745516165, -1.68749543355, -0.293029230344, 0.236619998289, -1.6515965217, -6.28492902795, 6.6434568386, 5.21583174734, 2.17033535812, 1.07636586286, 2.19549320977, 0.886264165856, -3.54390929983, 3.40354937107, -5.32486682793, -6.3868710736, -1.4844290274, -2.45898450261, 0.946420355596, 0.446706495616, -1.26573117093, 4.02806296516, -3.33572769712, 0.0702280934769, -2.31856883729, -3.68730612055, 1.02725364433, -0.449184403422};
// const int tmp_connections130[129] = {128, 0, 1, 2, 3, 4, 5, 6, 7, 8, 9, 10, 11, 12, 13, 14, 15, 16, 17, 18, 19, 20, 21, 22, 23, 24, 25, 26, 27, 28, 29, 30, 31, 32, 33, 34, 35, 36, 37, 38, 39, 40, 41, 42, 43, 44, 45, 46, 47, 48, 49, 50, 51, 52, 53, 54, 55, 56, 57, 58, 59, 60, 61, 62, 63, 64, 65, 66, 67, 68, 69, 70, 71, 72, 73, 74, 75, 76, 77, 78, 79, 80, 81, 82, 83, 84, 85, 86, 87, 88, 89, 90, 91, 92, 93, 94, 95, 96, 97, 98, 99, 100, 101, 102, 103, 104, 105, 106, 107, 108, 109, 110, 111, 112, 113, 114, 115, 116, 117, 118, 119, 120, 121, 122, 123, 124, 125, 126, 127};
//
// const float tmp_weights131[129] = {1.55410100774, -1.70503191282, -1.14774186423, 1.80178526616, 4.03427338303, -0.222752422608, -1.46495135732, 0.248863182838, 3.05326273592, -6.42235889866, -1.36226407602, 0.517866614943, 1.34573206882, -1.03696896755, -0.553143937794, 1.81756858525, 4.44372938929, -10.1720654791, -3.62343184024, -4.68502317501, -1.18849932972, -0.843860526491, 5.8346470794, 2.69152372612, 2.5492827395, -10.0352571878, -1.96725579596, -2.51161737138, -1.11536732897, -1.34880761168, 3.11628088446, 1.38796498358, 1.31543646817, -7.2803210026, -1.36659240824, -0.879849770664, -0.486345317824, -1.31675954378, 0.586384372941, 1.10514022514, 1.20902826026, -4.69066625691, -1.53535592262, -0.535725377542, -0.322411846615, -1.20318575673, -2.67477719957, 0.392179898088, 1.00205186966, -4.68077826157, -1.49714773749, -1.13684581879, 0.634140690795, 0.0613250346881, -0.405040036186, -0.360917986238, 0.403208127194, -5.00592434821, -1.53399773817, -1.64787885483, 0.253622705403, 0.167775583073, -0.12370185058, 0.407109946671, 1.29953026352, -1.06448991125, -0.0882895802346, 2.28565206881, 4.22432952811, 0.375225428584, -4.18454656473, -0.823825217682, 3.26182429634, -1.67004191035, -0.725313082649, 0.562942323592, 2.11410155854, -0.340901770618, -2.72899352068, -0.446631965195, 3.11471190875, -9.80119401988, -3.75238860425, -7.5566971579, -2.15549790612, -1.8111364977, 4.70009415825, 3.89394772977, 3.88883126628, -1.75731003442, 0.796450496887, -0.192324003893, 4.39131075286, 0.0901214868736, -1.84485271576, -0.50025685032, 1.78140328508, 0.760971361218, 4.61372061317, 13.1082213882, 6.36580815234, 0.739867842453, -7.5845632549, -2.56594574869, 1.15346420406, -2.73795535757, 2.81577455962, 10.5710439126, 4.29928522608, 0.0852856376059, -4.7025101302, -0.831284172104, 1.58469868281, -3.7597064457, 1.50723069966, 0.035309960892, 5.0619112078, 0.990757119283, -0.151005828085, -0.273998351281, 1.1189259235, -0.881257266031, 2.74899400848, 2.44402261154, 0.918224000995, 3.45935872306, -2.24417088185, -2.02023362658, 0.254850866379};
// const int tmp_connections131[129] = {128, 0, 1, 2, 3, 4, 5, 6, 7, 8, 9, 10, 11, 12, 13, 14, 15, 16, 17, 18, 19, 20, 21, 22, 23, 24, 25, 26, 27, 28, 29, 30, 31, 32, 33, 34, 35, 36, 37, 38, 39, 40, 41, 42, 43, 44, 45, 46, 47, 48, 49, 50, 51, 52, 53, 54, 55, 56, 57, 58, 59, 60, 61, 62, 63, 64, 65, 66, 67, 68, 69, 70, 71, 72, 73, 74, 75, 76, 77, 78, 79, 80, 81, 82, 83, 84, 85, 86, 87, 88, 89, 90, 91, 92, 93, 94, 95, 96, 97, 98, 99, 100, 101, 102, 103, 104, 105, 106, 107, 108, 109, 110, 111, 112, 113, 114, 115, 116, 117, 118, 119, 120, 121, 122, 123, 124, 125, 126, 127};
//
// const float tmp_weights132[129] = {-2.61713278252, 0.70797171534, 2.43385450832, 1.9742066116, 3.13272944571, 3.25035760107, -2.29161673546, -0.21572708701, 0.144491767842, -1.15786303116, 1.81219129214, 2.78814111981, 4.1768282976, 3.10942208357, -3.80201064284, -0.658789215688, -0.567864309317, -5.20942299456, -16.2154123329, -5.52434464595, 0.620824448346, 2.59591636317, 15.7852302746, 3.76559878422, -0.502802476914, -0.958361093509, -0.919507912434, 0.580794833123, 1.72167372138, 2.53795383946, 4.9043264959, -1.425084604, -2.47463542229, 13.0142091106, 3.02231267852, 4.87809974558, 3.13853737985, 2.61341789112, -2.20225475041, -2.35197650562, -2.41724864721, 14.9543720387, 2.71338396365, 4.60385037953, 2.92426291496, 2.535926132, -3.96865710983, -1.96524073172, -1.82707017083, -3.33149678314, 2.64448914334, -8.30270309546, -2.86167295255, 0.765573066053, 9.24773634408, 5.81962058967, -1.02504127905, -2.31533430088, 2.65978838231, -7.40872163829, -2.54465924001, 0.250596426989, 9.11450318503, 5.86659796814, -1.36340011085, 1.1937973771, -0.440440768391, 3.74801501129, 5.74928990178, 5.38301081472, -5.05473963374, -2.95964114578, -0.939347524443, 2.58740028426, -0.0233924158741, 3.74983485631, 5.11718918904, 5.54604241664, -4.9473933913, -3.03100042402, -1.01521298966, -14.007168539, -21.0067121099, -21.492113808, -16.6975581829, -1.79478869775, 14.5929199223, 8.93138649757, 2.2766190864, -3.06248756884, -14.7189839707, -16.1596484033, -13.0196883344, 0.966492870845, 9.52621273317, 5.05206122804, -0.451335679471, 24.9201507652, 15.3099705312, 21.6959734008, 7.91223488982, 4.90529593295, -11.9045247014, -5.68728235384, -4.47197939312, 26.7876506045, 15.3609504106, 23.6668249297, 6.46446547842, 4.57789997206, -13.1635378085, -5.38566214639, -3.85081876859, -7.89113335351, -16.036713659, -12.5287525174, -9.70870821655, -0.00916742627333, 7.47868325744, 5.16249425328, -0.992690610608, -5.42908839551, -14.5209425166, -10.6754243497, -0.328940956526, -0.36873903805, 5.88741095922, 4.5456039496, -1.55132112931};
// const int tmp_connections132[129] = {128, 0, 1, 2, 3, 4, 5, 6, 7, 8, 9, 10, 11, 12, 13, 14, 15, 16, 17, 18, 19, 20, 21, 22, 23, 24, 25, 26, 27, 28, 29, 30, 31, 32, 33, 34, 35, 36, 37, 38, 39, 40, 41, 42, 43, 44, 45, 46, 47, 48, 49, 50, 51, 52, 53, 54, 55, 56, 57, 58, 59, 60, 61, 62, 63, 64, 65, 66, 67, 68, 69, 70, 71, 72, 73, 74, 75, 76, 77, 78, 79, 80, 81, 82, 83, 84, 85, 86, 87, 88, 89, 90, 91, 92, 93, 94, 95, 96, 97, 98, 99, 100, 101, 102, 103, 104, 105, 106, 107, 108, 109, 110, 111, 112, 113, 114, 115, 116, 117, 118, 119, 120, 121, 122, 123, 124, 125, 126, 127};
//
// const float tmp_weights133[129] = {-1.04025951775, 1.04743923193, 1.24809817045, 2.24710715193, 2.72960686854, 1.16454590082, -1.67501535324, -0.755886095893, 0.114564497917, 0.333694989693, 1.19471926911, 2.17028848015, 2.20011819663, 0.966877466092, -1.66338514102, -0.569002184215, 0.402335033789, -1.9484973409, -0.70929429462, -0.493119644536, 0.774026413294, 1.09190005185, 0.777028764469, -0.0407825733123, -0.150716279851, -2.22080670734, 0.589314001177, 0.529747287531, 0.829244892603, 1.00393719319, -0.181744127395, -0.928191481445, -0.973513840447, -1.75065753642, 0.937285692608, 0.863237020014, 1.18504206416, 1.04079564292, -0.595101434719, -0.909977070316, -0.941873660597, -1.17009021711, 1.0644496349, 1.01376748672, 1.16195404457, 1.04530213864, 0.0383643622942, -0.554344871738, -0.706057923396, -0.784194056671, 1.02580324773, -0.823369726379, 0.0318130779574, 0.367910582586, -0.30100182905, 0.22749988051, -0.224992628361, -0.982881830744, 1.04111300093, -0.790285371271, 0.0859436668171, 0.18348686557, -0.379823979627, 0.2737670509, -0.00944454846454, 1.26840978346, 2.58426804007, 1.93280698032, 2.17673449093, 0.343411450924, -2.1098910761, -0.75744124643, 0.358114255941, 1.02909223442, 2.30411705235, 1.4788183863, 1.54660783514, 0.0805283165981, -1.44098370682, -0.467888384573, 0.308232478427, -1.21066009215, 0.228890855161, -1.60611263286, -1.90459809689, -0.375382518368, 0.144427018579, 0.513419640707, 0.368612587153, -0.245941562102, 0.888365823452, -1.43161296722, -1.61026091366, 0.0430672567217, -0.56125930785, 0.02128905388, 0.34785708537, -0.594720099961, -1.07357671654, 1.73082592651, 1.82131655624, 0.987815292605, -0.36524260165, 0.118658162284, -0.144046576323, -1.03426206472, -1.41945539925, 1.75586230269, 1.63457162157, 0.916568736431, 0.524127622297, 0.760241111491, 0.10630838368, -0.177882489932, 1.28527342766, -0.903796530101, -1.18066094323, 0.0758515513286, -0.62073727041, -0.000215170793463, -0.252809495704, 0.548351062174, 1.7097235622, -0.335268156051, 0.515003428028, -0.156235358918, -1.07312907827, -0.228014046765, -0.53983821799};
// const int tmp_connections133[129] = {128, 0, 1, 2, 3, 4, 5, 6, 7, 8, 9, 10, 11, 12, 13, 14, 15, 16, 17, 18, 19, 20, 21, 22, 23, 24, 25, 26, 27, 28, 29, 30, 31, 32, 33, 34, 35, 36, 37, 38, 39, 40, 41, 42, 43, 44, 45, 46, 47, 48, 49, 50, 51, 52, 53, 54, 55, 56, 57, 58, 59, 60, 61, 62, 63, 64, 65, 66, 67, 68, 69, 70, 71, 72, 73, 74, 75, 76, 77, 78, 79, 80, 81, 82, 83, 84, 85, 86, 87, 88, 89, 90, 91, 92, 93, 94, 95, 96, 97, 98, 99, 100, 101, 102, 103, 104, 105, 106, 107, 108, 109, 110, 111, 112, 113, 114, 115, 116, 117, 118, 119, 120, 121, 122, 123, 124, 125, 126, 127};
//
// const float tmp_weights134[129] = {-2.93676848593, -0.363273336109, 3.26248632555, 1.82408411543, 2.50910527418, 2.17050395885, 0.717348006292, 1.25226535987, -0.801827910168, 9.73048447216, 3.40495355388, 15.9400366133, 12.2186910471, 4.25884917899, -6.618820055, -3.4204935369, -3.44426505957, -7.27087469595, -8.87719238649, -1.82914747142, 0.886102504429, 2.88136055211, 2.55506974511, -0.280856320662, -1.83524493356, -6.75614066748, 0.288046298735, 1.58653497116, 1.76328281501, 2.87219907241, -0.725692864502, -2.50594216582, -2.84652514499, 0.0787122930035, 2.93969591874, 0.825691154708, -0.0381943769793, 2.50034243741, -1.78836744017, -2.61028020773, -3.15042663151, 2.63023356968, 2.94855972262, 1.72477748693, 0.691297416864, 2.57040439551, -0.73740097006, -2.02834651119, -4.315122029, -1.93934420204, 2.92845771239, -4.1113255247, -2.65602841858, 1.01632668746, 0.354922748958, 0.728667672023, -4.81251421599, -1.1822083279, 2.94219100021, -3.39185107044, -2.37995639765, 0.728770917916, -0.207592816895, 0.585247699616, -4.49400608508, -1.68445879488, 2.96811331463, -0.748912435963, -0.0617717217235, -1.96074463283, 2.96378574975, 2.9004233384, -0.090013755187, -7.15762594066, -0.337867751817, -5.83604793234, -5.04082057551, -5.81542979133, 6.00369604234, 5.31450266681, 1.28950118608, -4.93467087798, -6.68034674347, -6.45761238027, -10.9555867111, -0.863172837289, 2.031727819, 2.28834357478, 1.51328245695, 7.98434810381, -2.68913048549, 1.50747222779, -5.69426344851, 1.9660954118, -6.92722463434, -3.62130533445, -1.31654864854, 8.22454381272, 4.65699321782, 0.248755748562, -4.11798303299, 0.614346850256, -4.0968816355, 2.54739695678, -1.12282501947, 8.20615090148, 4.28252255209, 3.75326985344, -1.76085980703, 1.3617657529, -4.74349888877, 1.5512000983, -1.42034666452, -1.18286417913, -5.2944370411, -5.42660114102, -8.93328629299, -0.559317810084, 0.591205814878, 1.6461548989, -2.64563495858, 2.33233042707, -3.45970184869, -6.59670992237, -0.950589164784, -3.42291916467, -1.07256788765, 0.994806466186, -3.14075733178};
// const int tmp_connections134[129] = {128, 0, 1, 2, 3, 4, 5, 6, 7, 8, 9, 10, 11, 12, 13, 14, 15, 16, 17, 18, 19, 20, 21, 22, 23, 24, 25, 26, 27, 28, 29, 30, 31, 32, 33, 34, 35, 36, 37, 38, 39, 40, 41, 42, 43, 44, 45, 46, 47, 48, 49, 50, 51, 52, 53, 54, 55, 56, 57, 58, 59, 60, 61, 62, 63, 64, 65, 66, 67, 68, 69, 70, 71, 72, 73, 74, 75, 76, 77, 78, 79, 80, 81, 82, 83, 84, 85, 86, 87, 88, 89, 90, 91, 92, 93, 94, 95, 96, 97, 98, 99, 100, 101, 102, 103, 104, 105, 106, 107, 108, 109, 110, 111, 112, 113, 114, 115, 116, 117, 118, 119, 120, 121, 122, 123, 124, 125, 126, 127};
//
// const float tmp_weights135[129] = {2.00343627526, 0.669860065186, -2.22586081831, -0.114308280401, -0.0662834382484, -0.738440513479, -0.937521466394, -1.00002999897, 0.224995278924, -5.44408970721, -2.08259839339, -7.87560210642, -5.63729671917, -1.63744118674, 3.72078486525, 1.99345707687, 1.87501138748, 0.559053792363, 4.7951153492, -0.558304127, -0.907700864435, -1.81919516617, 0.839671946016, 0.959967659271, 1.63710378708, 0.143980883345, -0.455710054849, -1.5301493048, -1.01309880267, -1.77243033355, 1.16780117314, 1.24571822929, 1.40747674121, -3.66077557618, -1.97241946632, -1.90657923374, -1.03217755737, -1.80421950789, 1.17094948099, 1.31152699063, 1.55869361897, -3.26783642772, -2.02902953551, -1.86365433047, -1.12406922257, -1.79735348518, 0.182397044322, 1.02473516691, 1.93416020994, -0.557559051205, -2.03220310323, 1.52249381472, 1.9542300208, 0.0140016936744, 0.286282786382, 0.10115081192, 2.2560991024, -1.00841264157, -1.99399777603, 0.793877260743, 1.50967328324, 0.246271168893, 0.887052984779, 0.55285986868, 2.38398161844, 0.749921499023, -3.24349915665, 0.674482747822, 1.08670756456, 2.68657975713, -2.36627933824, -1.98724902861, -0.110935049628, 3.1001680161, -1.85595362387, 2.90765320108, 3.20710894229, 4.44940641689, -4.14735617149, -3.3993184947, -0.758714323368, -0.108274517997, 4.09167873846, 0.828160945008, 6.2596116561, 0.500215314412, 1.31545032558, 1.00238647443, 1.36837319497, -3.0910508382, 3.94057268719, 0.0361327703735, 6.84938562553, -0.174628215556, 2.71311090729, 1.91201057393, 2.00561713904, -4.74003356213, -1.26803573695, 0.810948648278, 2.32044162181, -0.405980936899, 0.899907697136, -0.407506813392, 1.30906100544, -6.41423220968, -1.56266450043, -3.50474579646, 0.669257964605, -1.01341235712, 2.22957321239, 0.308402781799, 1.47818493443, -0.54053723008, 4.81751322993, 3.04354785609, 9.02170282759, 1.67367141723, 0.68662887567, -0.240258569651, 1.4483481816, -1.71975423622, 4.30926409647, 3.65467978672, 1.47045944211, 4.23134261957, 0.832816544017, -0.308060204325, 1.49885710015};
// const int tmp_connections135[129] = {128, 0, 1, 2, 3, 4, 5, 6, 7, 8, 9, 10, 11, 12, 13, 14, 15, 16, 17, 18, 19, 20, 21, 22, 23, 24, 25, 26, 27, 28, 29, 30, 31, 32, 33, 34, 35, 36, 37, 38, 39, 40, 41, 42, 43, 44, 45, 46, 47, 48, 49, 50, 51, 52, 53, 54, 55, 56, 57, 58, 59, 60, 61, 62, 63, 64, 65, 66, 67, 68, 69, 70, 71, 72, 73, 74, 75, 76, 77, 78, 79, 80, 81, 82, 83, 84, 85, 86, 87, 88, 89, 90, 91, 92, 93, 94, 95, 96, 97, 98, 99, 100, 101, 102, 103, 104, 105, 106, 107, 108, 109, 110, 111, 112, 113, 114, 115, 116, 117, 118, 119, 120, 121, 122, 123, 124, 125, 126, 127};
//
// const float tmp_weights136[129] = {0.803321508688, -0.450983372491, -0.608517268553, -0.492485529712, -0.373127529054, -0.492161608171, 0.27717659529, 0.0522412792651, 0.0712019219209, -1.45335688963, -0.737841156837, -1.83124041555, -1.45123455216, -0.734496720396, 0.94735776138, 0.4742087435, 0.413489436018, -0.761454796944, -0.265238959072, -0.360587868706, -0.113880910442, -0.533073046088, 0.527299282273, 0.470425767486, 0.608188842099, -0.845020621213, -0.566471076826, -0.576289700753, -0.317365326967, -0.678119180323, 0.384749063416, 0.284552959618, 0.272772021545, -1.25356252714, -0.646303403453, -0.482110325374, -0.202200935095, -0.484184198921, 0.366738801889, 0.411416352518, 0.406335269917, -1.27089914178, -0.675661841483, -0.535921402378, -0.318430558522, -0.479717511768, 0.56532427829, 0.332036282765, 0.333638870973, -0.640281478106, -0.666388821367, 0.42514067275, 0.740577478149, 0.241012753484, 0.0691491604286, -0.0956304193946, -0.0769485644978, -0.721407204679, -0.663570210107, 0.179847184077, 0.588421668544, 0.493767705224, 0.284652007725, 0.149642612099, 0.307015959723, -0.0234836275822, -0.733473829339, 0.0993834858669, 0.232979834583, 0.381558307971, -0.5052026085, -0.369357163993, -0.0376143603774, 0.0308029211102, -0.589273559215, 0.0132359223981, 0.0773291469206, 0.477344421576, -0.398324336227, -0.354552429868, 0.0443590714896, -0.946356777074, -0.384403388447, -0.284461173964, 1.84849724577, 0.247550874844, 0.609633389045, 0.471788556415, 0.415421515488, -1.06433031768, -0.191911314048, 0.269537160546, 2.59268721959, 0.166891100225, 0.467210895214, 0.339541579405, 0.323799429571, -0.304068814556, 0.0127824418763, 2.48985807434, 1.63711122736, 0.21766800323, -0.479683655432, -0.376908771342, 0.172519400801, -1.15867211131, -0.403938915257, 1.35992261127, 0.979736457122, -0.0631543048789, 0.218501796022, 0.100859346366, 0.182751969325, -0.469862362369, 0.0573673699918, 0.894247472963, 3.04008758777, 0.647556683595, 0.0311835781695, -0.276384027379, -0.080884985359, -0.570476129506, 0.0991803926696, 1.21028520836, 0.515179513323, 1.55605162629, -0.0406304758524, -0.509145978983, -0.132313522118};
// const int tmp_connections136[129] = {128, 0, 1, 2, 3, 4, 5, 6, 7, 8, 9, 10, 11, 12, 13, 14, 15, 16, 17, 18, 19, 20, 21, 22, 23, 24, 25, 26, 27, 28, 29, 30, 31, 32, 33, 34, 35, 36, 37, 38, 39, 40, 41, 42, 43, 44, 45, 46, 47, 48, 49, 50, 51, 52, 53, 54, 55, 56, 57, 58, 59, 60, 61, 62, 63, 64, 65, 66, 67, 68, 69, 70, 71, 72, 73, 74, 75, 76, 77, 78, 79, 80, 81, 82, 83, 84, 85, 86, 87, 88, 89, 90, 91, 92, 93, 94, 95, 96, 97, 98, 99, 100, 101, 102, 103, 104, 105, 106, 107, 108, 109, 110, 111, 112, 113, 114, 115, 116, 117, 118, 119, 120, 121, 122, 123, 124, 125, 126, 127};
//
// const float tmp_weights137[129] = {1.00088070093, 0.266162002473, -0.921938520297, -0.226460316808, -0.111447795751, -0.189913216087, -0.46925453222, -0.437493160054, -0.156631487386, -1.90422544115, -0.947767840819, -2.94767804234, -2.25566217458, -0.911098736536, 0.84664926255, 0.457696440916, 0.44189289592, 0.166098224933, -0.0341168583267, -0.416249361181, -0.0613923385975, -0.41668989974, 0.582410272499, 0.466373554597, 0.717244315142, 0.335980148294, -0.558740760003, -0.758411061535, -0.427849861184, -0.781630609087, 0.565076271638, 0.532513153366, 0.600418273204, -0.611365616317, -0.763095568758, -0.730215946495, -0.484211293053, -0.705252579979, 0.536061030452, 0.726496256451, 0.754328139946, -0.498177942637, -0.796906773169, -0.776500567008, -0.582912605244, -0.759410111307, 0.0305340159977, 0.518856370522, 0.741383806275, -0.282247464483, -0.827832648843, 0.0737897325455, 0.441455606919, -0.00785343925163, 0.191890391875, 0.121847508765, 0.531869985471, -0.392340888567, -0.810389898597, -0.170959982938, 0.25662559244, 0.166674323888, 0.497947804013, 0.532737295904, 0.980872400601, 0.585488909155, -1.49638911909, 0.394210594507, 0.606558410592, 1.00985347656, -1.56308927927, -1.12094764906, -0.313471543537, 1.25645947062, -0.904665671807, 1.01638155511, 1.1632353524, 1.68885308907, -1.91557686355, -1.54551252908, -0.426119169045, -0.892719803897, -0.495922390939, -1.1624045989, 1.233796457, -0.0450768503013, 1.00499635547, 0.826953563965, 0.728124508274, -1.45940021153, -0.520500231681, -0.901379241651, 1.97133585074, -0.150142748521, 1.29137570615, 0.962101317914, 0.682652825059, 0.816303907714, 0.491165356886, 2.46759249305, 1.47825628671, 0.0693592713021, -1.0963380304, -0.736666657601, 0.400919465052, 0.326928893234, 0.227273928291, 0.920405249072, 0.69831198377, -0.168052185084, -0.677148830132, -0.3118529078, 0.46116881865, -0.607430242944, 0.112428201316, 0.27983662191, 2.75112305012, 0.510820726987, 0.302691727026, -0.0485616543191, 0.583017416756, -1.0919343846, -0.0615667417218, 0.525562327089, 0.379777978225, 1.47079380272, 0.386612410634, -0.138468919905, 0.445788326713};
// const int tmp_connections137[129] = {128, 0, 1, 2, 3, 4, 5, 6, 7, 8, 9, 10, 11, 12, 13, 14, 15, 16, 17, 18, 19, 20, 21, 22, 23, 24, 25, 26, 27, 28, 29, 30, 31, 32, 33, 34, 35, 36, 37, 38, 39, 40, 41, 42, 43, 44, 45, 46, 47, 48, 49, 50, 51, 52, 53, 54, 55, 56, 57, 58, 59, 60, 61, 62, 63, 64, 65, 66, 67, 68, 69, 70, 71, 72, 73, 74, 75, 76, 77, 78, 79, 80, 81, 82, 83, 84, 85, 86, 87, 88, 89, 90, 91, 92, 93, 94, 95, 96, 97, 98, 99, 100, 101, 102, 103, 104, 105, 106, 107, 108, 109, 110, 111, 112, 113, 114, 115, 116, 117, 118, 119, 120, 121, 122, 123, 124, 125, 126, 127};
//
// const float tmp_weights138[129] = {0.393751248237, 0.759542826256, -1.47908227394, -2.99687893577, -4.43260888547, -0.333710760285, 0.885835379081, -0.036681294386, -1.04958164245, 0.0444242410962, -0.415583012545, -8.84759784925, -7.25048636202, -1.13481054261, 2.10180554724, -0.635074953863, -1.49589423053, 11.358188751, 4.70958917087, 2.88239296105, -0.278105804651, -0.453027207798, -3.94596427144, -0.727341311709, 0.214935253981, 11.3789997246, 0.173316502575, 0.54244255574, -0.249281054061, -0.539733120303, -1.38863405422, 0.446510460721, 0.842263892871, 5.85236317309, -1.11254454468, -0.364654283877, -0.51215803969, -0.940547427938, 0.640222927452, 0.391369508564, 0.463497467281, 3.49365922127, -0.981510319571, -0.862058693275, -0.739715829054, -1.05294450616, 2.51611302152, 0.738636034946, 0.934198687562, 4.64942335564, -1.03149354059, 0.338734560489, -0.532138582247, -1.23770249301, 0.99153724698, 1.38857944025, 1.37131114912, 4.53358335117, -1.0410090273, 0.457883538292, -0.430446495977, -1.2595248814, 1.33073262401, 1.5062875204, 1.21672169918, 1.7812625279, -2.27222852392, -1.93314877361, -3.59981991757, 1.43088798093, 0.199085100582, -1.03247669356, -1.61901989508, 4.71942166387, -0.0625595698252, 1.92877667764, 0.693769012916, 3.78231400626, -2.26171915315, -2.62280481185, -2.28795742902, 8.55319299074, 3.07429391838, 4.32138916216, 3.46794740424, 0.576083771589, -2.73610280092, -1.43578093719, -0.480615768891, -3.24418983063, -1.79581055642, -4.51371894743, -3.17730230895, -1.33551846426, 6.35157599814, 4.56054706698, 2.7724996278, 0.552617409634, -5.79716007859, -7.56453443043, -2.66452823527, -1.36090115701, 5.90738853745, 1.32071591909, 0.120308163265, 3.94593688162, -4.07246443578, -7.2948189915, -2.53237668521, -1.33435035285, 3.73233412623, 0.530184482541, -0.417710080658, 2.96230045098, -0.279373695932, -0.850504182502, -1.96375687354, -1.15956545764, 0.554247168251, 1.02365126515, 0.613328116631, -1.13390446579, -2.28543658365, -2.03514501457, -1.32861527088, -1.37395581332, 3.02840255746, 2.74751400707, 1.12016003984};
// const int tmp_connections138[129] = {128, 0, 1, 2, 3, 4, 5, 6, 7, 8, 9, 10, 11, 12, 13, 14, 15, 16, 17, 18, 19, 20, 21, 22, 23, 24, 25, 26, 27, 28, 29, 30, 31, 32, 33, 34, 35, 36, 37, 38, 39, 40, 41, 42, 43, 44, 45, 46, 47, 48, 49, 50, 51, 52, 53, 54, 55, 56, 57, 58, 59, 60, 61, 62, 63, 64, 65, 66, 67, 68, 69, 70, 71, 72, 73, 74, 75, 76, 77, 78, 79, 80, 81, 82, 83, 84, 85, 86, 87, 88, 89, 90, 91, 92, 93, 94, 95, 96, 97, 98, 99, 100, 101, 102, 103, 104, 105, 106, 107, 108, 109, 110, 111, 112, 113, 114, 115, 116, 117, 118, 119, 120, 121, 122, 123, 124, 125, 126, 127};
//
// const float tmp_weights139[129] = {1.05101838177, 0.437414623672, -0.557065336297, 0.0848612278158, 0.0621206024225, -0.525774719353, -0.271799395747, -0.343724888049, -0.00388090517362, 0.422423070284, -0.898887437988, -0.0473115390729, -0.596117848825, -0.837185856224, -0.400581832473, -0.0897250093226, 0.118337394584, 0.480766500912, -0.313700768871, -0.222419787553, -0.276972397015, -0.76584596037, 0.0346235355124, 0.463121425226, 0.721857015263, 0.635617512454, -0.40678262751, -0.685322149237, -0.535145848958, -0.867319395122, 0.381898440499, 0.39364673853, 0.366971545496, 0.268669242507, -0.520446254623, -0.724364822998, -0.5869127889, -0.52642388378, 0.515373906799, 0.64553658208, 0.696151434583, 0.360489395672, -0.58935982419, -0.756268306336, -0.589900190485, -0.477480368057, -0.194296488155, 0.440760190016, 0.667231645618, 0.202061950839, -0.552971810529, -0.064902925702, -0.280180727824, -0.0903232045828, 0.145707928953, -0.0438171915512, 0.539932281657, 0.11371368441, -0.596637731902, -0.129376239462, -0.322286417259, -0.0451104561775, 0.255980113212, 0.135334215035, 0.706539813768, 0.688146354236, -0.953342114884, 0.558034580578, 0.60245246951, 0.232074921843, -0.8180500138, -0.520710497417, 0.0749913203137, 0.637116293662, -0.736075925153, 0.532545003646, 0.543182311447, 0.336694226637, -0.782253028168, -0.575408519474, 0.0510677361268, -0.0680943554257, -0.42461994763, -0.261038457715, 0.476652571517, -0.27989494881, 0.292087739677, 0.275685339734, 0.675303343443, 0.0146339974523, -0.282766355604, 0.191090868243, 0.706674567331, -0.439408877282, 0.241860402075, 0.219455157277, 0.521683122662, 1.17354681328, 0.834244687394, 0.91307525697, 0.0662167443194, -0.255902257622, -1.00355087849, -0.50248959358, 0.473776182831, 1.11990681768, 0.674253682507, 0.511818377736, -0.206068818605, -0.357364933588, -1.05638270147, -0.491339055064, 0.479787194316, -0.0987102763016, -0.216810193108, 0.0613089023736, 0.849064634049, -0.156734797365, 0.102424216915, -0.117474221039, 0.595636058183, -0.212659547419, -0.265940560702, 0.0926459351771, -0.134332037842, 0.0534141806379, 0.206041296193, -0.164586287961, 0.580056548121};
// const int tmp_connections139[129] = {128, 0, 1, 2, 3, 4, 5, 6, 7, 8, 9, 10, 11, 12, 13, 14, 15, 16, 17, 18, 19, 20, 21, 22, 23, 24, 25, 26, 27, 28, 29, 30, 31, 32, 33, 34, 35, 36, 37, 38, 39, 40, 41, 42, 43, 44, 45, 46, 47, 48, 49, 50, 51, 52, 53, 54, 55, 56, 57, 58, 59, 60, 61, 62, 63, 64, 65, 66, 67, 68, 69, 70, 71, 72, 73, 74, 75, 76, 77, 78, 79, 80, 81, 82, 83, 84, 85, 86, 87, 88, 89, 90, 91, 92, 93, 94, 95, 96, 97, 98, 99, 100, 101, 102, 103, 104, 105, 106, 107, 108, 109, 110, 111, 112, 113, 114, 115, 116, 117, 118, 119, 120, 121, 122, 123, 124, 125, 126, 127};
//
// const float tmp_weights140[129] = {0.306151478097, 0.504279579282, -0.586045548622, -2.47595923476, -4.14538785988, -1.73660964102, 1.48103073525, 0.141292548187, -0.615940213514, 3.28918282233, -0.23275568383, -2.81156552093, -3.00144550611, -0.810078744464, 0.438555429802, -1.22867496691, -0.847176505743, 7.35124908633, 3.58720395366, 1.77485253723, -1.03687190168, -1.4635980346, -4.49971867329, -1.38969970873, -1.34180525997, 6.67324133647, 0.457001652845, 0.175764464023, -0.633253660438, -0.509246435757, -1.35405804429, 0.251709567787, 0.267552525847, 4.6947736213, -0.495593137811, -0.0818706025473, -0.139463943718, -0.362278310957, 0.271260209997, 0.228631140824, 0.297012739741, 2.28004960481, -0.381222929853, -0.522612763103, -0.435483836906, -0.475576584267, 2.25539860241, 0.420142479806, 0.485699294284, 4.39930633685, -0.388963933243, 0.447434515347, -1.07356050169, -1.44980934096, -0.719207409805, -0.709179083828, 0.627549325451, 4.27589741129, -0.39313443894, 0.723517262313, -0.684552754679, -1.43038719919, -0.852293692177, -1.34153715113, -0.0450522179451, 0.657595413609, -0.153357250176, -2.90833594933, -4.98075199296, -2.65522378743, 2.73728570658, 1.11745340229, -0.0196294277531, 1.30145331217, 0.52777219053, -1.36865913272, -2.93510277998, -1.88605830028, 1.96391944836, 0.836145197744, -0.221466676503, 9.10865362987, 4.58669589695, 6.10066078857, 2.20458472957, -0.182713142728, -4.90274135006, -4.1220399741, -3.23010104607, -0.111157263712, 0.643601238867, -1.6531331045, -4.12843728237, -2.07293208199, 1.90261688008, 0.534763705541, -0.979787417581, -3.44616045411, -7.89048922662, -10.3397979883, -4.11589551685, -1.80511359529, 7.1992771915, 1.49837539997, 0.438759464827, -1.21164928279, -6.8185494705, -8.53342736368, -3.17332611091, -1.60048543825, 5.57708521398, 0.800975130748, 0.405918072201, 4.74731465427, 0.837375027372, 0.0443565904982, -3.91111950599, -2.12110607242, -0.92585672863, -0.962641852717, -0.213991377543, 2.41104960677, -0.540458642055, -1.10872239757, -1.69765812168, -3.64377699828, 0.708647163435, 0.276638531721, 0.513069172027};
// const int tmp_connections140[129] = {128, 0, 1, 2, 3, 4, 5, 6, 7, 8, 9, 10, 11, 12, 13, 14, 15, 16, 17, 18, 19, 20, 21, 22, 23, 24, 25, 26, 27, 28, 29, 30, 31, 32, 33, 34, 35, 36, 37, 38, 39, 40, 41, 42, 43, 44, 45, 46, 47, 48, 49, 50, 51, 52, 53, 54, 55, 56, 57, 58, 59, 60, 61, 62, 63, 64, 65, 66, 67, 68, 69, 70, 71, 72, 73, 74, 75, 76, 77, 78, 79, 80, 81, 82, 83, 84, 85, 86, 87, 88, 89, 90, 91, 92, 93, 94, 95, 96, 97, 98, 99, 100, 101, 102, 103, 104, 105, 106, 107, 108, 109, 110, 111, 112, 113, 114, 115, 116, 117, 118, 119, 120, 121, 122, 123, 124, 125, 126, 127};
//
// const float tmp_weights141[129] = {2.47044775916, 1.77167115345, -2.23010907188, -1.00494817374, -1.86919703524, -1.66669580564, -0.307211021612, -0.477857468027, 0.832280845062, -0.963994456238, -2.41865664658, -7.60586321132, -7.18672094639, -2.97536382636, 2.03263646678, 1.14172584665, 1.90319456006, 6.02582462299, 5.27027295496, 1.22015643335, -0.816575854968, -2.32799591115, -2.57888382005, 0.657792537746, 2.39231085466, 5.18101701203, -0.508748817781, -1.45882666773, -1.50093178083, -2.27454335212, 0.289455884827, 1.78748633197, 2.02134583002, 0.232720220608, -2.19040229416, -1.84210693726, -0.894255912514, -1.9111269187, 1.68496114367, 2.02123293384, 2.25211089392, -1.70305279488, -2.12993394774, -2.25825445077, -1.27814145082, -1.92155586444, 1.96338563428, 1.88224637272, 2.70795582502, 2.30459489456, -2.15694393671, 1.61902490869, 0.736940991862, -1.178932414, 0.0710976567029, 0.675423474993, 2.71662666464, 1.66553511176, -2.16561137521, 1.05246145282, 0.478030596883, -1.00561317501, 0.553484750715, 0.936775903208, 2.64776628032, 4.54267854058, -0.806719201985, 1.86268991688, 0.531820147678, 1.50056481204, -2.98043802168, -2.08840500324, 0.619054645087, 6.35736790976, 1.06704428858, 4.29320373525, 3.17838979097, 3.59581875009, -3.8081519177, -2.98884957636, -0.234385298379, 6.17119050791, 4.9290777027, 5.78370203459, 7.59188052449, 0.377784641386, -2.38091320649, -0.946701929827, 1.00735738554, -4.17488212049, 1.53430735027, -1.19038105478, 2.77970923164, -1.98105613806, 4.57634634897, 3.66938594306, 3.76290524901, -5.16984158301, -4.60462550293, -5.10191683804, 0.133716867166, -1.39068683281, 4.76181274393, 0.77434809395, 1.66152172032, -5.24922854969, -4.71287609437, -7.50326527113, -0.870937789417, -1.75783134005, 5.3780219602, 1.37197936675, 1.50449698105, 2.71221558089, 3.54159906762, 3.03029739837, 4.25315363101, -0.559472424109, -0.316267599298, 0.0972599195378, 1.77031104813, 0.125840177002, 2.29657254022, 3.25107140759, -0.14441747835, 0.741724628101, 1.08083375248, 0.832877675364, 2.08269915214};
// const int tmp_connections141[129] = {128, 0, 1, 2, 3, 4, 5, 6, 7, 8, 9, 10, 11, 12, 13, 14, 15, 16, 17, 18, 19, 20, 21, 22, 23, 24, 25, 26, 27, 28, 29, 30, 31, 32, 33, 34, 35, 36, 37, 38, 39, 40, 41, 42, 43, 44, 45, 46, 47, 48, 49, 50, 51, 52, 53, 54, 55, 56, 57, 58, 59, 60, 61, 62, 63, 64, 65, 66, 67, 68, 69, 70, 71, 72, 73, 74, 75, 76, 77, 78, 79, 80, 81, 82, 83, 84, 85, 86, 87, 88, 89, 90, 91, 92, 93, 94, 95, 96, 97, 98, 99, 100, 101, 102, 103, 104, 105, 106, 107, 108, 109, 110, 111, 112, 113, 114, 115, 116, 117, 118, 119, 120, 121, 122, 123, 124, 125, 126, 127};
//
// const float tmp_weights142[129] = {-1.98145995257, -1.45885280746, 1.35573517635, -2.56898481596, -3.38779475641, 0.473011549329, 0.003586312716, -0.527440512807, -2.84143020651, -5.52432151917, 1.70253323051, -8.89871295214, -4.74023175709, 0.673475498412, 4.57275802603, -0.14514403749, -2.97150245601, 10.5568262584, 6.27650922779, 4.01050107648, 1.28872273152, 1.49713535157, -3.75892395535, -2.28762596594, -2.60356206107, 12.6210785676, 3.25700185875, 2.87383362517, 1.77350689674, 1.9403890788, -3.05195724178, -1.98770922279, -2.04413457741, 0.753012143489, 1.92354073757, -2.31032035127, -1.54322836791, 1.20289398761, 0.93622177318, -1.33206572798, -1.72851718345, 3.80001803789, 1.91952432428, -0.820223441191, -0.582938300655, 1.29154864932, 3.68944113987, -0.429079377407, -1.08764097499, 4.17168186953, 1.93674652367, -1.14450099578, -1.77384007799, 0.263715339155, 0.791600860566, 0.395323024506, -1.0607378999, 5.68600059723, 1.9157336655, -0.192165826353, -1.47607146117, 0.143854632468, 0.272803009185, -0.0601099859976, -1.54519802422, -8.50330392131, -3.94960913825, -9.59399244237, -10.0597315126, -4.36814949668, 6.18271115157, 3.09194106863, -1.81003202779, -3.8403391184, -2.65992293602, -4.42357158378, -4.84373632253, -2.75346290257, 1.89446522939, 0.650525726034, -2.30485170347, 3.40747249904, 3.13983693007, 0.725231634025, -1.60565874856, 0.983778601995, -0.55758550482, -0.850060373464, -1.48065914731, 4.57314304713, 2.73679268869, 0.365433970466, -3.06588038356, 1.12312055483, -0.0541605992942, -0.511283100617, -1.49559802912, 4.36701418783, 1.00751530226, -11.9998921757, -7.47692636975, -1.06673078111, 4.6048809332, 3.50293125168, 0.300944767612, 11.7380127796, 5.00268712984, -8.1535034112, -5.39719387988, -0.165245582457, -0.521744175383, 0.796431223173, 0.161025237568, -1.03586470472, -0.039473902113, -4.55077904395, -5.60281045188, -0.357045739235, 1.67853639069, 1.12234394013, -0.856431456144, -2.45053580955, -0.718268842183, -6.83212780228, -0.728402027416, -2.57402794092, 2.75769490551, 2.09336524022, -0.546131337433};
// const int tmp_connections142[129] = {128, 0, 1, 2, 3, 4, 5, 6, 7, 8, 9, 10, 11, 12, 13, 14, 15, 16, 17, 18, 19, 20, 21, 22, 23, 24, 25, 26, 27, 28, 29, 30, 31, 32, 33, 34, 35, 36, 37, 38, 39, 40, 41, 42, 43, 44, 45, 46, 47, 48, 49, 50, 51, 52, 53, 54, 55, 56, 57, 58, 59, 60, 61, 62, 63, 64, 65, 66, 67, 68, 69, 70, 71, 72, 73, 74, 75, 76, 77, 78, 79, 80, 81, 82, 83, 84, 85, 86, 87, 88, 89, 90, 91, 92, 93, 94, 95, 96, 97, 98, 99, 100, 101, 102, 103, 104, 105, 106, 107, 108, 109, 110, 111, 112, 113, 114, 115, 116, 117, 118, 119, 120, 121, 122, 123, 124, 125, 126, 127};
//
// const float tmp_weights143[129] = {1.02764724701, 0.358285029428, -1.23332186636, -0.657645196498, -0.945900979728, -0.390295695882, -0.125772518368, -0.245671758742, -0.0645588568004, -2.1827198818, -1.26602010881, -4.45196103754, -3.59639840528, -1.05889996399, 2.11870483163, 1.03827639669, 0.482998819376, 1.26500399709, 1.78178303043, -0.266296435446, -0.446954670615, -0.946717520983, 0.335972586048, 0.755890494722, 0.968755743709, 1.235535429, -0.430754968101, -0.776274881803, -0.647196464347, -1.01900588165, 0.642165923037, 0.856361220141, 0.949476753577, -0.414218629865, -0.985554683801, -0.808794581255, -0.497203425409, -0.894999043094, 0.756917933229, 0.915091260583, 0.998060850828, -0.527226534609, -1.05243140533, -0.985259862646, -0.634898626823, -0.88534121524, 0.27393272316, 0.677261063542, 1.18979617721, 0.0516310184331, -1.10458843226, 0.562146326557, 0.908883968471, -0.0256016097974, 0.516268399723, 0.449913513652, 1.13935992242, -0.214356010039, -1.08534541342, 0.207489924415, 0.657777245192, 0.122377334168, 0.932765053724, 0.765034389615, 1.38523345735, 0.437313771962, -2.00752254186, 0.19812286567, 0.261995577292, 1.75028806566, -0.896893472578, -1.11810591106, -0.526115435065, 1.865767868, -1.0142924641, 1.48611937843, 1.51070085561, 2.85573643464, -2.15383744712, -2.00995870368, -0.910955705449, 0.186499625008, 1.05707986978, 0.109195582652, 3.18897013033, 0.527506384997, 0.742007938235, 0.671559347934, 0.762102351203, -1.98230224723, 0.337793665778, -0.656512388901, 3.20815212829, 0.0265505741267, 2.23164651994, 1.59510969662, 1.14009336871, -0.613674758793, 0.0170052856528, 0.981640056551, 1.22374968361, -0.15965345269, 0.257542244914, -0.253403692067, 0.515455534792, -1.17846455795, -0.0438382332223, -1.25844349856, 0.307702283485, -0.425665366388, 0.652851950116, -0.0776245297012, 0.467140556326, -0.324084822941, 1.23645305049, 1.17932117868, 4.46704120487, 0.926405181756, 0.561856830681, 0.119278731067, 0.815192417143, -1.37549315879, 0.728792921715, 1.24211287348, 0.645878956107, 2.23434273248, 0.963104582886, 0.339098426441, 0.924819922836};
// const int tmp_connections143[129] = {128, 0, 1, 2, 3, 4, 5, 6, 7, 8, 9, 10, 11, 12, 13, 14, 15, 16, 17, 18, 19, 20, 21, 22, 23, 24, 25, 26, 27, 28, 29, 30, 31, 32, 33, 34, 35, 36, 37, 38, 39, 40, 41, 42, 43, 44, 45, 46, 47, 48, 49, 50, 51, 52, 53, 54, 55, 56, 57, 58, 59, 60, 61, 62, 63, 64, 65, 66, 67, 68, 69, 70, 71, 72, 73, 74, 75, 76, 77, 78, 79, 80, 81, 82, 83, 84, 85, 86, 87, 88, 89, 90, 91, 92, 93, 94, 95, 96, 97, 98, 99, 100, 101, 102, 103, 104, 105, 106, 107, 108, 109, 110, 111, 112, 113, 114, 115, 116, 117, 118, 119, 120, 121, 122, 123, 124, 125, 126, 127};
//
// const float tmp_weights144[129] = {0.464993254118, 0.542114970738, -1.06370390245, -2.09195433133, -3.40520619841, -1.19905566454, 1.05179812491, -0.12836313077, -0.410976855913, 1.82381548729, -0.475771780318, -3.85537281261, -3.71946000577, -1.03060180808, 0.656372775922, -0.887678068869, -0.744554703908, 6.7655193249, 4.31174972132, 1.85433598182, -1.05600405773, -1.27545368693, -4.60307371959, -1.15221242142, -0.873267790767, 6.12491178625, 0.270547593445, 0.0700142199612, -0.657232928649, -0.613789420372, -1.44626584796, 0.466853979767, 0.624509342054, 2.38881402702, -0.923599570247, -0.883150178862, -0.749037502323, -0.852849798296, 0.642483301673, 0.481578779801, 0.464119005444, 0.377640407398, -0.765681431494, -1.10219390431, -0.911775904529, -0.912454797978, 2.60483179896, 0.659615654291, 0.658295707477, 3.8617193387, -0.759603298339, 0.797065536197, -0.615372664899, -1.25029240962, -1.0213623449, -0.681268723592, 0.146654813494, 3.70667235289, -0.805847992818, 1.00862702257, -0.353180188314, -1.13330109264, -1.06709997807, -1.1252860261, -0.355458207926, 0.603621985833, -0.831216893695, -2.73767175535, -4.51704996825, -2.18196647728, 1.92478055386, 0.776857805246, 0.155878111593, 1.31259089992, -0.217665214809, -1.13547448596, -2.4379027821, -1.37778374561, 1.28759854097, 0.493133170054, -0.0951821079355, 8.0843511407, 4.70775096041, 5.76874418251, 2.79933174504, -0.0343726169247, -4.51407261829, -3.27024415429, -2.35246800615, 0.0463018615608, 1.31769157293, -0.652799110289, -2.28142860627, -1.57222206775, 1.34954080336, 0.729475747316, -0.206468507707, -4.35262550613, -7.33391103852, -10.2260378246, -4.17272359708, -2.184241164, 6.67872261742, 2.29714623415, 1.02998409483, -2.46764694505, -6.22815791676, -9.19453348966, -3.35177094303, -1.95757749172, 5.57896684094, 1.7840180296, 0.945027392481, 4.26575857737, 1.43836795538, 0.595613870879, -2.16317663206, -1.51787891445, -1.03591748584, -0.876076142473, -0.383712306737, 2.02837853627, 0.219036047638, -0.479478037921, -1.45400725324, -2.5420841457, 0.329973238836, 0.237912560026, 0.201163447982};
// const int tmp_connections144[129] = {128, 0, 1, 2, 3, 4, 5, 6, 7, 8, 9, 10, 11, 12, 13, 14, 15, 16, 17, 18, 19, 20, 21, 22, 23, 24, 25, 26, 27, 28, 29, 30, 31, 32, 33, 34, 35, 36, 37, 38, 39, 40, 41, 42, 43, 44, 45, 46, 47, 48, 49, 50, 51, 52, 53, 54, 55, 56, 57, 58, 59, 60, 61, 62, 63, 64, 65, 66, 67, 68, 69, 70, 71, 72, 73, 74, 75, 76, 77, 78, 79, 80, 81, 82, 83, 84, 85, 86, 87, 88, 89, 90, 91, 92, 93, 94, 95, 96, 97, 98, 99, 100, 101, 102, 103, 104, 105, 106, 107, 108, 109, 110, 111, 112, 113, 114, 115, 116, 117, 118, 119, 120, 121, 122, 123, 124, 125, 126, 127};
//
// const float tmp_weights145[129] = {0.157167545685, 0.997171356873, -0.459810533788, -2.53186630006, -3.60615619362, -0.30403005664, 1.11498332898, -0.177925287785, -1.52069723132, 7.38028201634, -0.164790456594, -0.151915852035, -1.37891451837, 0.347159050098, -2.02606402624, -2.76188146878, -3.27035218348, 5.92484026784, 0.655622532652, 0.40774472669, -0.351890341416, -0.392017938552, -1.64949920114, -0.642140627787, -1.40823039247, 5.78057000004, -0.0888236075318, -0.02742665519, -0.229796780336, -0.171975723075, -0.443422257042, 0.101429556529, 0.0678751477903, 2.87555039737, -0.287297234124, -1.63756891295, -1.33520395221, -0.271984225327, 1.44388958107, 0.346222054133, 0.0853459627855, 1.82347782326, -0.151971458946, -1.60153229595, -1.11120371702, -0.193994550954, 5.05353068804, 0.689604714224, -0.429658736707, 4.16396103139, -0.233539531044, -1.84358973005, -1.31057685823, -0.418283330236, 0.814177717288, 0.347206568573, -1.46279028069, 4.13374261783, -0.191576746285, -1.80138812728, -1.33402143129, -0.472386668474, 1.1014410626, 0.541309567214, -1.0488557402, 2.33825096142, -1.38491630348, -2.07703902759, -3.61843834436, 0.523733778233, 0.808674181869, -0.732725147447, -1.9211516906, 0.945878871896, -1.12549595059, -2.03423635007, -3.07275609003, 0.169435633447, 0.780097955699, -0.326067262273, -1.48515119837, 6.19425704447, 0.998320027308, 0.569652582989, -0.226020460692, -0.0429227856466, -1.45898576703, -0.942073365709, -1.47845698243, 0.925231672857, -1.5806079071, -4.01408094577, -3.43342893784, -0.913943247757, 2.74202870781, 1.75766985496, -0.241045452931, 3.49975281157, -4.62314847354, -6.63821564285, -3.61381147257, -1.09961554113, 5.17314015708, 2.40072945482, -0.126838383271, 4.74635163432, -3.88316697508, -6.6742689725, -2.78554670255, -0.784339591513, 4.16225855819, 1.63934108502, -0.412791242418, 4.18753394287, -1.02902254054, -2.17466917143, -2.46305806698, -0.818477724314, 0.285442021574, 0.305207753975, -0.709659504406, 2.05646669275, -2.1089021828, -3.61988900962, -1.09717649379, -1.56414749682, 1.70259357636, 1.24686137024, -0.47720000328};
// const int tmp_connections145[129] = {128, 0, 1, 2, 3, 4, 5, 6, 7, 8, 9, 10, 11, 12, 13, 14, 15, 16, 17, 18, 19, 20, 21, 22, 23, 24, 25, 26, 27, 28, 29, 30, 31, 32, 33, 34, 35, 36, 37, 38, 39, 40, 41, 42, 43, 44, 45, 46, 47, 48, 49, 50, 51, 52, 53, 54, 55, 56, 57, 58, 59, 60, 61, 62, 63, 64, 65, 66, 67, 68, 69, 70, 71, 72, 73, 74, 75, 76, 77, 78, 79, 80, 81, 82, 83, 84, 85, 86, 87, 88, 89, 90, 91, 92, 93, 94, 95, 96, 97, 98, 99, 100, 101, 102, 103, 104, 105, 106, 107, 108, 109, 110, 111, 112, 113, 114, 115, 116, 117, 118, 119, 120, 121, 122, 123, 124, 125, 126, 127};
//
// const float tmp_weights146[129] = {2.36219537637, 2.06553489484, -2.39060340014, -0.821560536152, -1.60251895725, -0.999280324869, -0.421439248364, -0.575585060789, 0.535136293952, -0.0328596027675, -2.41471723061, -6.72645403358, -6.15462167118, -1.98600767025, 1.34148138329, 0.590008304168, 1.15315084876, 4.73680167563, 2.49278529738, 0.463849656093, -0.52888925636, -1.86554801176, -0.483556251826, 1.00131629818, 2.26082930745, 4.27862788911, -1.07695652571, -1.55410926785, -1.16719763554, -2.07768439097, 1.02387625675, 1.66263806994, 1.85960340699, 0.0254811991745, -2.18941844775, -1.21343116919, -0.510341180419, -1.8433635145, 2.07290656169, 2.0073225882, 2.12053437834, -1.37896861461, -2.17350863684, -1.77415631563, -0.995985359354, -1.86847330773, 3.10860440453, 2.03229353166, 2.70502429811, 1.55865321522, -2.12737426643, 1.03995544742, 1.27833608555, -0.473197526332, 1.2836468177, 1.45580753559, 2.99245076314, 0.917206218349, -2.19850131164, 0.382467737104, 0.918904237033, -0.241001039941, 1.93350756001, 2.11046296013, 3.39661893502, 5.19815913301, -2.09299158842, 2.53011999557, 1.66625810511, 3.58915639825, -4.20418404475, -3.19552914898, -0.210933131726, 6.74655143542, -0.178256078958, 4.57456698319, 3.79432734707, 5.37335855285, -5.14834211582, -4.14385520726, -0.83372127712, 3.72390147966, 1.97021742142, 2.48753275806, 6.71372413142, 0.546267681074, -0.177968571282, 0.56583829618, 2.0037454628, -5.0014568623, -0.627332557233, -3.07749358525, 3.57622099271, -1.23903622291, 5.89229676696, 4.5993480986, 4.21780484169, -2.26245634008, -5.29882312408, 0.895862071725, 2.76323728445, -0.376853473482, 3.95706210687, 0.725460945186, 1.70117893446, -2.54937162137, -5.44293235866, -2.04894413131, 1.17141847157, -0.943280446426, 4.41354159988, 1.32185000273, 1.62397199539, 1.58576586588, 1.46285226954, 2.12436648173, 6.34467654989, 0.673997499255, 0.770937099436, 0.825750170378, 2.20351949485, -1.16575969233, 0.299300003477, 2.60482620717, 0.557251500709, 2.70452419951, 2.0401498818, 1.5459449506, 2.41959471395};
// const int tmp_connections146[129] = {128, 0, 1, 2, 3, 4, 5, 6, 7, 8, 9, 10, 11, 12, 13, 14, 15, 16, 17, 18, 19, 20, 21, 22, 23, 24, 25, 26, 27, 28, 29, 30, 31, 32, 33, 34, 35, 36, 37, 38, 39, 40, 41, 42, 43, 44, 45, 46, 47, 48, 49, 50, 51, 52, 53, 54, 55, 56, 57, 58, 59, 60, 61, 62, 63, 64, 65, 66, 67, 68, 69, 70, 71, 72, 73, 74, 75, 76, 77, 78, 79, 80, 81, 82, 83, 84, 85, 86, 87, 88, 89, 90, 91, 92, 93, 94, 95, 96, 97, 98, 99, 100, 101, 102, 103, 104, 105, 106, 107, 108, 109, 110, 111, 112, 113, 114, 115, 116, 117, 118, 119, 120, 121, 122, 123, 124, 125, 126, 127};
//
// const float tmp_weights147[129] = {-0.724140468968, 0.197426854629, 0.891063435555, 1.38231844702, 1.58064478691, 0.655778942676, -0.37889865493, -0.0105014177929, 0.0755035448424, 0.539405664118, 0.708372399723, 2.49925717974, 2.08829662683, 0.773375252748, -0.847844412578, -0.201431403865, 0.0761558827848, -2.43177159605, -0.312609406708, -0.357158632428, 0.463398472494, 0.759886511955, 1.02217731722, -0.00507804298259, -0.199814919209, -2.52600769712, 0.493508172857, 0.419972596685, 0.578859272427, 0.73851383921, 0.0230045905364, -0.572732430383, -0.710518705489, -2.26931785274, 0.778339624628, 0.349676784977, 0.460522604612, 0.65413108107, -0.335960601767, -0.692941218831, -0.716353006406, -1.82958645721, 0.755094615637, 0.476054926488, 0.546608810989, 0.643342795079, 0.232488218875, -0.468806085655, -0.558838977431, -1.84220873636, 0.765610301655, -0.721230144458, 0.128772870103, 0.313568559737, 0.529518712207, 0.319968837147, -0.415564151392, -1.8833584935, 0.79944755581, -0.614670747623, 0.189467393473, 0.25224726813, 0.530509817502, 0.208142492361, -0.513120152966, 1.08581562295, 1.85989424522, 1.95398130892, 2.07315228492, 0.353291550112, -1.21066514478, -0.511039028482, 0.0124761270501, 0.485964848065, 1.5213095856, 1.30130255995, 1.44165638648, 0.0376783891805, -0.624314797284, -0.0407950983679, 0.117901603228, -1.96798121334, 0.00483033648317, -1.09351178781, -1.18675735922, -0.1031988667, 0.75666336651, 0.428683780838, 0.0663773790419, -0.63521865588, 0.86159979839, -0.365621600724, -0.512469452213, 0.287850131398, -0.243319322557, -0.257328652714, 0.00236454118702, -2.22266991488, 0.975672660761, -0.335031498175, 0.164138365599, 0.406342150725, 0.43872549391, 0.523023111523, -0.174406481173, -2.56373983943, 0.735485243236, -0.277459845069, 0.281529615049, 0.381552964656, 0.75864484255, 0.483565031472, -0.0857136652727, -1.50525603077, 0.672310879752, -0.851632936928, -0.730641314685, 0.167627278879, 0.472550805424, 0.333467039802, -0.394520182675, -1.03721788863, 1.06838445581, -0.743488607038, 0.265194489596, -0.125386671605, 0.127026499403, 0.237989781015, -0.49325083145};
// const int tmp_connections147[129] = {128, 0, 1, 2, 3, 4, 5, 6, 7, 8, 9, 10, 11, 12, 13, 14, 15, 16, 17, 18, 19, 20, 21, 22, 23, 24, 25, 26, 27, 28, 29, 30, 31, 32, 33, 34, 35, 36, 37, 38, 39, 40, 41, 42, 43, 44, 45, 46, 47, 48, 49, 50, 51, 52, 53, 54, 55, 56, 57, 58, 59, 60, 61, 62, 63, 64, 65, 66, 67, 68, 69, 70, 71, 72, 73, 74, 75, 76, 77, 78, 79, 80, 81, 82, 83, 84, 85, 86, 87, 88, 89, 90, 91, 92, 93, 94, 95, 96, 97, 98, 99, 100, 101, 102, 103, 104, 105, 106, 107, 108, 109, 110, 111, 112, 113, 114, 115, 116, 117, 118, 119, 120, 121, 122, 123, 124, 125, 126, 127};
//
// const float tmp_weights148[129] = {0.315142231458, 0.870948533885, -0.465027575328, 0.183911386723, -0.365259865773, -0.274339255543, -0.0450212918616, -0.237236508694, -0.000272084776355, 2.10077782443, -0.298957041169, 0.753730010385, 0.0128221991673, -0.176232817208, -0.924473398944, -0.865550726369, -0.335582634726, 1.89159596372, 0.443298688721, 0.0283069367099, -0.542582182192, -0.421213226957, -0.965619927579, -0.190246767467, 0.181358198867, 1.74615144917, -0.219809553974, -0.241595663444, -0.439596537902, -0.355488978174, -0.168835229375, 0.321827241581, 0.418598915563, 2.08504638334, -0.34543506574, -0.0820563264492, -0.396422105904, -0.444617163099, 0.081964978548, 0.264507762463, 0.305377919404, 1.25875132815, -0.362278827949, -0.231936044814, -0.404685037584, -0.4231851053, 0.159492352667, 0.243694773096, 0.429895675998, 1.13354196806, -0.414663938646, -0.275528254442, -0.750329332285, -0.81458623721, 0.0160024089296, 0.142495822578, 1.07674566607, 1.17868326625, -0.386196695911, -0.201410086018, -0.710797055452, -0.889258720524, 0.00042253273979, -0.117932386324, 0.895988377961, 1.2459272067, 0.0197212643382, 0.557751121032, 0.114886707478, 0.317819371827, -0.112696228856, -0.422221609164, -0.341660050819, 1.0158775354, 0.125260246709, 0.5464346281, 0.182530672272, 0.417822669153, -0.0535243163983, -0.28059683966, -0.295036070829, 2.17265707038, 0.610045806543, 0.972805835742, -0.486163309508, -0.452007328122, -0.949020954602, -0.857633542858, -0.220575145045, 0.224187540502, -0.239670583732, -0.706504466373, -1.90162740943, -0.82369212276, 0.562030904106, 0.161041096098, 0.328098762203, -0.0410994754663, -1.37122388637, -2.7411559569, -1.71153182075, -0.846682547845, 1.24494423093, 0.345603427288, 0.664062316084, 0.279805808944, -1.25957325212, -2.55264660604, -1.44121828725, -0.767083121853, 0.885011809699, 0.0899055719214, 0.631622573541, 1.29205328141, -0.250960648633, -0.301732840116, -1.68320937456, -0.945018382185, -0.146711818963, -0.0180080959239, 0.780365049368, 0.739768911699, -0.537635955422, -0.532168103414, -0.824206411763, -1.32185647172, 0.240432511975, 0.415091337312, 1.07953441804};
// const int tmp_connections148[129] = {128, 0, 1, 2, 3, 4, 5, 6, 7, 8, 9, 10, 11, 12, 13, 14, 15, 16, 17, 18, 19, 20, 21, 22, 23, 24, 25, 26, 27, 28, 29, 30, 31, 32, 33, 34, 35, 36, 37, 38, 39, 40, 41, 42, 43, 44, 45, 46, 47, 48, 49, 50, 51, 52, 53, 54, 55, 56, 57, 58, 59, 60, 61, 62, 63, 64, 65, 66, 67, 68, 69, 70, 71, 72, 73, 74, 75, 76, 77, 78, 79, 80, 81, 82, 83, 84, 85, 86, 87, 88, 89, 90, 91, 92, 93, 94, 95, 96, 97, 98, 99, 100, 101, 102, 103, 104, 105, 106, 107, 108, 109, 110, 111, 112, 113, 114, 115, 116, 117, 118, 119, 120, 121, 122, 123, 124, 125, 126, 127};
//
// const float tmp_weights149[129] = {-1.31992222127, -3.2890963214, 2.30651673518, 4.31439562951, 6.05215448066, -0.275274394842, -0.633711641577, 2.46047159018, 4.59338544752, -3.98974844092, 1.01014888767, 11.9752278791, 11.1383760288, 1.551588889, -2.73806755407, 2.18022368462, 4.72969911043, -15.4942194752, -5.29922472486, -3.04599272109, -0.158031682496, 1.07492491527, 4.45705300283, 0.813925872139, 1.18780252996, -15.4554067589, -0.210195401929, 0.0139059401743, 0.590626441541, 1.27892806331, 1.15714324618, -0.917176966697, -1.00403724063, -12.6894232165, 1.43936092446, -0.39164436865, 0.233614367084, 0.711916558749, -1.25306443916, -1.12341431538, -1.08849605487, -8.47515723066, 1.30782040929, 1.03781225728, 0.969322729155, 0.806385237079, -3.98612711333, -1.0482027433, -0.479303317315, -8.71212912054, 1.32739728133, -1.98726540433, -0.769072845838, -0.0233546658704, -1.26545425627, -0.75974404495, 0.190904716759, -8.59842064435, 1.3076529011, -1.69190798677, -0.51484064792, -0.556862666476, -1.88541771824, -1.09712083268, 0.190499799237, -0.669712165869, 8.35328253289, 5.76207837838, 7.31089660856, -4.1183416622, -3.83053907877, 1.25654402677, 4.93611257148, -3.59760960833, 5.4409227607, 1.40008794603, 2.61381361961, -6.81653817943, 0.590058186195, 3.75756986098, 5.41750233658, -12.6334297729, -3.74603292584, -4.77844839319, -6.59987555993, -2.33997768975, 2.70422475426, 2.24797916969, 3.25905072233, 1.98346815647, 2.98009685305, 5.44292241961, 0.0750659669385, 0.476576664748, -8.89148779903, -5.34865509561, 0.27072760011, -5.07971922128, 9.84513482077, 5.36063957857, 1.67421958957, 0.287240076479, -8.48128246205, -1.20535515716, 1.96333477125, -6.98744599379, 8.06929876356, 8.50816644079, 2.29257622583, 0.663885510637, -7.38203300203, -0.852276332397, 2.60937740994, -7.48102998845, 1.51573534775, -1.93128974511, -3.89877275516, -1.05249638062, -0.484649346272, 0.0248746607635, 0.344149749852, -1.1897521525, 5.01185169692, -0.0747879813235, -0.131518298734, -1.87031387011, -4.12941874411, -2.36534324853, -0.495395670929};
// const int tmp_connections149[129] = {128, 0, 1, 2, 3, 4, 5, 6, 7, 8, 9, 10, 11, 12, 13, 14, 15, 16, 17, 18, 19, 20, 21, 22, 23, 24, 25, 26, 27, 28, 29, 30, 31, 32, 33, 34, 35, 36, 37, 38, 39, 40, 41, 42, 43, 44, 45, 46, 47, 48, 49, 50, 51, 52, 53, 54, 55, 56, 57, 58, 59, 60, 61, 62, 63, 64, 65, 66, 67, 68, 69, 70, 71, 72, 73, 74, 75, 76, 77, 78, 79, 80, 81, 82, 83, 84, 85, 86, 87, 88, 89, 90, 91, 92, 93, 94, 95, 96, 97, 98, 99, 100, 101, 102, 103, 104, 105, 106, 107, 108, 109, 110, 111, 112, 113, 114, 115, 116, 117, 118, 119, 120, 121, 122, 123, 124, 125, 126, 127};
//
// const float tmp_weights150[129] = {-1.06888168115, -2.46038106471, 1.26329082487, 0.289914213943, 0.586577878753, -0.98948192745, -0.0174751952831, 0.54227400029, 0.88186379808, -3.62303829167, 1.43360937953, 0.213654726567, 1.56895505995, 0.195234671652, 0.470716404914, 0.00108761285651, 1.40303557438, -2.26308771909, 2.72746151081, 1.35655404773, 0.476527371456, 0.434947473013, -2.98421691052, -1.59931328722, -1.65227754646, -2.81484954333, 1.33496160361, 1.13068828787, 0.866910481804, 1.03785773233, -1.80686875994, -1.22209596141, -1.23010473844, -3.3784344803, 0.825476961901, 0.648189353773, 1.27904459849, 0.850092178834, -0.910105955746, -1.21215434008, -1.23613451202, -2.66100167075, 0.954328171739, 1.09982133633, 1.37243250058, 0.901961826403, -0.550938277154, -1.01364319515, -0.7109780609, -2.54678111405, 1.00620249068, 0.299910389582, 0.607464853903, 0.0422883184751, -1.85182193395, -1.85249410412, -0.42004045581, -2.46573215894, 0.943673965582, 0.676497097537, 0.834461666163, -0.102907466184, -2.47421190665, -2.47348146179, -0.68368356443, -4.19705674923, 3.62465721555, -1.92145663947, -1.93952591918, -5.16856910872, 1.92954997531, 2.32554324392, 2.26204975481, -3.44385623056, 3.0903773488, -1.17981369583, -1.16715153578, -5.13839042794, 2.1414010641, 2.46246538895, 1.89908213009, -0.87688593951, 3.03504297288, 3.54519164244, 2.50864804247, 0.53144716468, -2.91962681931, -2.99083907434, -3.10206702083, -2.13298638302, 2.70327691703, 1.56148094765, 0.429965830783, 0.0520532947735, -2.44887703526, -2.49232450264, -2.70488937446, -7.84233539266, -2.28893331199, -4.65392411631, -0.321542168402, 0.00708775099219, 3.20972454369, 0.310712029607, 0.134031935902, -6.18473805936, -1.36971463696, -1.32696865904, 0.713122276032, 0.222532217305, 2.60805494291, 0.20758503496, 0.52491795558, -2.37245330805, 1.975502655, -0.154663652687, -1.30562805752, -0.535290976302, -1.18285135778, -1.63711569047, -1.03506914209, -1.47743371949, 2.4088015481, -0.176686338132, 0.143141517196, -1.59171888613, -1.54842023812, -1.86839014009, -1.15100436695};
// const int tmp_connections150[129] = {128, 0, 1, 2, 3, 4, 5, 6, 7, 8, 9, 10, 11, 12, 13, 14, 15, 16, 17, 18, 19, 20, 21, 22, 23, 24, 25, 26, 27, 28, 29, 30, 31, 32, 33, 34, 35, 36, 37, 38, 39, 40, 41, 42, 43, 44, 45, 46, 47, 48, 49, 50, 51, 52, 53, 54, 55, 56, 57, 58, 59, 60, 61, 62, 63, 64, 65, 66, 67, 68, 69, 70, 71, 72, 73, 74, 75, 76, 77, 78, 79, 80, 81, 82, 83, 84, 85, 86, 87, 88, 89, 90, 91, 92, 93, 94, 95, 96, 97, 98, 99, 100, 101, 102, 103, 104, 105, 106, 107, 108, 109, 110, 111, 112, 113, 114, 115, 116, 117, 118, 119, 120, 121, 122, 123, 124, 125, 126, 127};
//
// const float tmp_weights151[129] = {-1.64519081155, -2.60963335743, 1.86359718638, -1.86159735781, -2.79861010876, -0.830879658947, 0.842910569812, 0.599594657643, -0.106990335416, -4.40611218405, 2.00886091754, -4.19778550195, -2.08466579567, 0.140027846046, 4.01798551044, 1.0982735019, 0.243112939629, 2.64868719231, 6.92277861662, 4.80448006635, 1.65821743428, 1.31721877443, -7.27630902276, -3.2162030554, -1.76247985227, 2.00482046179, 2.72569802203, 2.51203217944, 1.67879147408, 1.60859499693, -4.09861628475, -1.93340916542, -1.68416565411, -4.28818979888, 1.50224701018, -1.48795546227, -0.123258226689, 1.39894628072, -0.253418969558, -1.34770083367, -1.53570583257, -3.84837111032, 1.62497733406, -0.613369255426, 0.428292155735, 1.40948337862, 2.39969545381, -0.618653444896, -0.934014574524, 0.438236069594, 1.66074757911, 1.89392522104, 0.553159206587, 0.76561748722, -3.08107815563, -1.33592595176, 0.357323838266, 0.797291902834, 1.67881324222, 2.30720608951, 0.86345461, 0.763323606868, -3.72077403346, -2.17140248741, -0.457252470729, -7.82205590434, 2.48106509049, -7.52146901175, -8.78877352064, -8.05961980391, 7.27774986534, 5.44160212316, 1.58466078839, -5.95110671873, 2.16585896465, -5.18422357807, -6.1758457941, -7.51797962848, 5.34731480855, 4.37938655224, 1.23734803129, 4.16402441921, 7.19744790498, 9.16673136301, 5.67831302934, 2.40859892686, -5.82269707855, -3.72368417743, -1.46049800132, 1.68533780508, 5.14085521944, 6.70367206696, 2.90757994594, 1.42349061151, -4.57132319633, -2.79676890881, -0.48510261552, -10.820946159, -2.7336561562, -16.5641698347, -6.1861092825, -0.803997146945, 8.10080959654, 4.87986468173, 1.78900357696, -8.27222369439, -1.07268483384, -13.7602216369, -3.7574478096, -0.112143811376, 6.56226578897, 3.50192114899, 1.65825148878, 0.108749011297, 3.80316353164, 1.58789771975, -1.51974819263, 0.0245838531783, -1.60109784784, -0.463786628538, 0.0357908631563, -0.164895058861, 3.80951280416, -0.0755259277755, 0.220821579804, -1.7337689582, -1.32891739218, 0.0972358929986, 0.283726963841};
// const int tmp_connections151[129] = {128, 0, 1, 2, 3, 4, 5, 6, 7, 8, 9, 10, 11, 12, 13, 14, 15, 16, 17, 18, 19, 20, 21, 22, 23, 24, 25, 26, 27, 28, 29, 30, 31, 32, 33, 34, 35, 36, 37, 38, 39, 40, 41, 42, 43, 44, 45, 46, 47, 48, 49, 50, 51, 52, 53, 54, 55, 56, 57, 58, 59, 60, 61, 62, 63, 64, 65, 66, 67, 68, 69, 70, 71, 72, 73, 74, 75, 76, 77, 78, 79, 80, 81, 82, 83, 84, 85, 86, 87, 88, 89, 90, 91, 92, 93, 94, 95, 96, 97, 98, 99, 100, 101, 102, 103, 104, 105, 106, 107, 108, 109, 110, 111, 112, 113, 114, 115, 116, 117, 118, 119, 120, 121, 122, 123, 124, 125, 126, 127};
//
// const float tmp_weights152[129] = {2.03593509704, 0.83978174173, -2.16706807359, 0.907139913311, 1.49495622383, -0.0546832840137, -1.6840054997, -0.903795061962, 0.443102625707, -4.04340839954, -2.37369559696, -4.62058152939, -3.68699455965, -1.78302447124, 1.09370324383, 1.28225766434, 1.35288962646, -1.82903710367, 0.592284703537, -2.49676151477, -0.911037210174, -1.55643424696, 2.42119482767, 1.97208551387, 2.40010637297, -1.72300756759, -1.24158610638, -2.10843645583, -1.43425904655, -1.99923170101, 2.07976252941, 1.92709493174, 1.91527428316, -4.73358384371, -1.87630232, -1.54939555645, -0.977987722541, -1.73609972508, 1.87788731583, 1.99039458946, 2.14814421625, -3.66074129455, -1.93852968271, -1.58744218196, -1.06790655, -1.63688475052, 0.4348492794, 1.55626650545, 2.15409898899, -1.541563622, -1.89703472765, 0.353426219452, 1.5106752123, 0.144960290128, 0.187851361295, 0.0797982371843, 1.38286790552, -1.88771792081, -1.93141323212, -0.271162411541, 0.988991035243, 0.374439509922, 0.760660194098, 0.646335416933, 1.81431848679, 1.79229169321, -3.92824424441, 2.36588768213, 3.3488027358, 4.01433867056, -4.90564986616, -3.47353464779, -0.516135124221, 3.14029818238, -2.90027552147, 3.3156343602, 4.09113055629, 5.03932431184, -5.51010358717, -4.2073584619, -0.840955941732, -3.27880574666, 0.187659878857, -3.58886137517, 2.49895017971, -0.521001735301, 2.72810584477, 2.23298281179, 2.5390733928, -2.89962866229, 1.47035070354, -1.75017081132, 5.32365613016, -0.27632335285, 2.0149749104, 1.68059305855, 2.34777487601, -0.971942156171, -0.879477706675, 6.83976198862, 4.04069451524, 0.0255249835611, -2.36372898024, -0.747263589329, 1.42986673976, -2.80917999408, -1.35340614122, 2.6282695995, 2.0163233794, -0.58680288108, -0.584745269652, 0.165281232326, 1.58287640239, -1.55359356338, 2.36812355941, 1.54560655387, 8.32659666636, 1.66320544268, 0.43505528027, -0.0313610290735, 1.36713452409, -1.94302706278, 2.15993965352, 2.6540833161, 1.45325821466, 4.41654617092, 0.173061321967, -0.464650162687, 1.28074172511};
// const int tmp_connections152[129] = {128, 0, 1, 2, 3, 4, 5, 6, 7, 8, 9, 10, 11, 12, 13, 14, 15, 16, 17, 18, 19, 20, 21, 22, 23, 24, 25, 26, 27, 28, 29, 30, 31, 32, 33, 34, 35, 36, 37, 38, 39, 40, 41, 42, 43, 44, 45, 46, 47, 48, 49, 50, 51, 52, 53, 54, 55, 56, 57, 58, 59, 60, 61, 62, 63, 64, 65, 66, 67, 68, 69, 70, 71, 72, 73, 74, 75, 76, 77, 78, 79, 80, 81, 82, 83, 84, 85, 86, 87, 88, 89, 90, 91, 92, 93, 94, 95, 96, 97, 98, 99, 100, 101, 102, 103, 104, 105, 106, 107, 108, 109, 110, 111, 112, 113, 114, 115, 116, 117, 118, 119, 120, 121, 122, 123, 124, 125, 126, 127};
//
// const float tmp_weights153[129] = {-8.46793388244, -13.3339473284, 8.92096841852, 6.49646692333, 13.2818083006, 5.73617060386, 1.28503353503, 3.44010843716, -0.0277228079259, -15.0906546548, 8.26222016777, 29.0350184907, 30.659213377, 8.96684135395, -1.45456145655, 2.46293913214, -1.35642745221, -27.0624581786, -22.2756570194, -8.25848875872, 1.77709061888, 8.35972697077, 19.9522666325, 2.51020393055, -4.60356403249, -20.1356410774, 2.3424728495, 4.29674055455, 4.78616015529, 8.24419900928, 2.18751161997, -6.7485520479, -8.23354110656, -11.5769508978, 8.54145826527, 3.13063585567, 0.85326207123, 6.50656207878, -3.8104410571, -7.24761397122, -8.4355108074, 1.11607492326, 8.51812834397, 6.51222292664, 3.173870539, 6.64078014826, -4.10814225415, -5.62665930596, -8.61311554881, -10.2311227171, 8.40742283439, -8.21140004737, -7.53609634771, 1.98198565324, 3.50864758725, 0.467157340451, -8.23354885456, -5.87975400382, 8.46457285638, -5.53766907018, -6.38885125751, 0.0810816802705, 0.500932383167, -0.691679341899, -8.19102310619, -31.9547718087, -2.84427483882, -9.74082779699, 0.0231955781183, -7.64969013213, 18.8856114561, 15.0369676809, 2.06967585001, -35.6453591975, -9.64188705115, -20.2452051072, -13.0353603914, -15.7543253331, 21.289889156, 17.6806558926, 4.81945298342, -33.7442217144, -25.4594963957, -29.9498258329, -39.5001174606, -3.0628103231, 18.1845883493, 9.5992512809, -0.765115281817, 23.6273180568, -4.91647042021, 7.75680334475, -15.9852988515, 6.91885194452, -20.3700615583, -16.3089049975, -16.6829692429, 15.533480753, 21.4817976766, 16.1317462927, -3.8104063596, 5.41365656433, -19.1606518142, -3.58436084494, -7.88430119182, 17.1336553949, 23.8912965662, 25.1356302936, -0.575455940284, 6.59394015628, -21.8826754597, -6.16168544124, -7.10577412503, -16.0687066672, -17.8567820392, -15.1778499236, -26.5588819319, -1.31189250879, 5.67913887092, 2.80189852699, -5.8024537727, 0.00997907388318, -11.3376115661, -13.212112928, -1.89664100086, -7.13858389532, -3.30781825695, -2.76130057158, -8.40682323945};
// const int tmp_connections153[129] = {128, 0, 1, 2, 3, 4, 5, 6, 7, 8, 9, 10, 11, 12, 13, 14, 15, 16, 17, 18, 19, 20, 21, 22, 23, 24, 25, 26, 27, 28, 29, 30, 31, 32, 33, 34, 35, 36, 37, 38, 39, 40, 41, 42, 43, 44, 45, 46, 47, 48, 49, 50, 51, 52, 53, 54, 55, 56, 57, 58, 59, 60, 61, 62, 63, 64, 65, 66, 67, 68, 69, 70, 71, 72, 73, 74, 75, 76, 77, 78, 79, 80, 81, 82, 83, 84, 85, 86, 87, 88, 89, 90, 91, 92, 93, 94, 95, 96, 97, 98, 99, 100, 101, 102, 103, 104, 105, 106, 107, 108, 109, 110, 111, 112, 113, 114, 115, 116, 117, 118, 119, 120, 121, 122, 123, 124, 125, 126, 127};
//
// const float tmp_weights154[129] = {-9.65245436121, -6.72659045019, 8.32083779359, -4.77604550634, -8.96160490753, 0.698023495679, -0.688309295165, -1.36657495667, -7.07632117149, -28.4324935145, 8.00036223613, -29.7245753879, -14.0028246299, 3.23418370071, 23.0432004972, 4.53779484641, -6.56902180606, 31.5574885126, 22.939222626, 18.6093491495, 8.88378831743, 9.50279296938, -12.630225667, -12.1201874166, -12.9139349017, 40.063100921, 14.2486834659, 13.9186604911, 9.44022587633, 9.57086554253, -13.051330026, -10.5436107005, -10.1639224951, -3.67420083952, 9.67949421814, -4.51059804175, -2.54473140094, 6.92727871276, -0.806914496903, -8.05970269263, -8.90418474463, 9.92516297499, 9.67190034134, 1.403651845, 1.23551470734, 7.24950841414, 2.22440931595, -7.08911254492, -6.82453236839, 6.09842478762, 9.67198014268, 2.93569180764, -0.457908030221, 3.58014775356, 4.66576098253, -2.06322421117, -0.424150470474, 12.5705310498, 9.69024874484, 7.03831545805, 0.409075277774, 2.3642301479, 2.27883209414, -5.21651806533, -4.7347289698, -38.0722694242, -9.93377135922, -32.4024516038, -33.7003459212, -19.4276772723, 27.1377808134, 14.5255573055, -5.33984339022, -17.286260432, -4.76152415196, -12.0633763259, -13.5710732469, -10.0727739509, 8.1287800515, 3.37278953021, -7.66524497887, 4.02027690061, 13.5564413254, 10.3084566969, 4.00004397285, 6.71829944823, -0.566620972298, -8.5029677791, -12.8408092403, 11.4907244358, 14.0543347816, 12.9043168514, 1.3719525974, 7.70303392983, -0.841469865861, -9.04228456616, -14.0036891273, -1.13619309552, 14.9021098528, -41.2389838373, -24.4174572968, -0.467278161137, 13.5219638528, 5.93665715902, -1.68324101492, 24.271740168, 28.0669049611, -26.7915477923, -16.358097487, 2.17493300149, -4.83213341679, -5.29865503246, -1.44427940282, -15.5177081098, 0.963947241016, -10.058649453, -9.89025713846, 1.45554341845, 9.7887820586, 1.34568987857, -3.17379406115, -21.6357637684, -1.27259179009, -19.8309762173, 1.96940176375, -5.52317075807, 13.8642800804, 5.86714927631, -0.474955644543};
// const int tmp_connections154[129] = {128, 0, 1, 2, 3, 4, 5, 6, 7, 8, 9, 10, 11, 12, 13, 14, 15, 16, 17, 18, 19, 20, 21, 22, 23, 24, 25, 26, 27, 28, 29, 30, 31, 32, 33, 34, 35, 36, 37, 38, 39, 40, 41, 42, 43, 44, 45, 46, 47, 48, 49, 50, 51, 52, 53, 54, 55, 56, 57, 58, 59, 60, 61, 62, 63, 64, 65, 66, 67, 68, 69, 70, 71, 72, 73, 74, 75, 76, 77, 78, 79, 80, 81, 82, 83, 84, 85, 86, 87, 88, 89, 90, 91, 92, 93, 94, 95, 96, 97, 98, 99, 100, 101, 102, 103, 104, 105, 106, 107, 108, 109, 110, 111, 112, 113, 114, 115, 116, 117, 118, 119, 120, 121, 122, 123, 124, 125, 126, 127};
//
// const float tmp_weights155[129] = {-2.92706407277, -2.57951702169, 3.23276562796, 2.36810530584, 4.52456829384, 2.54924201631, -1.39996573654, -0.0549508860293, 0.0853430546671, -5.43846383019, 2.42329354039, 6.0559301979, 7.10665818169, 2.73112676013, -0.517104873003, 1.39157198511, 0.351708891872, -10.1360922669, -6.90747812486, -2.61778737012, 1.6695060205, 3.02830703535, 7.0190687983, 1.09916961758, -0.784207290473, -8.19750691831, 0.963982786502, 1.45872270935, 1.97171296131, 2.72982990629, 1.02747036096, -2.02263236986, -2.53899163489, -4.18926103688, 3.05316227662, 1.78955866236, 1.77694681388, 2.64040376443, -2.07357323157, -2.41074265258, -2.76075193297, -0.358341735722, 2.99489577432, 2.77652668911, 2.37285400407, 2.75037059383, -3.84583365958, -2.34715363608, -3.18413702595, -4.98757184996, 2.97504651324, -1.68057063602, 0.494280849699, 2.49302858166, 0.907212783333, -0.0313551213055, -3.39453454491, -3.99554256553, 2.94434232434, -1.19645204943, 0.604828663777, 2.21548937744, 0.422263917186, 0.139110064633, -3.05923077326, -5.71975694266, 1.63839388272, -0.18330331432, 2.58157824964, -0.312536216818, 0.548225380915, 1.42648106343, 0.461787136166, -6.68853130972, -0.0760517674247, -2.94004782194, -0.801698680243, -2.53005410718, 1.86328048509, 2.25898711093, 0.959521221035, -12.9237203497, -8.26245954896, -10.3066951505, -8.45178331126, -0.13182519025, 6.76666239029, 4.38655570456, 1.72656554968, 3.56604655349, -1.84365622737, 1.72265884394, 0.112576300707, 3.40012827381, -4.73917372261, -3.31442230029, -2.15209610175, 7.85993241047, 11.5139765123, 13.0613157468, 4.54302837993, 3.43152342948, -10.9570366362, -2.8320332084, -2.64099599536, 7.0410778615, 10.8050651155, 14.3264675728, 4.35059197594, 3.50200344165, -10.4362877582, -2.59711250346, -2.43586006843, -6.46125472109, -4.1559584538, -3.21295595984, -1.69885061485, 2.0173888736, 1.39657068119, 0.927900328471, -2.1653103795, -2.02397737846, -1.85393511436, -2.05774777049, 1.78718055424, 1.83786313826, -1.42540839232, -0.888599500255, -3.0661507888};
// const int tmp_connections155[129] = {128, 0, 1, 2, 3, 4, 5, 6, 7, 8, 9, 10, 11, 12, 13, 14, 15, 16, 17, 18, 19, 20, 21, 22, 23, 24, 25, 26, 27, 28, 29, 30, 31, 32, 33, 34, 35, 36, 37, 38, 39, 40, 41, 42, 43, 44, 45, 46, 47, 48, 49, 50, 51, 52, 53, 54, 55, 56, 57, 58, 59, 60, 61, 62, 63, 64, 65, 66, 67, 68, 69, 70, 71, 72, 73, 74, 75, 76, 77, 78, 79, 80, 81, 82, 83, 84, 85, 86, 87, 88, 89, 90, 91, 92, 93, 94, 95, 96, 97, 98, 99, 100, 101, 102, 103, 104, 105, 106, 107, 108, 109, 110, 111, 112, 113, 114, 115, 116, 117, 118, 119, 120, 121, 122, 123, 124, 125, 126, 127};
//
// const float tmp_weights156[129] = {0.697801215288, 0.0150710989936, -0.736401202638, -0.649655735373, -0.811058721763, -0.378036322376, 0.0548770134936, -0.0206289942273, -0.108679194929, -1.09752221359, -0.813760025609, -2.33384737091, -1.96568149901, -0.713993344151, 1.12131047484, 0.652158767615, 0.164840607418, 0.6199869524, 1.00086187133, -0.400288360467, -0.330841756671, -0.609370824098, 0.208441677284, 0.370718057151, 0.52690441318, 0.609227519551, -0.299353244847, -0.55964137849, -0.490338050637, -0.717341192373, 0.498560713435, 0.712686289177, 0.676512483914, -0.069253197651, -0.617325953468, -0.625479256118, -0.555972195669, -0.576565837747, 0.481008666162, 0.678772074891, 0.764260093399, -0.267437855, -0.696084449081, -0.74396129316, -0.601510002555, -0.61430511241, -0.0759443103289, 0.475588424028, 0.775275928946, -0.00206862082019, -0.697788435516, 0.158348930825, 0.427087864171, -0.00445660967801, 0.127870305777, -0.0420377742098, 0.426299412016, -0.139629354777, -0.660940596759, -0.0951630302606, 0.254923563052, 0.0839909254259, 0.351657115583, 0.34109404459, 0.733640546179, 0.326129088333, -1.13891388348, 0.0969242812957, 0.237355630892, 0.828014250673, -0.740805423353, -0.800632757066, -0.549710504732, 0.877154118774, -0.598118636271, 0.5792155668, 0.719643641061, 1.32845551053, -1.26621379525, -1.18583099959, -0.71034739948, 0.0281663903615, 0.669181212766, -0.269205641128, 1.49634014962, 0.268833994477, 0.528698390761, 0.397977602452, 0.332705313964, -0.830875807373, 0.454293537768, -0.360837986682, 1.82693925311, 0.0134719906006, 1.04950020565, 0.730170132805, 0.361777657036, 0.125105569266, 1.01237139107, 0.594730296934, 0.428397572207, -0.130145459439, -0.528603582023, -0.337154431957, 0.170619011927, -0.465052123814, 0.739394890524, -0.891423636235, 0.0427739333977, -0.309422432188, -0.0905866766195, -0.245079511195, 0.148901031548, -0.153023045805, 0.847802354076, 0.537159582273, 2.41853531738, 0.566047237302, 0.171699016729, -0.0588084385774, 0.443715928986, -0.769034671965, 0.692013394028, 0.437374301608, 0.235036268062, 1.30160765031, 0.437890392832, -0.047989341038, 0.457489684275};
// const int tmp_connections156[129] = {128, 0, 1, 2, 3, 4, 5, 6, 7, 8, 9, 10, 11, 12, 13, 14, 15, 16, 17, 18, 19, 20, 21, 22, 23, 24, 25, 26, 27, 28, 29, 30, 31, 32, 33, 34, 35, 36, 37, 38, 39, 40, 41, 42, 43, 44, 45, 46, 47, 48, 49, 50, 51, 52, 53, 54, 55, 56, 57, 58, 59, 60, 61, 62, 63, 64, 65, 66, 67, 68, 69, 70, 71, 72, 73, 74, 75, 76, 77, 78, 79, 80, 81, 82, 83, 84, 85, 86, 87, 88, 89, 90, 91, 92, 93, 94, 95, 96, 97, 98, 99, 100, 101, 102, 103, 104, 105, 106, 107, 108, 109, 110, 111, 112, 113, 114, 115, 116, 117, 118, 119, 120, 121, 122, 123, 124, 125, 126, 127};
//
// const float tmp_weights157[129] = {-0.797693277165, -4.59179231991, 0.907784151157, 1.88434920235, 5.34083299225, 1.92460777719, -2.04501416108, 0.0301773665922, 1.92370222491, -14.7673186902, 0.620146507597, -1.74025904146, 2.55541567276, 0.717365427179, 1.56272435973, 2.663901189, 3.67301691164, -11.1080601176, -6.53622386795, -4.08835380289, 0.962697740447, 1.97934344808, 9.6704488479, 2.25106852064, 1.15446442383, -8.46894316241, -0.642382983701, -0.529358559598, 0.653384427535, 0.62833636287, 3.25290448295, -0.308909120297, -0.523224342343, -10.1798356193, 1.08922279245, -0.707522389852, -0.0321544259283, 0.647153658493, 0.317857847784, -0.366537614592, -0.508234447982, -4.14921505957, 0.827474011534, 0.632829644516, 0.699391771586, 0.827752534151, -3.1512154501, -0.817180207597, -0.552636664374, -7.31189780482, 0.819933237538, -2.26697593575, 0.650183113124, 1.81637927307, 1.7374271724, 0.116724123375, -0.255552054456, -6.45885613376, 0.805020058703, -2.46744972083, 0.0395653706465, 1.61963564936, 1.98029625154, 1.42653344152, 1.38341988679, -6.84322070899, -2.01690113362, 1.08797123111, 5.03615829102, 1.23646286026, -3.43490554858, -0.762676597331, 1.48807272621, -4.94416744156, -2.38875671407, 0.3538578407, 3.12722911885, 0.856313117638, -3.22196233311, -1.21919079087, 1.59258954151, -17.944619219, -10.4114374834, -13.8348971357, -6.62553240319, -0.926892269097, 9.8840206595, 6.50936203434, 4.76917420417, -0.46905438125, -2.64573210715, 0.433859377157, 4.10483719661, 2.73297156355, -2.5160375902, -1.99379170857, -0.00551100187145, 8.19107075365, 13.7428747696, 19.2504498782, 7.6743634726, 3.16156694083, -13.5933766962, -4.5585640338, -0.760265813916, 7.24891714219, 13.357849598, 17.9541543639, 5.7971803117, 2.72287340579, -12.6125537952, -4.10641367531, -0.0845918055051, -10.5169662356, -3.68958069274, -3.40037401995, 2.64537951803, 2.38222036188, 2.25502571835, 0.901310949396, 1.19247017042, -6.2733831447, -1.40224505315, -0.735734645369, 2.07686389852, 4.71078725889, -0.726865892596, -1.50284829064, -0.328027649007};
// const int tmp_connections157[129] = {128, 0, 1, 2, 3, 4, 5, 6, 7, 8, 9, 10, 11, 12, 13, 14, 15, 16, 17, 18, 19, 20, 21, 22, 23, 24, 25, 26, 27, 28, 29, 30, 31, 32, 33, 34, 35, 36, 37, 38, 39, 40, 41, 42, 43, 44, 45, 46, 47, 48, 49, 50, 51, 52, 53, 54, 55, 56, 57, 58, 59, 60, 61, 62, 63, 64, 65, 66, 67, 68, 69, 70, 71, 72, 73, 74, 75, 76, 77, 78, 79, 80, 81, 82, 83, 84, 85, 86, 87, 88, 89, 90, 91, 92, 93, 94, 95, 96, 97, 98, 99, 100, 101, 102, 103, 104, 105, 106, 107, 108, 109, 110, 111, 112, 113, 114, 115, 116, 117, 118, 119, 120, 121, 122, 123, 124, 125, 126, 127};
//
// const float tmp_weights158[129] = {0.0561314199702, 1.26170175718, 0.145681382889, -1.21699981487, -1.82262180785, 0.093476692117, 2.45916737737, 0.762291569921, -1.40884649732, 16.9469670144, 0.437558856859, 15.3220514186, 8.63859254534, 1.89526579929, -7.7837084564, -4.93112702546, -4.60379492954, -3.95005356721, -7.95967302422, -2.74821111283, -1.21740557194, -0.0749802442474, 2.43481261528, 0.77377976037, -0.91119308366, -4.32790975398, -2.07042950574, -0.958782992614, -0.67262771058, -0.0975327567132, 0.864472451776, 0.0741290277583, -0.242796944074, -0.238289307139, -0.176662430099, -1.929527295, -2.43699251822, -0.264710138398, 1.2577219435, 0.0604598013771, -0.47424922457, -0.43089653554, -0.0477047959402, -1.64859068999, -1.98938366252, -0.229646618841, 5.41625848907, 0.479328173021, -1.97005419387, 1.39965334514, -0.103162218499, -3.05030265215, -2.79306807058, -0.445294626728, 0.610061139955, 0.229904921975, -3.13024156334, 1.40211680594, -0.0588298620397, -2.92351726079, -2.74724408471, -0.459553712645, 0.496006338325, 0.232313554831, -2.73981991045, 3.84429516485, 1.15737484907, 0.00433259923637, -1.01531990045, -0.367872490386, 2.17631142278, 0.517688656401, -1.63405557581, -3.76211321054, -1.56471282906, -6.53790500201, -7.03517929099, -4.58701210199, 6.28348251372, 3.98145262573, 0.178669428756, 0.268941087822, -5.50427649532, -2.99335807318, -6.56843939572, -0.976318777988, 0.57884360656, 0.908442416483, 0.132463890172, 6.40373728459, -4.53227769549, 0.408255338635, -4.36666860652, 0.0134101814856, -3.70738112719, -1.87033892088, -1.59735760121, 6.24841424534, -0.175635342708, -2.57685229709, -5.21886783878, -1.45143348088, 1.08087215005, 2.84976408755, -0.33954335974, 3.55505905579, -1.67851271329, -2.97955434988, -3.88169313891, -1.10354892632, 2.39719286535, 2.70083819193, -0.735424317361, 3.42383250497, -5.57197887196, -2.32021951322, -5.91707953281, -1.33480724703, 0.0051787919291, 0.483196656361, -1.26095329315, 5.37788776445, -4.62665513749, -3.56063134792, -2.22239441804, -2.99727299714, -0.717022773422, 0.11319628769, -1.49435136174};
// const int tmp_connections158[129] = {128, 0, 1, 2, 3, 4, 5, 6, 7, 8, 9, 10, 11, 12, 13, 14, 15, 16, 17, 18, 19, 20, 21, 22, 23, 24, 25, 26, 27, 28, 29, 30, 31, 32, 33, 34, 35, 36, 37, 38, 39, 40, 41, 42, 43, 44, 45, 46, 47, 48, 49, 50, 51, 52, 53, 54, 55, 56, 57, 58, 59, 60, 61, 62, 63, 64, 65, 66, 67, 68, 69, 70, 71, 72, 73, 74, 75, 76, 77, 78, 79, 80, 81, 82, 83, 84, 85, 86, 87, 88, 89, 90, 91, 92, 93, 94, 95, 96, 97, 98, 99, 100, 101, 102, 103, 104, 105, 106, 107, 108, 109, 110, 111, 112, 113, 114, 115, 116, 117, 118, 119, 120, 121, 122, 123, 124, 125, 126, 127};
//
// const float tmp_weights159[129] = {1.34871151179, -2.72335185015, -1.24786785244, -1.19586688509, -1.06023721042, -1.36672937634, 1.1925673053, 0.71333311945, -0.30012852702, -8.03984526063, -1.24864296579, -6.81312267237, -4.47711273964, -1.83474840803, 5.9351138465, 2.9030571289, 0.766081346649, 0.107086717209, 7.41494397539, 1.0109304682, -0.30815498956, -1.26368893488, -1.63291460112, -0.00644656831124, 0.985008901872, 0.121116450112, 0.777178889809, -0.542762945259, -0.706237436292, -1.26053698749, -0.113543697026, 1.01600801337, 1.22464012131, -5.20374563988, -1.19817322226, -1.89210369718, -1.34440603049, -1.21890060803, 1.16613085423, 1.28558353711, 1.32263032277, -4.81515238151, -1.33498159465, -1.80935968706, -1.24284356157, -1.18978270829, 0.784860050954, 1.17983930911, 1.66344069138, -1.89788675249, -1.29705091368, 2.08734209885, 1.68962598878, 0.0838598143362, -0.857574059218, -0.757295780244, 0.794459897257, -1.94756128454, -1.28314200052, 1.62242172782, 1.28356331545, 0.332163346547, -0.753005645475, -0.419148389556, 1.21335248129, -5.25365646001, -1.47809851877, -2.8122281382, -2.23773937678, -1.99862626572, 2.59082073389, 1.48651792949, -0.136067910346, -3.28228500354, -0.925983459239, -1.18884681734, -0.795952867964, -1.13397691503, 1.15365031572, 0.633577547652, -0.29942847182, -0.264744283168, 6.04801740352, 4.23115628622, 7.10430069168, 1.52734519897, -0.96209285556, -0.668662913, 0.31697285742, -0.778707381703, 6.20465677223, 4.85798000699, 7.9730439989, 0.863804814604, -1.18071167445, -0.675998689795, 0.214697325162, -7.77760238887, 2.93643678745, -2.22953071953, -0.207454901666, -0.686138881897, 2.08697583138, 1.25174175624, 1.21880225597, -8.32467371458, 3.24712862943, -4.13094945112, -0.512972611562, -0.852468915989, 2.85883886277, 1.49210909766, 1.14883070868, -2.09284130793, 5.21700764474, 3.71361213017, 7.4075919169, 1.62277344718, -0.503753151963, -1.13638230594, 0.110820836329, -2.74008295602, 5.05842367895, 3.35152914481, 1.1950277056, 3.21634543285, -0.303397546015, -1.22226152729, 0.0870995418996};
// const int tmp_connections159[129] = {128, 0, 1, 2, 3, 4, 5, 6, 7, 8, 9, 10, 11, 12, 13, 14, 15, 16, 17, 18, 19, 20, 21, 22, 23, 24, 25, 26, 27, 28, 29, 30, 31, 32, 33, 34, 35, 36, 37, 38, 39, 40, 41, 42, 43, 44, 45, 46, 47, 48, 49, 50, 51, 52, 53, 54, 55, 56, 57, 58, 59, 60, 61, 62, 63, 64, 65, 66, 67, 68, 69, 70, 71, 72, 73, 74, 75, 76, 77, 78, 79, 80, 81, 82, 83, 84, 85, 86, 87, 88, 89, 90, 91, 92, 93, 94, 95, 96, 97, 98, 99, 100, 101, 102, 103, 104, 105, 106, 107, 108, 109, 110, 111, 112, 113, 114, 115, 116, 117, 118, 119, 120, 121, 122, 123, 124, 125, 126, 127};
//
// const float tmp_weights160[129] = {1.65740236466, -0.647836211081, -1.81535557704, 0.658046346431, 1.82681047147, -0.100354088536, -1.72850185119, -0.253439759154, 1.39736005315, -7.18152437031, -1.94562120458, -5.04488980071, -3.10277863844, -1.70519275631, 1.71334752391, 2.00463874596, 2.61442110618, -3.04614638532, -0.808767017949, -2.82690915251, -0.825528112663, -0.966626255856, 3.15117642979, 2.23486472038, 2.42884755024, -2.42069716797, -1.31424131693, -1.9343709785, -1.161658903, -1.5354296005, 1.99345558154, 1.4570476096, 1.55973830352, -4.63730390847, -1.58710444061, -1.39708015083, -1.01517613614, -1.48351464063, 1.05653921213, 1.44952657262, 1.52030406048, -2.49721877558, -1.69045360883, -1.15149550457, -0.935699387211, -1.49451477037, -1.94823752991, 0.829075214235, 1.60329859952, -2.1376539115, -1.66368301297, -0.544229298601, 0.650526521378, -0.132853316935, -0.122538533243, 0.181452203824, 1.17646507955, -2.27654795963, -1.68976217923, -0.982656281374, 0.105038888067, 0.0223514651308, 0.427744134417, 1.06801052707, 2.17393381489, -0.487041669629, -3.70716845268, 1.42230212352, 2.99344835183, 2.2601886709, -4.48461439073, -2.46840800436, 0.582998691205, 1.19327376278, -2.97863861985, 2.29430935571, 3.46160506993, 3.15896543873, -5.10003638082, -3.36132660818, 0.162035308327, -5.96238918466, -1.88004264144, -6.14670092178, -0.668626464813, -1.46841222361, 3.63089262285, 3.36837659227, 3.23169495352, -2.27066299057, 0.704523552766, -1.82656337397, 3.58627038421, -0.346078156806, 0.673862344632, 1.30697630424, 2.29250643802, 2.04404373663, 2.52963498271, 9.32595218018, 4.314051419, 0.152142712193, -6.04262587394, -1.889750661, 1.38299494349, 0.967520808091, 2.09283778598, 6.39875391169, 2.48899564902, -0.379783646323, -4.77767796773, -1.10211048825, 1.56950997327, -3.23130003291, 1.25442858839, -0.540035296933, 5.2393672155, 0.946189518803, 0.299651077495, 0.0862513369585, 1.56150705829, -2.76808390924, 1.55135473846, 0.851743303096, 0.827147962304, 3.20886830823, -0.465199273323, -0.602988161408, 1.16210637649};
// const int tmp_connections160[129] = {128, 0, 1, 2, 3, 4, 5, 6, 7, 8, 9, 10, 11, 12, 13, 14, 15, 16, 17, 18, 19, 20, 21, 22, 23, 24, 25, 26, 27, 28, 29, 30, 31, 32, 33, 34, 35, 36, 37, 38, 39, 40, 41, 42, 43, 44, 45, 46, 47, 48, 49, 50, 51, 52, 53, 54, 55, 56, 57, 58, 59, 60, 61, 62, 63, 64, 65, 66, 67, 68, 69, 70, 71, 72, 73, 74, 75, 76, 77, 78, 79, 80, 81, 82, 83, 84, 85, 86, 87, 88, 89, 90, 91, 92, 93, 94, 95, 96, 97, 98, 99, 100, 101, 102, 103, 104, 105, 106, 107, 108, 109, 110, 111, 112, 113, 114, 115, 116, 117, 118, 119, 120, 121, 122, 123, 124, 125, 126, 127};
//
